<?xml version="1.0"?>
<opencv_storage>
<cascade>
  <stageType>BOOST</stageType>
  <featureType>LBP</featureType>
  <height>60</height>
  <width>80</width>
  <stageParams>
    <boostType>GAB</boostType>
    <minHitRate>9.9900001287460327e-01</minHitRate>
    <maxFalseAlarm>5.0000000000000000e-01</maxFalseAlarm>
    <weightTrimRate>9.4999999999999996e-01</weightTrimRate>
    <maxDepth>1</maxDepth>
    <maxWeakCount>100</maxWeakCount></stageParams>
  <featureParams>
    <maxCatCount>256</maxCatCount>
    <featSize>1</featSize></featureParams>
  <stageNum>15</stageNum>
  <stages>
    <!-- stage 0 -->
    <_>
      <maxWeakCount>3</maxWeakCount>
      <stageThreshold>-8.1611847877502441e-01</stageThreshold>
      <weakClassifiers>
        <_>
          <internalNodes>
            0 -1 79 -34814832 -570979280 2075012285 -1787752591
            -1092183810 -1158185290 209129403 285409282</internalNodes>
          <leafValues>
            -7.9730457067489624e-01 8.3501005172729492e-01</leafValues></_>
        <_>
          <internalNodes>
            0 -1 31 1342177496 -732888960 16777489 151060489 -2147442526
            -2113929040 25165825 33751042</internalNodes>
          <leafValues>
            -8.1098777055740356e-01 7.0325857400894165e-01</leafValues></_>
        <_>
          <internalNodes>
            0 -1 6 1517813756 -570585364 -939622403 -1380119347
            -1048727553 -2076856322 -2127423937 196611</internalNodes>
          <leafValues>
            -6.9108122587203979e-01 7.9217392206192017e-01</leafValues></_></weakClassifiers></_>
    <!-- stage 1 -->
    <_>
      <maxWeakCount>3</maxWeakCount>
      <stageThreshold>-9.5912832021713257e-01</stageThreshold>
      <weakClassifiers>
        <_>
          <internalNodes>
            0 -1 43 -620575746 521207808 16779549 956368896 -1979711346
            -1160773472 -2013263697 187367424</internalNodes>
          <leafValues>
            -8.0577749013900757e-01 5.4173487424850464e-01</leafValues></_>
        <_>
          <internalNodes>
            0 -1 85 -1065170896 1431633924 150995453 294719518
            1076363448 -1174405107 -2004875029 -1717434357</internalNodes>
          <leafValues>
            -6.9140189886093140e-01 6.1523276567459106e-01</leafValues></_>
        <_>
          <internalNodes>
            0 -1 8 -1472008818 771751936 -1996449470 581968146
            -2134867765 2063597760 -1702721368 -1551652693</internalNodes>
          <leafValues>
            -7.2538936138153076e-01 5.3805106878280640e-01</leafValues></_></weakClassifiers></_>
    <!-- stage 2 -->
    <_>
      <maxWeakCount>6</maxWeakCount>
      <stageThreshold>-1.2460923194885254e+00</stageThreshold>
      <weakClassifiers>
        <_>
          <internalNodes>
            0 -1 55 -796732680 -245825504 25231609 -1686044543
            -2147442454 -667500406 -2147384693 -1618247541</internalNodes>
          <leafValues>
            -6.2630480527877808e-01 5.9056806564331055e-01</leafValues></_>
        <_>
          <internalNodes>
            0 -1 28 -675153921 -542441343 17040189 -1627062255
            -2130665301 134479872 1476397227 17956995</internalNodes>
          <leafValues>
            -5.4661506414413452e-01 5.5072414875030518e-01</leafValues></_>
        <_>
          <internalNodes>
            0 -1 80 -1096090928 -713441500 -1627693640 1427209753
            -1074531672 -1656750083 502732184 -1986946533</internalNodes>
          <leafValues>
            -5.1616305112838745e-01 6.2024384737014771e-01</leafValues></_>
        <_>
          <internalNodes>
            0 -1 26 488046644 -837709631 -931007258 -326561711
            -1845452597 -1820262392 -2121235669 -1145320513</internalNodes>
          <leafValues>
            -6.6520655155181885e-01 4.4883921742439270e-01</leafValues></_>
        <_>
          <internalNodes>
            0 -1 10 -1126006124 -1280282951 1073688511 296723705
            524591830 -176695642 341073357 1066075389</internalNodes>
          <leafValues>
            -4.8413991928100586e-01 5.8402967453002930e-01</leafValues></_>
        <_>
          <internalNodes>
            0 -1 69 -1002385512 -245825456 1358958684 881903744
            -1073708290 -335478784 545262248 -1945567205</internalNodes>
          <leafValues>
            -5.6560426950454712e-01 4.7829133272171021e-01</leafValues></_></weakClassifiers></_>
    <!-- stage 3 -->
    <_>
      <maxWeakCount>7</maxWeakCount>
      <stageThreshold>-1.8090316057205200e+00</stageThreshold>
      <weakClassifiers>
        <_>
          <internalNodes>
            0 -1 30 -178784271 -73973680 1360038353 520314945
            -2147350358 -1366613880 151531771 260833348</internalNodes>
          <leafValues>
            -6.7427885532379150e-01 3.9915612339973450e-01</leafValues></_>
        <_>
          <internalNodes>
            0 -1 56 -783630152 -753893168 159400087 486539414 426139
            -32896998 1258434811 -820051817</internalNodes>
          <leafValues>
            -5.0792688131332397e-01 4.9669414758682251e-01</leafValues></_>
        <_>
          <internalNodes>
            0 -1 96 -241762288 1560416272 -1794555628 1561133232
            -1677649477 -1727397792 286732479 1502810587</internalNodes>
          <leafValues>
            -5.0537896156311035e-01 4.9991992115974426e-01</leafValues></_>
        <_>
          <internalNodes>
            0 -1 2 -420532436 423231471 -268533763 -1209008145 -33882113
            -1 -196673 -138412161</internalNodes>
          <leafValues>
            -3.8573753833770752e-01 6.2354588508605957e-01</leafValues></_>
        <_>
          <internalNodes>
            0 -1 97 385877008 -1793982079 17912315 857739287 134256824
            -1970581376 673192888 707399685</internalNodes>
          <leafValues>
            -6.7221415042877197e-01 3.7066680192947388e-01</leafValues></_>
        <_>
          <internalNodes>
            0 -1 93 -451262128 1561702488 1343242495 274042961 136890552
            -662011733 50333752 -1728025840</internalNodes>
          <leafValues>
            -6.2781572341918945e-01 3.7708500027656555e-01</leafValues></_>
        <_>
          <internalNodes>
            0 -1 36 94179701 -820309823 -734002930 -2111647343
            -1728005971 -519397247 -1199021829 -6321493</internalNodes>
          <leafValues>
            -4.8385924100875854e-01 5.0621229410171509e-01</leafValues></_></weakClassifiers></_>
    <!-- stage 4 -->
    <_>
      <maxWeakCount>7</maxWeakCount>
      <stageThreshold>-9.4183504581451416e-01</stageThreshold>
      <weakClassifiers>
        <_>
          <internalNodes>
            0 -1 24 -526884724 -401369084 1350619220 1210187792
            -913588215 -1584918512 -325459875 -2001968390</internalNodes>
          <leafValues>
            -6.6391885280609131e-01 3.1289309263229370e-01</leafValues></_>
        <_>
          <internalNodes>
            0 -1 51 -255662896 -539848580 83919130 990380242 1224786170
            -276815862 1107317160 -1894571397</internalNodes>
          <leafValues>
            -5.1349741220474243e-01 4.8106691241264343e-01</leafValues></_>
        <_>
          <internalNodes>
            0 -1 63 -607269392 -53148652 -536813219 1344342529
            -863485762 -1429340024 1219100710 -1962407424</internalNodes>
          <leafValues>
            -6.5016555786132812e-01 3.6330017447471619e-01</leafValues></_>
        <_>
          <internalNodes>
            0 -1 37 1196101 -124600271 -2012896374 -1400716907
            -393110781 -225406928 -390543105 -603991813</internalNodes>
          <leafValues>
            -5.2310365438461304e-01 4.3048918247222900e-01</leafValues></_>
        <_>
          <internalNodes>
            0 -1 82 -556009196 1417792017 1343259097 1359020297
            285382794 -1203076862 1075843135 429126155</internalNodes>
          <leafValues>
            -4.7607415914535522e-01 5.0041770935058594e-01</leafValues></_>
        <_>
          <internalNodes>
            0 -1 95 -383858320 1574240276 1343246745 835064095 578961658
            -1424252797 1476677866 -1961729121</internalNodes>
          <leafValues>
            -4.8404923081398010e-01 4.5353418588638306e-01</leafValues></_>
        <_>
          <internalNodes>
            0 -1 22 -132451594 -684646016 268505361 -246316976 49226
            -889061246 17073 1152630977</internalNodes>
          <leafValues>
            -4.9901431798934937e-01 4.8482888936996460e-01</leafValues></_></weakClassifiers></_>
    <!-- stage 5 -->
    <_>
      <maxWeakCount>8</maxWeakCount>
      <stageThreshold>-1.2433456182479858e+00</stageThreshold>
      <weakClassifiers>
        <_>
          <internalNodes>
            0 -1 53 -282625 -268751047 -20737 -1715753061 -268787009
            -353440069 -1360418309 -6354757</internalNodes>
          <leafValues>
            -4.7058823704719543e-01 5.5720651149749756e-01</leafValues></_>
        <_>
          <internalNodes>
            0 -1 58 741878309 -16842753 -20754 -1930493953 -1207959585
            -1073741825 -67109377 -1</internalNodes>
          <leafValues>
            -3.9853173494338989e-01 5.5951607227325439e-01</leafValues></_>
        <_>
          <internalNodes>
            0 -1 76 -1006450672 1562280212 -784313889 285229079
            539494587 -1702173709 160004328 1493895423</internalNodes>
          <leafValues>
            -5.9472203254699707e-01 3.5401478409767151e-01</leafValues></_>
        <_>
          <internalNodes>
            0 -1 75 -139468584 -570950000 -25166787 -788148548 -25453336
            -1175325203 2113344793 -1715610305</internalNodes>
          <leafValues>
            -3.9462748169898987e-01 5.2157062292098999e-01</leafValues></_>
        <_>
          <internalNodes>
            0 -1 113 715093351 -372207419 -788455309 2057015555
            2063597755 1122377736 1083730292 -386373650</internalNodes>
          <leafValues>
            -5.3013968467712402e-01 3.9936554431915283e-01</leafValues></_>
        <_>
          <internalNodes>
            0 -1 17 2080066811 871591935 -1342275975 833828602
            1610045038 1333229149 -579384242 1444106711</internalNodes>
          <leafValues>
            -4.4999963045120239e-01 5.0270515680313110e-01</leafValues></_>
        <_>
          <internalNodes>
            0 -1 0 -899233078 -1789881951 -208596899 -561970991
            -1307540846 -1736244608 1154195619 1525638427</internalNodes>
          <leafValues>
            -7.3979574441909790e-01 2.5071457028388977e-01</leafValues></_>
        <_>
          <internalNodes>
            0 -1 72 -1047113384 -143420624 -2122301223 889265163
            1078303224 555360656 -486333968 -1683797030</internalNodes>
          <leafValues>
            -4.5938125252723694e-01 4.3747979402542114e-01</leafValues></_></weakClassifiers></_>
    <!-- stage 6 -->
    <_>
      <maxWeakCount>10</maxWeakCount>
      <stageThreshold>-1.4819327592849731e+00</stageThreshold>
      <weakClassifiers>
        <_>
          <internalNodes>
            0 -1 7 -715391013 -573373092 620763925 -573188075
            -1073573461 1208617089 8553707 1085784213</internalNodes>
          <leafValues>
            -5.7633137702941895e-01 2.8041416406631470e-01</leafValues></_>
        <_>
          <internalNodes>
            0 -1 4 1615515118 -1458253819 1484820872 -1601531840
            -1199535713 2047379456 -930446693 -235954029</internalNodes>
          <leafValues>
            -6.0228347778320312e-01 3.4373483061790466e-01</leafValues></_>
        <_>
          <internalNodes>
            0 -1 92 -1809294056 512970832 -1656745891 965742596
            539625948 -1414823798 403588026 -1415380959</internalNodes>
          <leafValues>
            -4.5085224509239197e-01 3.9238810539245605e-01</leafValues></_>
        <_>
          <internalNodes>
            0 -1 118 2139189461 -752500719 -2130706236 -254750591
            -805076854 -1423933312 -1605138401 2076043433</internalNodes>
          <leafValues>
            -6.2747609615325928e-01 3.2990020513534546e-01</leafValues></_>
        <_>
          <internalNodes>
            0 -1 29 -804717648 521208067 1227030835 -1929314288
            406866109 -1912078305 100666026 210767937</internalNodes>
          <leafValues>
            -5.9879273176193237e-01 2.9663226008415222e-01</leafValues></_>
        <_>
          <internalNodes>
            0 -1 49 2128805622 2111794688 -1070091 963995509 1852083882
            -1199603794 -813151041 -158343285</internalNodes>
          <leafValues>
            -3.4207770228385925e-01 6.0050714015960693e-01</leafValues></_>
        <_>
          <internalNodes>
            0 -1 74 -385685832 -644152752 -1323116325 -780140519
            37785881 -670400114 805442249 161176871</internalNodes>
          <leafValues>
            -5.7422202825546265e-01 3.6992275714874268e-01</leafValues></_>
        <_>
          <internalNodes>
            0 -1 114 -447526431 -359006014 -100608878 -214269543
            1216890941 1103233024 -125111776 -51468101</internalNodes>
          <leafValues>
            -4.4369629025459290e-01 4.4470304250717163e-01</leafValues></_>
        <_>
          <internalNodes>
            0 -1 90 -18354960 1970239754 -153362509 1364426739
            -1225278469 -1787366623 -1204351816 -734856070</internalNodes>
          <leafValues>
            -4.1231778264045715e-01 4.8899084329605103e-01</leafValues></_>
        <_>
          <internalNodes>
            0 -1 45 -68372278 -746910407 -1342559973 456208179 258802932
            -629184001 401575347 -72384598</internalNodes>
          <leafValues>
            -4.2696595191955566e-01 5.0213813781738281e-01</leafValues></_></weakClassifiers></_>
    <!-- stage 7 -->
    <_>
      <maxWeakCount>11</maxWeakCount>
      <stageThreshold>-1.0765324831008911e+00</stageThreshold>
      <weakClassifiers>
        <_>
          <internalNodes>
            0 -1 25 1207963904 -1065123327 -1275013811 -286537643
            -2118642293 -745586688 -928266066 -5266949</internalNodes>
          <leafValues>
            -5.8472555875778198e-01 2.8218242526054382e-01</leafValues></_>
        <_>
          <internalNodes>
            0 -1 99 -545858288 1476394429 -229891 273154044 -1073758275
            -1124077569 -1073864707 -97386669</internalNodes>
          <leafValues>
            -3.9087408781051636e-01 4.4679605960845947e-01</leafValues></_>
        <_>
          <internalNodes>
            0 -1 14 -741084709 1912242457 -1995410597 1292484789
            -2122137205 110821825 21038077 319488256</internalNodes>
          <leafValues>
            -4.7786259651184082e-01 3.5699310898780823e-01</leafValues></_>
        <_>
          <internalNodes>
            0 -1 64 -1559829800 949454378 -2130509631 1117749379
            -1006443860 -307519304 -919494529 -6323158</internalNodes>
          <leafValues>
            -4.4709524512290955e-01 4.0579548478126526e-01</leafValues></_>
        <_>
          <internalNodes>
            0 -1 101 -1111782960 123314508 83985307 683950184 -922578699
            -914128768 -612171624 946007598</internalNodes>
          <leafValues>
            -5.5431288480758667e-01 3.1395739316940308e-01</leafValues></_>
        <_>
          <internalNodes>
            0 -1 89 38949220 -267386816 -2012150598 708378768
            -1727494000 -611311616 -913800581 -1345468087</internalNodes>
          <leafValues>
            -4.6772035956382751e-01 3.9139872789382935e-01</leafValues></_>
        <_>
          <internalNodes>
            0 -1 73 1620574716 1431490626 -1828047395 -1760423088
            539527482 -570351608 1359063358 201546258</internalNodes>
          <leafValues>
            -5.7783895730972290e-01 3.2309439778327942e-01</leafValues></_>
        <_>
          <internalNodes>
            0 -1 20 -994425144 1678364681 606553 1824804869 -523721376
            -2139062112 -1312120644 -172975446</internalNodes>
          <leafValues>
            -5.4135262966156006e-01 3.1936904788017273e-01</leafValues></_>
        <_>
          <internalNodes>
            0 -1 12 -1043864146 -754745133 49490 1402474515 1291912111
            1519059072 -1476294014 889452931</internalNodes>
          <leafValues>
            -4.2415228486061096e-01 4.7852221131324768e-01</leafValues></_>
        <_>
          <internalNodes>
            0 -1 86 -1648720488 -840073487 1878940799 -1380405663
            -1728932422 -1619296387 -100713160 -574927669</internalNodes>
          <leafValues>
            -4.1847607493400574e-01 4.8070895671844482e-01</leafValues></_>
        <_>
          <internalNodes>
            0 -1 77 -624758864 998101072 143167571 1393135768 1814225135
            -1190559567 1893863977 -652320103</internalNodes>
          <leafValues>
            -4.3737912178039551e-01 4.4641721248626709e-01</leafValues></_></weakClassifiers></_>
    <!-- stage 8 -->
    <_>
      <maxWeakCount>9</maxWeakCount>
      <stageThreshold>-1.1470630168914795e+00</stageThreshold>
      <weakClassifiers>
        <_>
          <internalNodes>
            0 -1 2 -364746290 827445329 -2063597291 -83262207
            -1044137490 -174907264 -2129818974 -91232245</internalNodes>
          <leafValues>
            -5.0969094038009644e-01 3.4468084573745728e-01</leafValues></_>
        <_>
          <internalNodes>
            0 -1 67 -283967503 -1824423655 348953 395378951 16951547
            -393738239 25499 144195921</internalNodes>
          <leafValues>
            -5.8282417058944702e-01 2.7712467312812805e-01</leafValues></_>
        <_>
          <internalNodes>
            0 -1 78 -490006764 2102653873 537073949 -1123450670 52641963
            265946283 596182235 453593467</internalNodes>
          <leafValues>
            -4.5603474974632263e-01 3.4580585360527039e-01</leafValues></_>
        <_>
          <internalNodes>
            0 -1 40 -546117544 -133590840 151001370 -1946005258
            1359004320 -1710194392 16904210 -286563749</internalNodes>
          <leafValues>
            -4.6373242139816284e-01 3.8178503513336182e-01</leafValues></_>
        <_>
          <internalNodes>
            0 -1 102 -549252912 856227857 352323608 -1857486829
            1216875690 977010721 1074299082 2019616882</internalNodes>
          <leafValues>
            -5.3650498390197754e-01 2.9385522007942200e-01</leafValues></_>
        <_>
          <internalNodes>
            0 -1 42 566116195 -268436482 -16402 -1431371777 -16777266
            -8388737 -553648265 -1</internalNodes>
          <leafValues>
            -3.2775008678436279e-01 5.3178691864013672e-01</leafValues></_>
        <_>
          <internalNodes>
            0 -1 9 -556379682 1540587524 1359027161 -1839902443
            1208123599 34079109 1610776671 1347155377</internalNodes>
          <leafValues>
            -4.9637934565544128e-01 3.8386446237564087e-01</leafValues></_>
        <_>
          <internalNodes>
            0 -1 39 2075271039 1774029459 -1073762387 -1716670659
            -144375438 -520638794 -1520218697 -7633446</internalNodes>
          <leafValues>
            -3.3701074123382568e-01 5.5533480644226074e-01</leafValues></_>
        <_>
          <internalNodes>
            0 -1 116 -1333145251 -1308381167 -805191531 1883985921
            -1342136320 -662697856 -58703845 1395388075</internalNodes>
          <leafValues>
            -7.7439093589782715e-01 2.5487545132637024e-01</leafValues></_></weakClassifiers></_>
    <!-- stage 9 -->
    <_>
      <maxWeakCount>10</maxWeakCount>
      <stageThreshold>-1.3678152561187744e+00</stageThreshold>
      <weakClassifiers>
        <_>
          <internalNodes>
            0 -1 110 -931016428 1901138304 1409290653 865489563
            -2144673560 -1181155319 -2146923542 -34371065</internalNodes>
          <leafValues>
            -4.7830280661582947e-01 4.4258064031600952e-01</leafValues></_>
        <_>
          <internalNodes>
            0 -1 47 -707713057 -149356243 -2125401789 278134785
            -1071512438 1786904707 -1056830725 132249</internalNodes>
          <leafValues>
            -5.3730559349060059e-01 3.1934085488319397e-01</leafValues></_>
        <_>
          <internalNodes>
            0 -1 1 -926890772 -615411712 412500418 -1494107899
            -1333738354 -268400640 -931096369 1207404591</internalNodes>
          <leafValues>
            -7.2376692295074463e-01 2.2772669792175293e-01</leafValues></_>
        <_>
          <internalNodes>
            0 -1 50 -956268390 -258956776 -1996405757 -40795516
            -1073717054 -334495328 -1425860042 -74716450</internalNodes>
          <leafValues>
            -4.2549577355384827e-01 4.2557898163795471e-01</leafValues></_>
        <_>
          <internalNodes>
            0 -1 100 -1743584112 1561460749 1342443800 294289688
            424362462 -1279548759 145293337 963335376</internalNodes>
          <leafValues>
            -5.9428930282592773e-01 2.7802795171737671e-01</leafValues></_>
        <_>
          <internalNodes>
            0 -1 109 -788492011 -813613053 -2013245032 1955664273
            -1744797656 -2002255736 -2004876784 -58251245</internalNodes>
          <leafValues>
            -4.0188378095626831e-01 4.3809118866920471e-01</leafValues></_>
        <_>
          <internalNodes>
            0 -1 11 1501668058 894473144 16843547 319783319 167989394
            -1333559278 1258373329 2038518155</internalNodes>
          <leafValues>
            -4.4936409592628479e-01 4.2021331191062927e-01</leafValues></_>
        <_>
          <internalNodes>
            0 -1 68 -1739009904 320405509 268439569 -1743421173
            134348952 -1425539040 671092779 1084606517</internalNodes>
          <leafValues>
            -4.5530429482460022e-01 4.0718382596969604e-01</leafValues></_>
        <_>
          <internalNodes>
            0 -1 15 1409305389 893190141 1055850407 1572241406
            -1073815690 -1073741825 2113929203 -335561217</internalNodes>
          <leafValues>
            -3.5557314753532410e-01 5.4569393396377563e-01</leafValues></_>
        <_>
          <internalNodes>
            0 -1 57 -1344238852 -49413 -1896145633 254486075 796782559
            -1090551949 -1695085441 -1423151877</internalNodes>
          <leafValues>
            -4.1222196817398071e-01 4.6050101518630981e-01</leafValues></_></weakClassifiers></_>
    <!-- stage 10 -->
    <_>
      <maxWeakCount>9</maxWeakCount>
      <stageThreshold>-1.0075951814651489e+00</stageThreshold>
      <weakClassifiers>
        <_>
          <internalNodes>
            0 -1 107 -661076652 2098429975 49298 -1627192829 -1072459635
            -1198059343 -526221272 -121409033</internalNodes>
          <leafValues>
            -5.0101011991500854e-01 3.9470654726028442e-01</leafValues></_>
        <_>
          <internalNodes>
            0 -1 19 1347801232 1360073024 6320 1489307776 419430570
            -634683384 176691812 1080649985</internalNodes>
          <leafValues>
            -5.6860220432281494e-01 2.9522797465324402e-01</leafValues></_>
        <_>
          <internalNodes>
            0 -1 115 675754307 1346375936 -2104491815 -1239891692
            -2113365262 -528416608 -243085678 -274611293</internalNodes>
          <leafValues>
            -4.1110113263130188e-01 4.4347763061523438e-01</leafValues></_>
        <_>
          <internalNodes>
            0 -1 46 -1420078129 -514539067 285311186 -2036755767
            -2136762599 -79159168 -1182291021 145816521</internalNodes>
          <leafValues>
            -6.1574101448059082e-01 2.9872262477874756e-01</leafValues></_>
        <_>
          <internalNodes>
            0 -1 87 -1012739436 -714668204 696848813 -1056202616
            -1060376374 -1465771616 -922676295 -1744356933</internalNodes>
          <leafValues>
            -4.5340469479560852e-01 4.0753021836280823e-01</leafValues></_>
        <_>
          <internalNodes>
            0 -1 21 603434603 2096836362 -268439627 -772494039
            -1368686398 -525164368 1868735029 -1824946802</internalNodes>
          <leafValues>
            -3.6451804637908936e-01 5.0814551115036011e-01</leafValues></_>
        <_>
          <internalNodes>
            0 -1 27 71364692 -1139801775 8454156 -1567342568 42045544
            -1727496064 -1568046715 -224686069</internalNodes>
          <leafValues>
            -4.9141258001327515e-01 4.0181750059127808e-01</leafValues></_>
        <_>
          <internalNodes>
            0 -1 18 1543504088 1395654805 -1795072738 495128594
            1494229123 990972056 872515724 1980384071</internalNodes>
          <leafValues>
            -5.3800261020660400e-01 3.5623979568481445e-01</leafValues></_>
        <_>
          <internalNodes>
            0 -1 54 986896944 -785333872 -654305058 142698712
            -2012691836 -1193279440 1224804091 261050920</internalNodes>
          <leafValues>
            -5.6644368171691895e-01 3.7273958325386047e-01</leafValues></_></weakClassifiers></_>
    <!-- stage 11 -->
    <_>
      <maxWeakCount>9</maxWeakCount>
      <stageThreshold>-1.1394753456115723e+00</stageThreshold>
      <weakClassifiers>
        <_>
          <internalNodes>
            0 -1 2 -285216786 1061027823 -268533762 -1073741825
            -33882113 -1 -131073 -4194305</internalNodes>
          <leafValues>
            -4.9317005276679993e-01 5.4820936918258667e-01</leafValues></_>
        <_>
          <internalNodes>
            0 -1 105 832557429 -2129723129 -2138570660 1625002037
            -1069021972 -829946487 -343791540 1783031780</internalNodes>
          <leafValues>
            -5.4085057973861694e-01 3.2043272256851196e-01</leafValues></_>
        <_>
          <internalNodes>
            0 -1 5 -1591688304 -2121170748 2166868 -1526726272
            -1065353047 428556528 -761036597 1684089409</internalNodes>
          <leafValues>
            -5.6570786237716675e-01 3.0165621638298035e-01</leafValues></_>
        <_>
          <internalNodes>
            0 -1 35 1682924144 147001353 -2113846271 76595208 8421448
            -1291321344 1525205688 -487276492</internalNodes>
          <leafValues>
            -5.0727218389511108e-01 3.7563177943229675e-01</leafValues></_>
        <_>
          <internalNodes>
            0 -1 59 -1385025 -377489912 -1078022145 -39882875 1718496926
            1052749678 -831525069 -860912001</internalNodes>
          <leafValues>
            -4.1330400109291077e-01 4.8736080527305603e-01</leafValues></_>
        <_>
          <internalNodes>
            0 -1 88 -1264386540 -715570944 -1996457635 957382681
            -427779023 212893824 -668774696 134377756</internalNodes>
          <leafValues>
            -5.7817286252975464e-01 3.5998663306236267e-01</leafValues></_>
        <_>
          <internalNodes>
            0 -1 106 329494552 620888464 159645844 487784512 553878164
            -1616371704 -1610479344 -72249343</internalNodes>
          <leafValues>
            -4.9440369009971619e-01 3.9423578977584839e-01</leafValues></_>
        <_>
          <internalNodes>
            0 -1 62 -1128319009 -111816586 268538120 1716947264
            1904353323 -914194300 679602691 1142087825</internalNodes>
          <leafValues>
            -6.4749860763549805e-01 2.9205876588821411e-01</leafValues></_>
        <_>
          <internalNodes>
            0 -1 81 -554731963 351399504 -419799553 270104499 1853236918
            -277143563 972426203 -102695382</internalNodes>
          <leafValues>
            -4.3866780400276184e-01 4.5509231090545654e-01</leafValues></_></weakClassifiers></_>
    <!-- stage 12 -->
    <_>
      <maxWeakCount>8</maxWeakCount>
      <stageThreshold>-8.3513247966766357e-01</stageThreshold>
      <weakClassifiers>
        <_>
          <internalNodes>
            0 -1 112 -134250699 -5308498 -16793634 -38092810 -1 -1
            -135268369 -302520329</internalNodes>
          <leafValues>
            -4.5706370472908020e-01 4.9926793575286865e-01</leafValues></_>
        <_>
          <internalNodes>
            0 -1 33 1643933415 -404226065 -82066 -1427111953 -24834
            -268468225 -805331009 -67108865</internalNodes>
          <leafValues>
            -3.6601105332374573e-01 4.7284811735153198e-01</leafValues></_>
        <_>
          <internalNodes>
            0 -1 60 -914356200 -653156200 134218011 -2004809703
            -1472135038 506658979 -1056745032 -805320518</internalNodes>
          <leafValues>
            -5.0040137767791748e-01 3.6747199296951294e-01</leafValues></_>
        <_>
          <internalNodes>
            0 -1 104 1536418141 730374409 21299698 -536010751 -766623491
            -745848704 -779607814 1791022661</internalNodes>
          <leafValues>
            -5.2861344814300537e-01 3.3068066835403442e-01</leafValues></_>
        <_>
          <internalNodes>
            0 -1 23 1220558940 1031864338 -1811933921 788529561
            163586700 -551354328 8389128 1403613322</internalNodes>
          <leafValues>
            -4.6864116191864014e-01 3.9331310987472534e-01</leafValues></_>
        <_>
          <internalNodes>
            0 -1 48 -353768778 -545669604 -18088193 164212720
            -1889018326 -306303058 -1897263401 -817897585</internalNodes>
          <leafValues>
            -3.4190681576728821e-01 5.6003141403198242e-01</leafValues></_>
        <_>
          <internalNodes>
            0 -1 38 897040087 -788541634 -118785 -797026827 -966351258
            2028670565 1181601433 -911522027</internalNodes>
          <leafValues>
            -3.3066478371620178e-01 5.6409209966659546e-01</leafValues></_>
        <_>
          <internalNodes>
            0 -1 70 -389756912 -1313501155 285517053 1906343938
            1107378442 -758120278 -2146514709 -115776705</internalNodes>
          <leafValues>
            -4.0193763375282288e-01 4.5777657628059387e-01</leafValues></_></weakClassifiers></_>
    <!-- stage 13 -->
    <_>
      <maxWeakCount>11</maxWeakCount>
      <stageThreshold>-1.6851341724395752e+00</stageThreshold>
      <weakClassifiers>
        <_>
          <internalNodes>
            0 -1 111 -786957345 -447283183 285267444 -437169951
            -1979088707 1486391431 -913650824 -273700725</internalNodes>
          <leafValues>
            -4.8791316151618958e-01 4.1362529993057251e-01</leafValues></_>
        <_>
          <internalNodes>
            0 -1 61 961507295 -1252323260 1073905665 1627898115
            -368983089 -2130542464 1233356355 1544879077</internalNodes>
          <leafValues>
            -6.6729485988616943e-01 2.5702649354934692e-01</leafValues></_>
        <_>
          <internalNodes>
            0 -1 117 -1086082059 -988803072 1278057 1851506821
            1219383499 -1937530712 -1063665654 2142624467</internalNodes>
          <leafValues>
            -7.7560001611709595e-01 2.1214574575424194e-01</leafValues></_>
        <_>
          <internalNodes>
            0 -1 84 1297254512 2048622615 805384517 -1584147750
            -2141417061 -2013102014 -2146430759 -1599975209</internalNodes>
          <leafValues>
            -4.4276863336563110e-01 4.2420673370361328e-01</leafValues></_>
        <_>
          <internalNodes>
            0 -1 34 -4982081 -55329784 -4556 -1322271939 -464583488
            -927150364 -847960929 1938481297</internalNodes>
          <leafValues>
            -3.5400813817977905e-01 5.3845268487930298e-01</leafValues></_>
        <_>
          <internalNodes>
            0 -1 108 -1844416259 -1828716479 -662531936 -477445887
            136349701 -1180643200 -2146923932 -56055295</internalNodes>
          <leafValues>
            -4.2717459797859192e-01 4.3884781002998352e-01</leafValues></_>
        <_>
          <internalNodes>
            0 -1 103 -778972999 1104091139 159416825 -1228928639
            537022649 -410484703 -2139094796 1538429571</internalNodes>
          <leafValues>
            -4.6817591786384583e-01 4.2912063002586365e-01</leafValues></_>
        <_>
          <internalNodes>
            0 -1 3 1844374249 523829033 -193 2147481599 1610612733 -129
            -10 -1090535425</internalNodes>
          <leafValues>
            -3.2637709379196167e-01 6.2171536684036255e-01</leafValues></_>
        <_>
          <internalNodes>
            0 -1 16 1319029003 -1770159232 554779445 -451473136
            646972418 -1465744000 -788365309 1356663410</internalNodes>
          <leafValues>
            -4.5323485136032104e-01 4.5474526286125183e-01</leafValues></_>
        <_>
          <internalNodes>
            0 -1 91 -1052020208 -1672132517 -1472199364 269095064
            813733289 -1869053766 -1199347528 -670997773</internalNodes>
          <leafValues>
            -5.1038014888763428e-01 3.9351794123649597e-01</leafValues></_>
        <_>
          <internalNodes>
            0 -1 65 -914354024 -786326119 151267805 51742744 8639295
            674463801 -1442756566 -1618766175</internalNodes>
          <leafValues>
            -4.5419433712959290e-01 4.6173918247222900e-01</leafValues></_></weakClassifiers></_>
    <!-- stage 14 -->
    <_>
      <maxWeakCount>10</maxWeakCount>
      <stageThreshold>-1.3252949714660645e+00</stageThreshold>
      <weakClassifiers>
        <_>
          <internalNodes>
            0 -1 13 1945760255 -649526781 -1996434991 -106909677
            -845117282 -439940448 -485834607 -34803319</internalNodes>
          <leafValues>
            -5.4866772890090942e-01 3.5643565654754639e-01</leafValues></_>
        <_>
          <internalNodes>
            0 -1 32 -1157217045 -1915797290 -246214186 -1508749032
            424378638 -784268919 312945222 1079441957</internalNodes>
          <leafValues>
            -6.8893766403198242e-01 2.5754541158676147e-01</leafValues></_>
        <_>
          <internalNodes>
            0 -1 52 680001801 -196345583 -1610612436 -872132592
            -939480949 -1683996544 -1979152229 -41182581</internalNodes>
          <leafValues>
            -4.4546443223953247e-01 3.9106601476669312e-01</leafValues></_>
        <_>
          <internalNodes>
            0 -1 66 1797145599 -1283129343 -2097045239 1011576896
            -2147466582 -1073577534 -1564302139 1512632653</internalNodes>
          <leafValues>
            -6.0424590110778809e-01 3.2673105597496033e-01</leafValues></_>
        <_>
          <internalNodes>
            0 -1 44 -297534277 1589357728 -262219 -1711985368 -958337285
            -1610612834 -932272929 -2001747069</internalNodes>
          <leafValues>
            -3.8404271006584167e-01 5.2399522066116333e-01</leafValues></_>
        <_>
          <internalNodes>
            0 -1 98 -1926232844 -1808494575 -650112747 121962624
            -1610071592 -1080424303 -1899491204 -1457823711</internalNodes>
          <leafValues>
            -4.4402894377708435e-01 4.1676482558250427e-01</leafValues></_>
        <_>
          <internalNodes>
            0 -1 94 1052929 1108344920 1401966846 -2146041838 536930473
            964690050 -2138436595 -805774673</internalNodes>
          <leafValues>
            -4.9644932150840759e-01 4.0130695700645447e-01</leafValues></_>
        <_>
          <internalNodes>
            0 -1 71 2142793205 461193136 -1610612996 1034813361
            -269213765 -1073807363 1551777726 720297235</internalNodes>
          <leafValues>
            -3.6690548062324524e-01 5.3560554981231689e-01</leafValues></_>
        <_>
          <internalNodes>
            0 -1 41 -68964505 992853930 -268456257 815839512 -311091133
            1474817699 -1904833295 1133239497</internalNodes>
          <leafValues>
            -4.0063461661338806e-01 5.0086468458175659e-01</leafValues></_>
        <_>
          <internalNodes>
            0 -1 83 -177152912 1400930309 -889025107 -578629868
            -2009025880 -2012577751 -660401928 423459205</internalNodes>
          <leafValues>
            -5.5766493082046509e-01 3.5295286774635315e-01</leafValues></_></weakClassifiers></_></stages>
  <features>
    <_>
      <rect>
        0 0 1 1</rect></_>
    <_>
      <rect>
        0 0 2 1</rect></_>
    <_>
      <rect>
        0 0 2 3</rect></_>
    <_>
      <rect>
        0 0 2 4</rect></_>
    <_>
      <rect>
        0 0 3 2</rect></_>
    <_>
      <rect>
        0 0 9 8</rect></_>
    <_>
      <rect>
        0 0 16 20</rect></_>
    <_>
      <rect>
        0 1 14 14</rect></_>
    <_>
      <rect>
        0 2 3 2</rect></_>
    <_>
      <rect>
        0 5 14 14</rect></_>
    <_>
      <rect>
        0 20 21 13</rect></_>
    <_>
      <rect>
        0 22 22 10</rect></_>
    <_>
      <rect>
        0 29 5 6</rect></_>
    <_>
      <rect>
        0 53 1 2</rect></_>
    <_>
      <rect>
        1 0 21 20</rect></_>
    <_>
      <rect>
        1 5 1 2</rect></_>
    <_>
      <rect>
        1 8 19 13</rect></_>
    <_>
      <rect>
        1 30 11 8</rect></_>
    <_>
      <rect>
        1 33 17 8</rect></_>
    <_>
      <rect>
        2 1 24 8</rect></_>
    <_>
      <rect>
        2 54 2 2</rect></_>
    <_>
      <rect>
        3 7 22 15</rect></_>
    <_>
      <rect>
        3 15 16 8</rect></_>
    <_>
      <rect>
        3 36 16 8</rect></_>
    <_>
      <rect>
        3 56 1 1</rect></_>
    <_>
      <rect>
        4 0 1 1</rect></_>
    <_>
      <rect>
        4 0 2 1</rect></_>
    <_>
      <rect>
        4 1 2 1</rect></_>
    <_>
      <rect>
        4 1 25 19</rect></_>
    <_>
      <rect>
        5 2 13 9</rect></_>
    <_>
      <rect>
        5 2 19 11</rect></_>
    <_>
      <rect>
        5 17 20 13</rect></_>
    <_>
      <rect>
        5 25 5 5</rect></_>
    <_>
      <rect>
        6 0 1 1</rect></_>
    <_>
      <rect>
        6 13 21 11</rect></_>
    <_>
      <rect>
        6 54 1 2</rect></_>
    <_>
      <rect>
        7 0 2 1</rect></_>
    <_>
      <rect>
        7 1 2 1</rect></_>
    <_>
      <rect>
        7 8 17 12</rect></_>
    <_>
      <rect>
        7 10 20 15</rect></_>
    <_>
      <rect>
        7 24 18 7</rect></_>
    <_>
      <rect>
        8 8 20 14</rect></_>
    <_>
      <rect>
        9 0 1 1</rect></_>
    <_>
      <rect>
        9 3 19 18</rect></_>
    <_>
      <rect>
        9 4 15 12</rect></_>
    <_>
      <rect>
        9 18 21 14</rect></_>
    <_>
      <rect>
        9 34 3 3</rect></_>
    <_>
      <rect>
        10 0 23 18</rect></_>
    <_>
      <rect>
        12 9 18 8</rect></_>
    <_>
      <rect>
        12 11 16 9</rect></_>
    <_>
      <rect>
        12 16 18 9</rect></_>
    <_>
      <rect>
        12 25 13 7</rect></_>
    <_>
      <rect>
        13 1 2 1</rect></_>
    <_>
      <rect>
        14 2 17 19</rect></_>
    <_>
      <rect>
        14 16 15 7</rect></_>
    <_>
      <rect>
        14 16 16 11</rect></_>
    <_>
      <rect>
        14 17 13 8</rect></_>
    <_>
      <rect>
        14 26 16 11</rect></_>
    <_>
      <rect>
        15 1 1 1</rect></_>
    <_>
      <rect>
        15 9 14 11</rect></_>
    <_>
      <rect>
        15 16 15 13</rect></_>
    <_>
      <rect>
        15 28 1 5</rect></_>
    <_>
      <rect>
        15 32 3 3</rect></_>
    <_>
      <rect>
        16 1 17 13</rect></_>
    <_>
      <rect>
        16 16 14 11</rect></_>
    <_>
      <rect>
        16 30 18 10</rect></_>
    <_>
      <rect>
        16 37 1 3</rect></_>
    <_>
      <rect>
        18 2 7 9</rect></_>
    <_>
      <rect>
        19 3 14 5</rect></_>
    <_>
      <rect>
        20 23 12 7</rect></_>
    <_>
      <rect>
        21 20 13 6</rect></_>
    <_>
      <rect>
        22 0 13 8</rect></_>
    <_>
      <rect>
        22 21 13 13</rect></_>
    <_>
      <rect>
        23 28 8 7</rect></_>
    <_>
      <rect>
        24 21 8 7</rect></_>
    <_>
      <rect>
        24 22 16 8</rect></_>
    <_>
      <rect>
        25 17 10 7</rect></_>
    <_>
      <rect>
        26 14 10 8</rect></_>
    <_>
      <rect>
        26 24 15 12</rect></_>
    <_>
      <rect>
        27 13 12 12</rect></_>
    <_>
      <rect>
        27 19 13 7</rect></_>
    <_>
      <rect>
        28 10 16 10</rect></_>
    <_>
      <rect>
        28 14 17 9</rect></_>
    <_>
      <rect>
        28 22 10 8</rect></_>
    <_>
      <rect>
        29 9 7 8</rect></_>
    <_>
      <rect>
        29 12 9 9</rect></_>
    <_>
      <rect>
        29 20 11 11</rect></_>
    <_>
      <rect>
        29 21 11 7</rect></_>
    <_>
      <rect>
        29 26 9 6</rect></_>
    <_>
      <rect>
        30 1 3 1</rect></_>
    <_>
      <rect>
        31 19 16 7</rect></_>
    <_>
      <rect>
        31 21 9 6</rect></_>
    <_>
      <rect>
        31 42 11 6</rect></_>
    <_>
      <rect>
        32 12 12 8</rect></_>
    <_>
      <rect>
        33 1 2 1</rect></_>
    <_>
      <rect>
        33 10 9 8</rect></_>
    <_>
      <rect>
        33 18 14 13</rect></_>
    <_>
      <rect>
        35 36 11 8</rect></_>
    <_>
      <rect>
        35 45 8 5</rect></_>
    <_>
      <rect>
        36 17 7 6</rect></_>
    <_>
      <rect>
        38 27 14 11</rect></_>
    <_>
      <rect>
        40 23 9 7</rect></_>
    <_>
      <rect>
        44 7 12 8</rect></_>
    <_>
      <rect>
        46 24 8 5</rect></_>
    <_>
      <rect>
        51 17 7 9</rect></_>
    <_>
      <rect>
        52 15 6 7</rect></_>
    <_>
      <rect>
        55 45 8 5</rect></_>
    <_>
      <rect>
        56 0 8 7</rect></_>
    <_>
      <rect>
        58 57 2 1</rect></_>
    <_>
      <rect>
        64 56 4 1</rect></_>
    <_>
      <rect>
        68 0 4 3</rect></_>
    <_>
      <rect>
        70 57 2 1</rect></_>
    <_>
      <rect>
        71 0 3 2</rect></_>
    <_>
      <rect>
        71 53 2 2</rect></_>
    <_>
      <rect>
        71 54 2 2</rect></_>
    <_>
      <rect>
        72 0 2 2</rect></_>
    <_>
      <rect>
        76 0 1 1</rect></_>
    <_>
      <rect>
        77 0 1 1</rect></_>
    <_>
      <rect>
        77 0 1 2</rect></_></features></cascade>
</opencv_storage>
