<?xml version="1.0"?>
<opencv_storage>
<my_svm type_id="opencv-ml-svm">
  <svm_type>C_SVC</svm_type>
  <kernel><type>RBF</type>
    <gamma>5.0625000000000009e-01</gamma></kernel>
  <C>3.1250000000000000e+02</C>
  <term_criteria><epsilon>9.9999999747524271e-07</epsilon>
    <iterations>10000</iterations></term_criteria>
  <var_all>121</var_all>
  <var_count>121</var_count>
  <class_count>2</class_count>
  <class_labels type_id="opencv-matrix">
    <rows>1</rows>
    <cols>2</cols>
    <dt>i</dt>
    <data>
      -1 1</data></class_labels>
  <sv_total>496</sv_total>
  <support_vectors>
    <_>
      -9.92687821e-01 -9.91885900e-01 -9.87765908e-01 -9.92450297e-01
      -9.74503338e-01 -9.89530087e-01 -9.96604264e-01 -9.99859929e-01
      -9.98567581e-01 -9.99872446e-01 -9.81115460e-01 -9.99872744e-01
      -9.92687821e-01 -9.97518420e-01 -9.99130666e-01 -9.97683942e-01
      -9.99259889e-01 -9.99466836e-01 -9.87765908e-01 -9.98419046e-01
      -9.97570395e-01 -9.97788489e-01 -9.98962998e-01 -9.99160707e-01
      -9.99841273e-01 -9.99845266e-01 -9.99822259e-01 -9.99876380e-01
      -9.99865592e-01 -9.99860466e-01 -9.99859750e-01 -9.99859273e-01
      -9.99876499e-01 -9.99865651e-01 -9.99861717e-01 -9.99859571e-01
      -9.99859691e-01 -9.99876499e-01 -9.99867439e-01 -9.99864101e-01
      -9.99863386e-01 -9.99862969e-01 -9.99876499e-01 -9.99863923e-01
      -9.99868572e-01 -9.99855816e-01 -9.99860227e-01 -9.99876499e-01
      -9.99867558e-01 -9.99860227e-01 -9.99863803e-01 -9.99863863e-01
      -9.99876499e-01 -9.99866128e-01 -9.99864638e-01 -9.99861538e-01
      -9.99862850e-01 -9.99876499e-01 -9.99866366e-01 -9.99863863e-01
      -9.99860644e-01 -9.99860644e-01 -9.99876499e-01 -9.99863446e-01
      -9.99868572e-01 -9.99859571e-01 -9.99864936e-01 -9.99876499e-01
      -9.99865294e-01 -9.99864101e-01 -9.99858141e-01 -9.99857664e-01
      -9.99876499e-01 -9.99864340e-01 -9.99865651e-01 -9.99857724e-01
      -9.99857247e-01 -9.99876499e-01 -9.99866843e-01 -9.99865294e-01
      -9.99858379e-01 -9.99857485e-01 -9.99876499e-01 -9.99858797e-01
      -9.99869168e-01 -9.99858797e-01 -9.99862850e-01 -9.99876499e-01
      -9.99867260e-01 -9.99866486e-01 -9.99860764e-01 -9.99859810e-01
      -9.99876499e-01 -9.99864519e-01 -9.99865949e-01 -9.99859691e-01
      -9.99858022e-01 -9.99876499e-01 -9.99867022e-01 -9.99865830e-01
      -9.99860406e-01 -9.99859810e-01 -9.99876499e-01 -9.99863029e-01
      -9.99865711e-01 -9.99857605e-01 -9.99859691e-01 -9.99876499e-01
      -9.99876142e-01 -9.98106658e-01 -9.98356879e-01 -4.99464929e-01
      -9.99658763e-01 -9.99768734e-01 -9.52704906e-01 1. -9.98666167e-01
      -9.98670459e-01 -9.99522269e-01 -1. -9.99658823e-01</_>
    <_>
      -9.82611358e-01 -9.89253044e-01 -9.77186620e-01 -9.85840499e-01
      -9.67287183e-01 -9.84331369e-01 -9.88116741e-01 -9.99807119e-01
      -9.87781882e-01 -9.99833167e-01 -9.70368326e-01 -9.99832451e-01
      -9.82611358e-01 -9.98679578e-01 -9.95655179e-01 -9.99604166e-01
      -9.98730838e-01 -9.97635722e-01 -9.77186620e-01 -9.97038901e-01
      -9.96577799e-01 -9.97350812e-01 -9.99014318e-01 -9.98151422e-01
      -9.99733329e-01 -9.99710500e-01 -9.99623835e-01 -9.99837220e-01
      -9.99824524e-01 -9.99815166e-01 -9.99814272e-01 -9.99812663e-01
      -9.99837399e-01 -9.99818623e-01 -9.99824882e-01 -9.99813735e-01
      -9.99808609e-01 -9.99837399e-01 -9.99819279e-01 -9.99824226e-01
      -9.99813318e-01 -9.99807954e-01 -9.99837399e-01 -9.99820113e-01
      -9.99823272e-01 -9.99811351e-01 -9.99807775e-01 -9.99837399e-01
      -9.99821007e-01 -9.99823093e-01 -9.99821186e-01 -9.99818504e-01
      -9.99837399e-01 -9.99814689e-01 -9.99826491e-01 -9.99811947e-01
      -9.99800682e-01 -9.99837399e-01 -9.99817073e-01 -9.99827325e-01
      -9.99812961e-01 -9.99809027e-01 -9.99837399e-01 -9.99820828e-01
      -9.99826431e-01 -9.99813735e-01 -9.99809027e-01 -9.99837399e-01
      -9.99818027e-01 -9.99829173e-01 -9.99823511e-01 -9.99817193e-01
      -9.99837399e-01 -9.99816060e-01 -9.99827504e-01 -9.99812543e-01
      -9.99801695e-01 -9.99837399e-01 -9.99813557e-01 -9.99827266e-01
      -9.99810338e-01 -9.99804974e-01 -9.99837399e-01 -9.99816835e-01
      -9.99827027e-01 -9.99807775e-01 -9.99807119e-01 -9.99837399e-01
      -9.99823093e-01 -9.99825299e-01 -9.99820888e-01 -9.99818087e-01
      -9.99837399e-01 -9.99815464e-01 -9.99827385e-01 -9.99815404e-01
      -9.99805808e-01 -9.99837399e-01 -9.99816298e-01 -9.99827683e-01
      -9.99813557e-01 -9.99804974e-01 -9.99837399e-01 -9.99818504e-01
      -9.99828875e-01 -9.99810517e-01 -9.99810755e-01 -9.99837399e-01
      -9.99837101e-01 -9.93989825e-01 -9.97335494e-01 -4.98415947e-01
      -9.99504507e-01 -9.99706447e-01 -9.40250099e-01 1. -9.97954786e-01
      -9.96087134e-01 -9.99158025e-01 -1. -9.99503911e-01</_>
    <_>
      -9.99913633e-01 -9.99913633e-01 -9.99913633e-01 -9.99913633e-01
      -9.83544111e-01 -9.91178334e-01 -9.99913633e-01 -9.99762118e-01
      -9.99913633e-01 -9.99762118e-01 -9.91277158e-01 -9.99910951e-01
      -9.99913633e-01 -9.99913633e-01 -9.99913633e-01 -9.99913633e-01
      -9.99913633e-01 -9.99913633e-01 -9.99913633e-01 -9.99913633e-01
      -9.99913633e-01 -9.99913633e-01 -9.99913633e-01 -9.99913633e-01
      -9.99913633e-01 -9.99913633e-01 -9.99913633e-01 -9.99913514e-01
      -9.99913335e-01 -9.99913514e-01 -9.99913335e-01 -9.99913275e-01
      -9.99913633e-01 -9.99913037e-01 -9.99913335e-01 -9.99912441e-01
      -9.99913037e-01 -9.99913633e-01 -9.99899983e-01 -9.99911308e-01
      -9.99905407e-01 -9.99905050e-01 -9.99913633e-01 -9.99899030e-01
      -9.99909997e-01 -9.99901831e-01 -9.99901950e-01 -9.99913633e-01
      -9.99913156e-01 -9.99913454e-01 -9.99913335e-01 -9.99913096e-01
      -9.99913633e-01 -9.99912143e-01 -9.99913216e-01 -9.99912500e-01
      -9.99912143e-01 -9.99913633e-01 -9.99900758e-01 -9.99910593e-01
      -9.99904871e-01 -9.99904573e-01 -9.99913633e-01 -9.99899864e-01
      -9.99909103e-01 -9.99902308e-01 -9.99899089e-01 -9.99913633e-01
      -9.99911249e-01 -9.99913037e-01 -9.99911427e-01 -9.99910951e-01
      -9.99913633e-01 -9.99908447e-01 -9.99912202e-01 -9.99908507e-01
      -9.99908507e-01 -9.99913633e-01 -9.99900937e-01 -9.99910653e-01
      -9.99905348e-01 -9.99904037e-01 -9.99913633e-01 -9.99901533e-01
      -9.99907196e-01 -9.99899507e-01 -9.99899507e-01 -9.99913633e-01
      -9.99911785e-01 -9.99913156e-01 -9.99912262e-01 -9.99910355e-01
      -9.99913633e-01 -9.99908209e-01 -9.99912679e-01 -9.99910593e-01
      -9.99910235e-01 -9.99913633e-01 -9.99901712e-01 -9.99910653e-01
      -9.99904811e-01 -9.99904394e-01 -9.99913633e-01 -9.99901175e-01
      -9.99908626e-01 -9.99891818e-01 -9.99903083e-01 -9.99913633e-01
      -9.99913454e-01 -9.97277379e-01 -9.98825431e-01 -4.99276251e-01
      -9.99762535e-01 -9.99839187e-01 -9.67177272e-01 1. -9.99048471e-01
      -9.97922540e-01 -9.99634445e-01 -1. -9.99762356e-01</_>
    <_>
      -9.89986181e-01 -9.94100749e-01 -9.94306922e-01 -9.93520141e-01
      -9.80816960e-01 -9.91376460e-01 -9.86282885e-01 -9.99921083e-01
      -9.98866439e-01 -9.99921918e-01 -9.99926090e-01 -9.99924064e-01
      -9.89986181e-01 -9.98614907e-01 -9.98201966e-01 -9.99358535e-01
      -9.99651790e-01 -9.99708891e-01 -9.94306922e-01 -9.98495519e-01
      -9.99321401e-01 -9.99663830e-01 -9.98997509e-01 -9.99263167e-01
      -9.99900162e-01 -9.99901235e-01 -9.99882638e-01 -9.99925971e-01
      -9.99919772e-01 -9.99919474e-01 -9.99915183e-01 -9.99917150e-01
      -9.99926090e-01 -9.99920726e-01 -9.99921441e-01 -9.99918282e-01
      -9.99919295e-01 -9.99926090e-01 -9.99918342e-01 -9.99919474e-01
      -9.99915481e-01 -9.99914348e-01 -9.99926090e-01 -9.99918878e-01
      -9.99918342e-01 -9.99915063e-01 -9.99914646e-01 -9.99926090e-01
      -9.99920785e-01 -9.99918163e-01 -9.99913812e-01 -9.99916792e-01
      -9.99926090e-01 -9.99920428e-01 -9.99917030e-01 -9.99915659e-01
      -9.99916375e-01 -9.99926090e-01 -9.99919593e-01 -9.99917209e-01
      -9.99915540e-01 -9.99915540e-01 -9.99926090e-01 -9.99920309e-01
      -9.99918699e-01 -9.99915600e-01 -9.99915123e-01 -9.99926090e-01
      -9.99921620e-01 -9.99918759e-01 -9.99918997e-01 -9.99919295e-01
      -9.99926090e-01 -9.99919295e-01 -9.99917388e-01 -9.99914348e-01
      -9.99915242e-01 -9.99926090e-01 -9.99920487e-01 -9.99918818e-01
      -9.99916673e-01 -9.99916613e-01 -9.99926090e-01 -9.99920487e-01
      -9.99919593e-01 -9.99912322e-01 -9.99916434e-01 -9.99926090e-01
      -9.99919295e-01 -9.99919891e-01 -9.99917030e-01 -9.99915600e-01
      -9.99926090e-01 -9.99918520e-01 -9.99919832e-01 -9.99917984e-01
      -9.99917805e-01 -9.99926090e-01 -9.99920785e-01 -9.99919355e-01
      -9.99918222e-01 -9.99918520e-01 -9.99926090e-01 -9.99919176e-01
      -9.99922335e-01 -9.99911427e-01 -9.99920189e-01 -9.99926090e-01
      -9.99925971e-01 -9.97071207e-01 -9.98919904e-01 -4.99230981e-01
      -9.99794006e-01 -9.99866426e-01 -9.64215517e-01 1. -9.99137938e-01
      -9.97757912e-01 -9.99674618e-01 -1. -9.99793828e-01</_>
    <_>
      -9.99928534e-01 -9.99928534e-01 -9.99928534e-01 -9.99928534e-01
      -9.83097196e-01 -9.91707563e-01 -9.99928534e-01 -9.99795258e-01
      -9.99928534e-01 -9.99795258e-01 -9.90331113e-01 -9.99926448e-01
      -9.99928534e-01 -9.99928534e-01 -9.99928534e-01 -9.99928534e-01
      -9.99928534e-01 -9.99928534e-01 -9.99928534e-01 -9.99928534e-01
      -9.99928534e-01 -9.99928534e-01 -9.99928534e-01 -9.99928534e-01
      -9.99928534e-01 -9.99928534e-01 -9.99928534e-01 -9.99928415e-01
      -9.99928057e-01 -9.99928355e-01 -9.99927819e-01 -9.99927878e-01
      -9.99928534e-01 -9.99921918e-01 -9.99924302e-01 -9.99922454e-01
      -9.99922335e-01 -9.99928534e-01 -9.99921143e-01 -9.99920666e-01
      -9.99920487e-01 -9.99903977e-01 -9.99928534e-01 -9.99923170e-01
      -9.99917448e-01 -9.99920130e-01 -9.99905527e-01 -9.99928534e-01
      -9.99927998e-01 -9.99928117e-01 -9.99927878e-01 -9.99927521e-01
      -9.99928534e-01 -9.99925971e-01 -9.99926448e-01 -9.99925971e-01
      -9.99924541e-01 -9.99928534e-01 -9.99922335e-01 -9.99918938e-01
      -9.99919772e-01 -9.99905944e-01 -9.99928534e-01 -9.99923706e-01
      -9.99916196e-01 -9.99920487e-01 -9.99905109e-01 -9.99928534e-01
      -9.99927819e-01 -9.99928415e-01 -9.99928057e-01 -9.99927878e-01
      -9.99928534e-01 -9.99926329e-01 -9.99926507e-01 -9.99926090e-01
      -9.99922991e-01 -9.99928534e-01 -9.99923050e-01 -9.99918699e-01
      -9.99920249e-01 -9.99904275e-01 -9.99928534e-01 -9.99923348e-01
      -9.99917924e-01 -9.99919832e-01 -9.99904752e-01 -9.99928534e-01
      -9.99928176e-01 -9.99928415e-01 -9.99928355e-01 -9.99927819e-01
      -9.99928534e-01 -9.99925613e-01 -9.99926269e-01 -9.99926209e-01
      -9.99921262e-01 -9.99928534e-01 -9.99922156e-01 -9.99918580e-01
      -9.99920547e-01 -9.99904633e-01 -9.99928534e-01 -9.99923289e-01
      -9.99919534e-01 -9.99920189e-01 -9.99905169e-01 -9.99928534e-01
      -9.99928296e-01 -9.97832239e-01 -9.98980165e-01 -4.99422401e-01
      -9.99795496e-01 -9.99867916e-01 -9.66267645e-01 1. -9.99190032e-01
      -9.98583257e-01 -9.99657989e-01 -1. -9.99795616e-01</_>
    <_>
      -9.99946177e-01 -9.99946177e-01 -9.99946177e-01 -9.99946177e-01
      -9.94058073e-01 -9.93979156e-01 -9.99946177e-01 -9.99875128e-01
      -9.99946177e-01 -9.99875128e-01 -9.99946177e-01 -9.99936283e-01
      -9.99946177e-01 -9.99946177e-01 -9.99946177e-01 -9.99946177e-01
      -9.99946177e-01 -9.99946177e-01 -9.99946177e-01 -9.99946177e-01
      -9.99946177e-01 -9.99946177e-01 -9.99946177e-01 -9.99946177e-01
      -9.99946177e-01 -9.99946177e-01 -9.99946177e-01 -9.99946058e-01
      -9.99946177e-01 -9.99946177e-01 -9.99946177e-01 -9.99946177e-01
      -9.99946177e-01 -9.99945581e-01 -9.99946117e-01 -9.99945760e-01
      -9.99945760e-01 -9.99946177e-01 -9.99945104e-01 -9.99945998e-01
      -9.99945700e-01 -9.99945700e-01 -9.99946177e-01 -9.99944329e-01
      -9.99946058e-01 -9.99945939e-01 -9.99945998e-01 -9.99946177e-01
      -9.99946177e-01 -9.99946177e-01 -9.99946177e-01 -9.99946177e-01
      -9.99946177e-01 -9.99945402e-01 -9.99946058e-01 -9.99945700e-01
      -9.99945402e-01 -9.99946177e-01 -9.99945283e-01 -9.99945998e-01
      -9.99945879e-01 -9.99945819e-01 -9.99946177e-01 -9.99943852e-01
      -9.99945998e-01 -9.99945879e-01 -9.99945879e-01 -9.99946177e-01
      -9.99946177e-01 -9.99946177e-01 -9.99946177e-01 -9.99946177e-01
      -9.99946177e-01 -9.99944746e-01 -9.99945998e-01 -9.99945581e-01
      -9.99945939e-01 -9.99946177e-01 -9.99945521e-01 -9.99945998e-01
      -9.99945581e-01 -9.99945700e-01 -9.99946177e-01 -9.99945939e-01
      -9.99945939e-01 -9.99946058e-01 -9.99946058e-01 -9.99946177e-01
      -9.99946058e-01 -9.99945760e-01 -9.99946117e-01 -9.99946058e-01
      -9.99946177e-01 -9.99944687e-01 -9.99945223e-01 -9.99945879e-01
      -9.99945939e-01 -9.99946177e-01 -9.99945641e-01 -9.99945879e-01
      -9.99945760e-01 -9.99945760e-01 -9.99946177e-01 -9.99946177e-01
      -9.99946177e-01 -9.99946177e-01 -9.99946177e-01 -9.99946177e-01
      -9.99944031e-01 -9.99285102e-01 -9.99602973e-01 -4.99794334e-01
      -9.99875128e-01 -9.99887586e-01 -9.88172352e-01 1. -9.99636829e-01
      -9.99332547e-01 -9.99875188e-01 -1. -9.99875188e-01</_>
    <_>
      -9.89854097e-01 -9.94862795e-01 -9.94476199e-01 -9.93818641e-01
      -9.80454981e-01 -9.91468728e-01 -9.86548126e-01 -9.99921143e-01
      -9.98627841e-01 -9.99922812e-01 -9.66804981e-01 -9.99923646e-01
      -9.89854097e-01 -9.98732805e-01 -9.98466372e-01 -9.99494493e-01
      -9.99553978e-01 -9.99738455e-01 -9.94476199e-01 -9.98620212e-01
      -9.99587953e-01 -9.99492705e-01 -9.99000549e-01 -9.99243915e-01
      -9.99902427e-01 -9.99903023e-01 -9.99885559e-01 -9.99926627e-01
      -9.99921024e-01 -9.99920905e-01 -9.99916255e-01 -9.99918699e-01
      -9.99926746e-01 -9.99920130e-01 -9.99921679e-01 -9.99917865e-01
      -9.99918640e-01 -9.99926746e-01 -9.99918461e-01 -9.99919713e-01
      -9.99915481e-01 -9.99915540e-01 -9.99926746e-01 -9.99919713e-01
      -9.99919474e-01 -9.99915302e-01 -9.99914646e-01 -9.99926746e-01
      -9.99921262e-01 -9.99919713e-01 -9.99914587e-01 -9.99917626e-01
      -9.99926746e-01 -9.99921083e-01 -9.99918342e-01 -9.99916673e-01
      -9.99917209e-01 -9.99926746e-01 -9.99920547e-01 -9.99917805e-01
      -9.99917150e-01 -9.99916732e-01 -9.99926746e-01 -9.99920666e-01
      -9.99920070e-01 -9.99916434e-01 -9.99915719e-01 -9.99926746e-01
      -9.99922693e-01 -9.99918997e-01 -9.99919593e-01 -9.99919653e-01
      -9.99926746e-01 -9.99920309e-01 -9.99918759e-01 -9.99915957e-01
      -9.99916375e-01 -9.99926746e-01 -9.99921322e-01 -9.99919295e-01
      -9.99916434e-01 -9.99916494e-01 -9.99926746e-01 -9.99920905e-01
      -9.99921501e-01 -9.99913454e-01 -9.99918997e-01 -9.99926746e-01
      -9.99919891e-01 -9.99920070e-01 -9.99917388e-01 -9.99916255e-01
      -9.99926746e-01 -9.99919176e-01 -9.99920845e-01 -9.99918520e-01
      -9.99918938e-01 -9.99926746e-01 -9.99921203e-01 -9.99919951e-01
      -9.99919057e-01 -9.99919236e-01 -9.99926746e-01 -9.99920011e-01
      -9.99923468e-01 -9.99911785e-01 -9.99921679e-01 -9.99926746e-01
      -9.99926627e-01 -9.97101068e-01 -9.98938978e-01 -4.99238461e-01
      -9.99797225e-01 -9.99867618e-01 -9.63433087e-01 1. -9.99150157e-01
      -9.97748733e-01 -9.99683321e-01 -1. -9.99797046e-01</_>
    <_>
      -9.90878582e-01 -9.91089344e-01 -9.86860454e-01 -9.89025414e-01
      -9.87581789e-01 -9.90907848e-01 -9.99908984e-01 -9.99901235e-01
      -9.60809112e-01 -9.99902785e-01 -9.60809112e-01 -9.99903321e-01
      -9.90878582e-01 -9.99109447e-01 -9.98257935e-01 -9.97231364e-01
      -9.99520779e-01 -9.99172509e-01 -9.86860454e-01 -9.97164309e-01
      -9.96641994e-01 -9.99250770e-01 -9.98070598e-01 -9.99254882e-01
      -9.99880731e-01 -9.99877274e-01 -9.99869943e-01 -9.99908864e-01
      -9.99904752e-01 -9.99900877e-01 -9.99895930e-01 -9.99896228e-01
      -9.99908984e-01 -9.99903917e-01 -9.99902070e-01 -9.99899983e-01
      -9.99893188e-01 -9.99908984e-01 -9.99904573e-01 -9.99903381e-01
      -9.99901533e-01 -9.99887288e-01 -9.99908984e-01 -9.99904573e-01
      -9.99903440e-01 -9.99900937e-01 -9.99888778e-01 -9.99908984e-01
      -9.99904692e-01 -9.99900520e-01 -9.99903023e-01 -9.99900401e-01
      -9.99908984e-01 -9.99903738e-01 -9.99901533e-01 -9.99903262e-01
      -9.99898553e-01 -9.99908984e-01 -9.99904215e-01 -9.99904096e-01
      -9.99902904e-01 -9.99898076e-01 -9.99908984e-01 -9.99904037e-01
      -9.99904513e-01 -9.99902129e-01 -9.99892473e-01 -9.99908984e-01
      -9.99907792e-01 -9.99906540e-01 -9.99906778e-01 -9.99906957e-01
      -9.99908984e-01 -9.99908566e-01 -9.99906778e-01 -9.99908090e-01
      -9.99908566e-01 -9.99908984e-01 -9.99904454e-01 -9.99906421e-01
      -9.99906182e-01 -9.99906301e-01 -9.99908984e-01 -9.99902308e-01
      -9.99904335e-01 -9.99900997e-01 -9.99892414e-01 -9.99908984e-01
      -9.99906480e-01 -9.99906600e-01 -9.99906301e-01 -9.99901652e-01
      -9.99908984e-01 -9.99908030e-01 -9.99908864e-01 -9.99908745e-01
      -9.99907970e-01 -9.99908984e-01 -9.99906719e-01 -9.99908924e-01
      -9.99907613e-01 -9.99908328e-01 -9.99908984e-01 -9.99902308e-01
      -9.99905765e-01 -9.99902010e-01 -9.99896705e-01 -9.99908984e-01
      -9.99908686e-01 -9.98717904e-01 -9.98836935e-01 -4.99633759e-01
      -9.99755859e-01 -9.99828756e-01 -9.77838397e-01 1. -9.99042451e-01
      -9.99086142e-01 -9.99657691e-01 -1. -9.99755859e-01</_>
    <_>
      -9.89859462e-01 -9.94909704e-01 -9.94618058e-01 -9.93960857e-01
      -9.80255365e-01 -9.91512537e-01 -9.86617267e-01 -9.99921560e-01
      -9.98634875e-01 -9.99923348e-01 -9.66975629e-01 -9.99923170e-01
      -9.89859462e-01 -9.98755276e-01 -9.98483002e-01 -9.99535322e-01
      -9.99513984e-01 -9.99665380e-01 -9.94618058e-01 -9.98684645e-01
      -9.99536455e-01 -9.99468505e-01 -9.99001861e-01 -9.99257326e-01
      -9.99902964e-01 -9.99903560e-01 -9.99886274e-01 -9.99926984e-01
      -9.99921262e-01 -9.99921918e-01 -9.99916196e-01 -9.99919295e-01
      -9.99927104e-01 -9.99920845e-01 -9.99921739e-01 -9.99918163e-01
      -9.99918640e-01 -9.99927104e-01 -9.99919713e-01 -9.99920607e-01
      -9.99915957e-01 -9.99915898e-01 -9.99927104e-01 -9.99919593e-01
      -9.99919236e-01 -9.99915838e-01 -9.99914587e-01 -9.99927104e-01
      -9.99921858e-01 -9.99920666e-01 -9.99916077e-01 -9.99918580e-01
      -9.99927104e-01 -9.99921203e-01 -9.99919355e-01 -9.99916613e-01
      -9.99917746e-01 -9.99927104e-01 -9.99921560e-01 -9.99919116e-01
      -9.99917746e-01 -9.99918163e-01 -9.99927104e-01 -9.99920726e-01
      -9.99921262e-01 -9.99917626e-01 -9.99916494e-01 -9.99927104e-01
      -9.99921739e-01 -9.99918699e-01 -9.99919057e-01 -9.99918640e-01
      -9.99927104e-01 -9.99920547e-01 -9.99918520e-01 -9.99916673e-01
      -9.99916732e-01 -9.99927104e-01 -9.99921620e-01 -9.99919772e-01
      -9.99916434e-01 -9.99916792e-01 -9.99927104e-01 -9.99920845e-01
      -9.99922693e-01 -9.99915183e-01 -9.99918520e-01 -9.99927104e-01
      -9.99920607e-01 -9.99920428e-01 -9.99918103e-01 -9.99916792e-01
      -9.99927104e-01 -9.99919415e-01 -9.99920487e-01 -9.99918580e-01
      -9.99918938e-01 -9.99927104e-01 -9.99921203e-01 -9.99920309e-01
      -9.99918938e-01 -9.99919116e-01 -9.99927104e-01 -9.99920070e-01
      -9.99924064e-01 -9.99912322e-01 -9.99922276e-01 -9.99927104e-01
      -9.99926984e-01 -9.97017920e-01 -9.98943090e-01 -4.99218225e-01
      -9.99798238e-01 -9.99868155e-01 -9.63023663e-01 1. -9.99153197e-01
      -9.97667611e-01 -9.99685109e-01 -1. -9.99798059e-01</_>
    <_>
      -9.92308080e-01 -9.93604898e-01 -9.91111338e-01 -9.91997600e-01
      -9.89874184e-01 -9.92566884e-01 -9.99935448e-01 -9.99927402e-01
      -9.99935448e-01 -9.99929547e-01 -9.71834719e-01 -9.99926567e-01
      -9.92308080e-01 -9.98403966e-01 -9.99594271e-01 -9.98540521e-01
      -9.99239087e-01 -9.99520481e-01 -9.91111338e-01 -9.97663796e-01
      -9.97513950e-01 -9.98282611e-01 -9.99250650e-01 -9.99542773e-01
      -9.99909580e-01 -9.99917686e-01 -9.99903560e-01 -9.99935329e-01
      -9.99931693e-01 -9.99932230e-01 -9.99931872e-01 -9.99932230e-01
      -9.99935448e-01 -9.99931812e-01 -9.99931514e-01 -9.99931216e-01
      -9.99930978e-01 -9.99935448e-01 -9.99930918e-01 -9.99931216e-01
      -9.99930680e-01 -9.99930561e-01 -9.99935448e-01 -9.99933243e-01
      -9.99932468e-01 -9.99931991e-01 -9.99932289e-01 -9.99935448e-01
      -9.99930561e-01 -9.99930859e-01 -9.99928534e-01 -9.99928832e-01
      -9.99935448e-01 -9.99932528e-01 -9.99932706e-01 -9.99931157e-01
      -9.99931574e-01 -9.99935448e-01 -9.99930441e-01 -9.99930859e-01
      -9.99928057e-01 -9.99928355e-01 -9.99935448e-01 -9.99929667e-01
      -9.99930680e-01 -9.99926865e-01 -9.99926805e-01 -9.99935448e-01
      -9.99930024e-01 -9.99930680e-01 -9.99927938e-01 -9.99928296e-01
      -9.99935448e-01 -9.99929309e-01 -9.99929428e-01 -9.99927878e-01
      -9.99926209e-01 -9.99935448e-01 -9.99928355e-01 -9.99931574e-01
      -9.99929488e-01 -9.99927819e-01 -9.99935448e-01 -9.99928653e-01
      -9.99932528e-01 -9.99928892e-01 -9.99929845e-01 -9.99935448e-01
      -9.99931931e-01 -9.99930322e-01 -9.99929309e-01 -9.99928296e-01
      -9.99935448e-01 -9.99932051e-01 -9.99931395e-01 -9.99929428e-01
      -9.99930382e-01 -9.99935448e-01 -9.99934077e-01 -9.99933302e-01
      -9.99932170e-01 -9.99933422e-01 -9.99935448e-01 -9.99932826e-01
      -9.99932110e-01 -9.99930024e-01 -9.99930918e-01 -9.99935448e-01
      -9.99935091e-01 -9.96990621e-01 -9.99184608e-01 -4.99215454e-01
      -9.99825597e-01 -9.99875128e-01 -9.81900275e-01 1. -9.99331295e-01
      -9.97404575e-01 -9.99751449e-01 -1. -9.99825478e-01</_>
    <_>
      -9.80675042e-01 -9.86925542e-01 -9.87392128e-01 -9.88549531e-01
      -9.55153883e-01 -9.85367954e-01 -9.89653349e-01 -9.99839008e-01
      -9.96454000e-01 -9.99846339e-01 -9.48849499e-01 -9.99850452e-01
      -9.80675042e-01 -9.96205091e-01 -9.95291233e-01 -9.99124527e-01
      -9.98430908e-01 -9.98285234e-01 -9.87392128e-01 -9.98676419e-01
      -9.98267651e-01 -9.97404456e-01 -9.98078644e-01 -9.99520063e-01
      -9.99760628e-01 -9.99746501e-01 -9.99667108e-01 -9.99854147e-01
      -9.99836802e-01 -9.99833524e-01 -9.99828577e-01 -9.99829113e-01
      -9.99854326e-01 -9.99839783e-01 -9.99835908e-01 -9.99823809e-01
      -9.99830067e-01 -9.99854326e-01 -9.99837756e-01 -9.99835134e-01
      -9.99826550e-01 -9.99828517e-01 -9.99854326e-01 -9.99832451e-01
      -9.99841154e-01 -9.99825060e-01 -9.99827743e-01 -9.99854326e-01
      -9.99836683e-01 -9.99838591e-01 -9.99829710e-01 -9.99821663e-01
      -9.99854326e-01 -9.99834895e-01 -9.99838591e-01 -9.99820948e-01
      -9.99820471e-01 -9.99854326e-01 -9.99839246e-01 -9.99838769e-01
      -9.99819994e-01 -9.99821305e-01 -9.99854326e-01 -9.99835372e-01
      -9.99840558e-01 -9.99818027e-01 -9.99827206e-01 -9.99854326e-01
      -9.99836206e-01 -9.99840021e-01 -9.99825478e-01 -9.99818325e-01
      -9.99854326e-01 -9.99835670e-01 -9.99840021e-01 -9.99821842e-01
      -9.99823749e-01 -9.99854326e-01 -9.99835551e-01 -9.99839544e-01
      -9.99818921e-01 -9.99826729e-01 -9.99854326e-01 -9.99839842e-01
      -9.99836862e-01 -9.99823034e-01 -9.99829710e-01 -9.99854326e-01
      -9.99834895e-01 -9.99843359e-01 -9.99824286e-01 -9.99817371e-01
      -9.99854326e-01 -9.99833643e-01 -9.99842584e-01 -9.99821901e-01
      -9.99819577e-01 -9.99854326e-01 -9.99834716e-01 -9.99842167e-01
      -9.99822378e-01 -9.99823570e-01 -9.99854326e-01 -9.99839544e-01
      -9.99840498e-01 -9.99817133e-01 -9.99826193e-01 -9.99854326e-01
      -9.99854088e-01 -9.89671469e-01 -9.97213304e-01 -4.97345388e-01
      -9.99517739e-01 -9.99742448e-01 -9.15144563e-01 1. -9.97940004e-01
      -9.93564129e-01 -9.99069810e-01 -1. -9.99516785e-01</_>
    <_>
      -9.99963999e-01 -9.99963999e-01 -9.99963999e-01 -9.99963999e-01
      -9.91261542e-01 -9.94033039e-01 -9.99963999e-01 -9.99894261e-01
      -9.99963999e-01 -9.99894261e-01 -9.82666314e-01 -9.99960601e-01
      -9.99963999e-01 -9.99963999e-01 -9.99963999e-01 -9.99963999e-01
      -9.99963999e-01 -9.99963999e-01 -9.99963999e-01 -9.99963999e-01
      -9.99963999e-01 -9.99963999e-01 -9.99963999e-01 -9.99963999e-01
      -9.99963999e-01 -9.99963999e-01 -9.99963999e-01 -9.99963939e-01
      -9.99961734e-01 -9.99962211e-01 -9.99958992e-01 -9.99959767e-01
      -9.99963999e-01 -9.99960661e-01 -9.99962270e-01 -9.99956906e-01
      -9.99957383e-01 -9.99963999e-01 -9.99960661e-01 -9.99962270e-01
      -9.99956846e-01 -9.99958098e-01 -9.99963999e-01 -9.99962091e-01
      -9.99961376e-01 -9.99959767e-01 -9.99959230e-01 -9.99963999e-01
      -9.99963999e-01 -9.99963999e-01 -9.99963939e-01 -9.99963939e-01
      -9.99963999e-01 -9.99962509e-01 -9.99962628e-01 -9.99960899e-01
      -9.99961138e-01 -9.99963999e-01 -9.99960124e-01 -9.99962091e-01
      -9.99957383e-01 -9.99957561e-01 -9.99963999e-01 -9.99959469e-01
      -9.99962628e-01 -9.99959648e-01 -9.99959707e-01 -9.99963999e-01
      -9.99963403e-01 -9.99962747e-01 -9.99962509e-01 -9.99962449e-01
      -9.99963999e-01 -9.99961078e-01 -9.99962151e-01 -9.99958515e-01
      -9.99958515e-01 -9.99963999e-01 -9.99960780e-01 -9.99961495e-01
      -9.99958813e-01 -9.99958813e-01 -9.99963999e-01 -9.99959111e-01
      -9.99961674e-01 -9.99959767e-01 -9.99960244e-01 -9.99963999e-01
      -9.99963939e-01 -9.99963999e-01 -9.99963999e-01 -9.99963999e-01
      -9.99963999e-01 -9.99962032e-01 -9.99962628e-01 -9.99959946e-01
      -9.99959111e-01 -9.99963999e-01 -9.99960542e-01 -9.99962330e-01
      -9.99959588e-01 -9.99957979e-01 -9.99963999e-01 -9.99960959e-01
      -9.99959111e-01 -9.99958396e-01 -9.99957979e-01 -9.99963999e-01
      -9.99963582e-01 -9.97177780e-01 -9.99443591e-01 -4.99276549e-01
      -9.99894440e-01 -9.99933004e-01 -9.82572556e-01 1. -9.99570072e-01
      -9.97983992e-01 -9.99803841e-01 -1. -9.99894440e-01</_>
    <_>
      -9.99948919e-01 -9.99948919e-01 -9.99948919e-01 -9.99948919e-01
      -9.90099311e-01 -9.93201554e-01 -9.99948919e-01 -9.99858379e-01
      -9.99948919e-01 -9.99858379e-01 -9.82019186e-01 -9.99947369e-01
      -9.99948919e-01 -9.99948919e-01 -9.99948919e-01 -9.99948919e-01
      -9.99948919e-01 -9.99948919e-01 -9.99948919e-01 -9.99948919e-01
      -9.99948919e-01 -9.99948919e-01 -9.99948919e-01 -9.99948919e-01
      -9.99948919e-01 -9.99948919e-01 -9.99948919e-01 -9.99948800e-01
      -9.99947429e-01 -9.99947488e-01 -9.99944508e-01 -9.99945700e-01
      -9.99948919e-01 -9.99946058e-01 -9.99947190e-01 -9.99942601e-01
      -9.99943793e-01 -9.99948919e-01 -9.99944031e-01 -9.99946773e-01
      -9.99943614e-01 -9.99943018e-01 -9.99948919e-01 -9.99944448e-01
      -9.99947190e-01 -9.99942660e-01 -9.99943495e-01 -9.99948919e-01
      -9.99947667e-01 -9.99948144e-01 -9.99946177e-01 -9.99946237e-01
      -9.99948919e-01 -9.99948800e-01 -9.99947846e-01 -9.99948740e-01
      -9.99948442e-01 -9.99948919e-01 -9.99948144e-01 -9.99947608e-01
      -9.99945581e-01 -9.99948084e-01 -9.99948919e-01 -9.99946833e-01
      -9.99947309e-01 -9.99943256e-01 -9.99944568e-01 -9.99948919e-01
      -9.99946952e-01 -9.99947906e-01 -9.99943078e-01 -9.99945760e-01
      -9.99948919e-01 -9.99948800e-01 -9.99948204e-01 -9.99948263e-01
      -9.99948561e-01 -9.99948919e-01 -9.99948859e-01 -9.99948025e-01
      -9.99948859e-01 -9.99948263e-01 -9.99948919e-01 -9.99947727e-01
      -9.99947906e-01 -9.99946654e-01 -9.99945223e-01 -9.99948919e-01
      -9.99945581e-01 -9.99946892e-01 -9.99941885e-01 -9.99942422e-01
      -9.99948919e-01 -9.99946117e-01 -9.99946535e-01 -9.99942660e-01
      -9.99941051e-01 -9.99948919e-01 -9.99946356e-01 -9.99947131e-01
      -9.99943554e-01 -9.99944031e-01 -9.99948919e-01 -9.99947131e-01
      -9.99947548e-01 -9.99943972e-01 -9.99944389e-01 -9.99948919e-01
      -9.99948740e-01 -9.97631967e-01 -9.99277830e-01 -4.99382615e-01
      -9.99858558e-01 -9.99903023e-01 -9.80225742e-01 1. -9.99423444e-01
      -9.98225629e-01 -9.99764025e-01 -1. -9.99858499e-01</_>
    <_>
      -9.89828110e-01 -9.94613528e-01 -9.94231761e-01 -9.93589044e-01
      -9.80686545e-01 -9.91373837e-01 -9.86311257e-01 -9.99920011e-01
      -9.98604119e-01 -9.99922037e-01 -9.66219723e-01 -9.99923766e-01
      -9.89828110e-01 -9.98692334e-01 -9.98401105e-01 -9.99417841e-01
      -9.99677896e-01 -9.99749541e-01 -9.94231761e-01 -9.98486161e-01
      -9.99492705e-01 -9.99620616e-01 -9.99024272e-01 -9.99291301e-01
      -9.99900341e-01 -9.99901235e-01 -9.99882877e-01 -9.99925792e-01
      -9.99919832e-01 -9.99919653e-01 -9.99915600e-01 -9.99917746e-01
      -9.99925911e-01 -9.99920309e-01 -9.99921560e-01 -9.99918222e-01
      -9.99919057e-01 -9.99925911e-01 -9.99918163e-01 -9.99919534e-01
      -9.99915183e-01 -9.99915004e-01 -9.99925911e-01 -9.99918520e-01
      -9.99918163e-01 -9.99914110e-01 -9.99913871e-01 -9.99925911e-01
      -9.99920726e-01 -9.99917746e-01 -9.99914169e-01 -9.99917209e-01
      -9.99925911e-01 -9.99920189e-01 -9.99916434e-01 -9.99916077e-01
      -9.99916315e-01 -9.99925911e-01 -9.99920726e-01 -9.99918759e-01
      -9.99917746e-01 -9.99917984e-01 -9.99925911e-01 -9.99919236e-01
      -9.99918640e-01 -9.99914706e-01 -9.99913752e-01 -9.99925911e-01
      -9.99921322e-01 -9.99917805e-01 -9.99918401e-01 -9.99918759e-01
      -9.99925911e-01 -9.99918640e-01 -9.99917388e-01 -9.99914587e-01
      -9.99915004e-01 -9.99925911e-01 -9.99919772e-01 -9.99919116e-01
      -9.99916732e-01 -9.99915719e-01 -9.99925911e-01 -9.99920130e-01
      -9.99919951e-01 -9.99913156e-01 -9.99916375e-01 -9.99925911e-01
      -9.99919653e-01 -9.99919891e-01 -9.99917567e-01 -9.99916494e-01
      -9.99925911e-01 -9.99918520e-01 -9.99919474e-01 -9.99917567e-01
      -9.99918044e-01 -9.99925911e-01 -9.99920309e-01 -9.99918759e-01
      -9.99917805e-01 -9.99917746e-01 -9.99925911e-01 -9.99919355e-01
      -9.99922395e-01 -9.99910891e-01 -9.99920189e-01 -9.99925911e-01
      -9.99925792e-01 -9.97038066e-01 -9.98922527e-01 -4.99222666e-01
      -9.99794126e-01 -9.99866009e-01 -9.63943601e-01 1. -9.99138832e-01
      -9.97713149e-01 -9.99676168e-01 -1. -9.99793947e-01</_>
    <_>
      -9.52738285e-01 -9.67530549e-01 -9.56992149e-01 -9.63332534e-01
      -9.57361281e-01 -9.76276040e-01 -9.99644578e-01 -9.99611557e-01
      -9.99644578e-01 -9.99615371e-01 -9.49141264e-01 -9.99630213e-01
      -9.52738285e-01 -9.91137266e-01 -9.90011752e-01 -9.96071875e-01
      -9.95467663e-01 -9.98160601e-01 -9.56992149e-01 -9.89410698e-01
      -9.93560493e-01 -9.94554758e-01 -9.97054815e-01 -9.96114910e-01
      -9.99414086e-01 -9.99392509e-01 -9.99190152e-01 -9.99644339e-01
      -9.99639153e-01 -9.99631107e-01 -9.99639750e-01 -9.99637187e-01
      -9.99644578e-01 -9.99640763e-01 -9.99639869e-01 -9.99637783e-01
      -9.99637306e-01 -9.99644578e-01 -9.99643326e-01 -9.99640763e-01
      -9.99642432e-01 -9.99641359e-01 -9.99644578e-01 -9.99644578e-01
      -9.99644578e-01 -9.99644578e-01 -9.99644578e-01 -9.99644578e-01
      -9.99624610e-01 -9.99627948e-01 -9.99618411e-01 -9.99612033e-01
      -9.99644578e-01 -9.99618173e-01 -9.99627590e-01 -9.99595046e-01
      -9.99605656e-01 -9.99644578e-01 -9.99622643e-01 -9.99624848e-01
      -9.99593019e-01 -9.99598145e-01 -9.99644578e-01 -9.99626637e-01
      -9.99620855e-01 -9.99588251e-01 -9.99605596e-01 -9.99644578e-01
      -9.99614418e-01 -9.99631345e-01 -9.99611735e-01 -9.99602318e-01
      -9.99644578e-01 -9.99606073e-01 -9.99623716e-01 -9.99581516e-01
      -9.99589980e-01 -9.99644578e-01 -9.99616563e-01 -9.99625862e-01
      -9.99587774e-01 -9.99603033e-01 -9.99644578e-01 -9.99621928e-01
      -9.99625683e-01 -9.99587178e-01 -9.99608755e-01 -9.99644578e-01
      -9.99610186e-01 -9.99634326e-01 -9.99610722e-01 -9.99604821e-01
      -9.99644578e-01 -9.99613166e-01 -9.99629676e-01 -9.99585629e-01
      -9.99601185e-01 -9.99644578e-01 -9.99624491e-01 -9.99635458e-01
      -9.99603391e-01 -9.99624193e-01 -9.99644578e-01 -9.99628186e-01
      -9.99634326e-01 -9.99604225e-01 -9.99622881e-01 -9.99644578e-01
      -9.99642968e-01 -9.93035793e-01 -9.95106936e-01 -4.98081356e-01
      -9.98966634e-01 -9.99293745e-01 -9.25606489e-01 1. -9.96115983e-01
      -9.95172977e-01 -9.98437941e-01 -1. -9.98965323e-01</_>
    <_>
      -9.60765183e-01 -9.71035957e-01 -9.59382415e-01 -9.65902269e-01
      -9.61808443e-01 -9.77760255e-01 -9.81627941e-01 -9.99655902e-01
      -9.99686420e-01 -9.99662817e-01 -9.54540193e-01 -9.99674380e-01
      -9.60765183e-01 -9.92594600e-01 -9.90935028e-01 -9.96276379e-01
      -9.95919049e-01 -9.97648060e-01 -9.59382415e-01 -9.91039574e-01
      -9.92738366e-01 -9.94796693e-01 -9.97621179e-01 -9.96852279e-01
      -9.99489188e-01 -9.99468148e-01 -9.99293566e-01 -9.99686182e-01
      -9.99677300e-01 -9.99671280e-01 -9.99676645e-01 -9.99674737e-01
      -9.99686420e-01 -9.99680340e-01 -9.99677539e-01 -9.99676168e-01
      -9.99675393e-01 -9.99686420e-01 -9.99686182e-01 -9.99684036e-01
      -9.99685943e-01 -9.99684632e-01 -9.99686420e-01 -9.99686420e-01
      -9.99686420e-01 -9.99686420e-01 -9.99686420e-01 -9.99686420e-01
      -9.99670327e-01 -9.99672353e-01 -9.99667346e-01 -9.99662757e-01
      -9.99686420e-01 -9.99664545e-01 -9.99671400e-01 -9.99644935e-01
      -9.99650657e-01 -9.99686420e-01 -9.99665439e-01 -9.99668598e-01
      -9.99645352e-01 -9.99644279e-01 -9.99686420e-01 -9.99671102e-01
      -9.99666095e-01 -9.99639928e-01 -9.99649107e-01 -9.99686420e-01
      -9.99659300e-01 -9.99678016e-01 -9.99660313e-01 -9.99654114e-01
      -9.99686420e-01 -9.99650896e-01 -9.99668181e-01 -9.99633431e-01
      -9.99637127e-01 -9.99686420e-01 -9.99656558e-01 -9.99668181e-01
      -9.99631822e-01 -9.99638021e-01 -9.99686420e-01 -9.99666095e-01
      -9.99670208e-01 -9.99634981e-01 -9.99653995e-01 -9.99686420e-01
      -9.99660075e-01 -9.99678612e-01 -9.99662817e-01 -9.99659181e-01
      -9.99686420e-01 -9.99656379e-01 -9.99673784e-01 -9.99638319e-01
      -9.99645710e-01 -9.99686420e-01 -9.99664366e-01 -9.99675751e-01
      -9.99647498e-01 -9.99663115e-01 -9.99686420e-01 -9.99668300e-01
      -9.99676406e-01 -9.99651968e-01 -9.99660730e-01 -9.99686420e-01
      -9.99684989e-01 -9.93236601e-01 -9.95643973e-01 -4.98152345e-01
      -9.99088347e-01 -9.99377251e-01 -9.33555186e-01 1. -9.96546924e-01
      -9.95263040e-01 -9.98603940e-01 -1. -9.99087095e-01</_>
    <_>
      -9.93737340e-01 -9.92279708e-01 -9.84856308e-01 -9.89731312e-01
      -9.90478933e-01 -9.92352009e-01 -9.99928772e-01 -9.99915242e-01
      -9.69400942e-01 -9.99916494e-01 -9.69400942e-01 -9.99922156e-01
      -9.93737340e-01 -9.98801470e-01 -9.98645425e-01 -9.97805774e-01
      -9.98845756e-01 -9.99120772e-01 -9.84856308e-01 -9.96030629e-01
      -9.97070253e-01 -9.98309910e-01 -9.98696089e-01 -9.98941064e-01
      -9.99903083e-01 -9.99906659e-01 -9.99896049e-01 -9.99928713e-01
      -9.99925137e-01 -9.99921560e-01 -9.99919951e-01 -9.99922216e-01
      -9.99928772e-01 -9.99925256e-01 -9.99922693e-01 -9.99920845e-01
      -9.99920845e-01 -9.99928772e-01 -9.99924600e-01 -9.99923527e-01
      -9.99920666e-01 -9.99919295e-01 -9.99928772e-01 -9.99921262e-01
      -9.99925315e-01 -9.99919951e-01 -9.99917626e-01 -9.99928772e-01
      -9.99925494e-01 -9.99921679e-01 -9.99923527e-01 -9.99924123e-01
      -9.99928772e-01 -9.99926031e-01 -9.99925673e-01 -9.99926209e-01
      -9.99926388e-01 -9.99928772e-01 -9.99925673e-01 -9.99926865e-01
      -9.99926507e-01 -9.99926865e-01 -9.99928772e-01 -9.99919653e-01
      -9.99925435e-01 -9.99918163e-01 -9.99919832e-01 -9.99928772e-01
      -9.99926746e-01 -9.99927044e-01 -9.99925852e-01 -9.99926150e-01
      -9.99928772e-01 -9.99927104e-01 -9.99926507e-01 -9.99926209e-01
      -9.99925733e-01 -9.99928772e-01 -9.99925375e-01 -9.99926746e-01
      -9.99925554e-01 -9.99925435e-01 -9.99928772e-01 -9.99920785e-01
      -9.99926269e-01 -9.99919236e-01 -9.99921739e-01 -9.99928772e-01
      -9.99925613e-01 -9.99927044e-01 -9.99926329e-01 -9.99924660e-01
      -9.99928772e-01 -9.99926686e-01 -9.99928415e-01 -9.99927819e-01
      -9.99927342e-01 -9.99928772e-01 -9.99927640e-01 -9.99928653e-01
      -9.99928117e-01 -9.99928534e-01 -9.99928772e-01 -9.99925017e-01
      -9.99927819e-01 -9.99923587e-01 -9.99926090e-01 -9.99928772e-01
      -9.99928415e-01 -9.97796655e-01 -9.99103367e-01 -4.99413669e-01
      -9.99809325e-01 -9.99863029e-01 -9.84134078e-01 1. -9.99262393e-01
      -9.98175502e-01 -9.99724507e-01 -1. -9.99809265e-01</_>
    <_>
      -9.99937713e-01 -9.99937713e-01 -9.99937713e-01 -9.99937713e-01
      -9.89453852e-01 -9.92784262e-01 -9.99937713e-01 -9.99835789e-01
      -9.99937713e-01 -9.99835789e-01 -9.97898519e-01 -9.99935865e-01
      -9.99937713e-01 -9.99937713e-01 -9.99937713e-01 -9.99937713e-01
      -9.99937713e-01 -9.99937713e-01 -9.99937713e-01 -9.99937713e-01
      -9.99937713e-01 -9.99937713e-01 -9.99937713e-01 -9.99937713e-01
      -9.99937713e-01 -9.99937713e-01 -9.99937713e-01 -9.99937654e-01
      -9.99937236e-01 -9.99937654e-01 -9.99937415e-01 -9.99937415e-01
      -9.99937713e-01 -9.99933720e-01 -9.99937296e-01 -9.99935389e-01
      -9.99936163e-01 -9.99937713e-01 -9.99934733e-01 -9.99937534e-01
      -9.99936938e-01 -9.99936819e-01 -9.99937713e-01 -9.99937713e-01
      -9.99937713e-01 -9.99937713e-01 -9.99937713e-01 -9.99937713e-01
      -9.99936879e-01 -9.99937654e-01 -9.99937534e-01 -9.99937415e-01
      -9.99937713e-01 -9.99933600e-01 -9.99937057e-01 -9.99934018e-01
      -9.99935925e-01 -9.99937713e-01 -9.99932945e-01 -9.99937475e-01
      -9.99936223e-01 -9.99936819e-01 -9.99937713e-01 -9.99937713e-01
      -9.99937713e-01 -9.99937713e-01 -9.99937713e-01 -9.99937713e-01
      -9.99932468e-01 -9.99937177e-01 -9.99933541e-01 -9.99934018e-01
      -9.99937713e-01 -9.99930084e-01 -9.99936938e-01 -9.99932766e-01
      -9.99934137e-01 -9.99937713e-01 -9.99931455e-01 -9.99937475e-01
      -9.99936104e-01 -9.99936342e-01 -9.99937713e-01 -9.99937713e-01
      -9.99937713e-01 -9.99937713e-01 -9.99937713e-01 -9.99937713e-01
      -9.99928415e-01 -9.99936700e-01 -9.99931455e-01 -9.99930382e-01
      -9.99937713e-01 -9.99927759e-01 -9.99936879e-01 -9.99932408e-01
      -9.99932766e-01 -9.99937713e-01 -9.99930382e-01 -9.99937475e-01
      -9.99936581e-01 -9.99936581e-01 -9.99937713e-01 -9.99937594e-01
      -9.99937713e-01 -9.99937594e-01 -9.99937654e-01 -9.99937713e-01
      -9.99937534e-01 -9.98311222e-01 -9.99187589e-01 -4.99546558e-01
      -9.99835968e-01 -9.99881446e-01 -9.78954911e-01 1. -9.99328494e-01
      -9.98712778e-01 -9.99752223e-01 -1. -9.99835849e-01</_>
    <_>
      -9.84774411e-01 -9.91749287e-01 -9.85510588e-01 -9.91531789e-01
      -9.74973142e-01 -9.87676203e-01 -9.76619005e-01 -9.99868751e-01
      -9.87917304e-01 -9.99876976e-01 -9.43388820e-01 -9.99872744e-01
      -9.84774411e-01 -9.99280930e-01 -9.95717347e-01 -9.99508798e-01
      -9.98859704e-01 -9.99526024e-01 -9.85510588e-01 -9.98914003e-01
      -9.97984409e-01 -9.99555409e-01 -9.98395741e-01 -9.99429524e-01
      -9.99823987e-01 -9.99816239e-01 -9.99771714e-01 -9.99880016e-01
      -9.99870360e-01 -9.99868333e-01 -9.99858677e-01 -9.99866068e-01
      -9.99880135e-01 -9.99869525e-01 -9.99869049e-01 -9.99862671e-01
      -9.99863863e-01 -9.99880135e-01 -9.99870658e-01 -9.99870896e-01
      -9.99866903e-01 -9.99866128e-01 -9.99880135e-01 -9.99866903e-01
      -9.99869168e-01 -9.99862313e-01 -9.99861300e-01 -9.99880135e-01
      -9.99869704e-01 -9.99867618e-01 -9.99859333e-01 -9.99865830e-01
      -9.99880135e-01 -9.99869466e-01 -9.99865234e-01 -9.99865234e-01
      -9.99862969e-01 -9.99880135e-01 -9.99870479e-01 -9.99870837e-01
      -9.99866247e-01 -9.99867022e-01 -9.99880135e-01 -9.99868453e-01
      -9.99866903e-01 -9.99861181e-01 -9.99862254e-01 -9.99880135e-01
      -9.99872267e-01 -9.99866784e-01 -9.99867082e-01 -9.99860644e-01
      -9.99880135e-01 -9.99871492e-01 -9.99869645e-01 -9.99868274e-01
      -9.99867320e-01 -9.99880135e-01 -9.99868333e-01 -9.99871671e-01
      -9.99854445e-01 -9.99863684e-01 -9.99880135e-01 -9.99868929e-01
      -9.99870777e-01 -9.99856174e-01 -9.99862552e-01 -9.99880135e-01
      -9.99872446e-01 -9.99870420e-01 -9.99868631e-01 -9.99867797e-01
      -9.99880135e-01 -9.99869049e-01 -9.99870837e-01 -9.99867082e-01
      -9.99867201e-01 -9.99880135e-01 -9.99867558e-01 -9.99873161e-01
      -9.99856472e-01 -9.99863029e-01 -9.99880135e-01 -9.99868572e-01
      -9.99873340e-01 -9.99858856e-01 -9.99866545e-01 -9.99880135e-01
      -9.99879897e-01 -9.97236252e-01 -9.98247981e-01 -4.99249011e-01
      -9.99659181e-01 -9.99782622e-01 -9.55379367e-01 1. -9.98608589e-01
      -9.98142064e-01 -9.99473393e-01 -1. -9.99659061e-01</_>
    <_>
      -9.91621614e-01 -9.94839907e-01 -9.93166327e-01 -9.93379474e-01
      -9.82349753e-01 -9.90200996e-01 -9.86190498e-01 -9.99904871e-01
      -9.99917686e-01 -9.99913216e-01 -9.66580331e-01 -9.99912500e-01
      -9.91621614e-01 -9.97750580e-01 -9.98856008e-01 -9.98931527e-01
      -9.99446094e-01 -9.99612689e-01 -9.93166327e-01 -9.97617066e-01
      -9.99534786e-01 -9.98804152e-01 -9.99653578e-01 -9.99771118e-01
      -9.99896228e-01 -9.99896228e-01 -9.99877453e-01 -9.99917567e-01
      -9.99912560e-01 -9.99910176e-01 -9.99907017e-01 -9.99907374e-01
      -9.99917686e-01 -9.99914646e-01 -9.99912977e-01 -9.99911308e-01
      -9.99912560e-01 -9.99917686e-01 -9.99914944e-01 -9.99913096e-01
      -9.99912500e-01 -9.99912322e-01 -9.99917686e-01 -9.99911547e-01
      -9.99913573e-01 -9.99909937e-01 -9.99907792e-01 -9.99917686e-01
      -9.99911427e-01 -9.99909937e-01 -9.99907434e-01 -9.99907076e-01
      -9.99917686e-01 -9.99911129e-01 -9.99910176e-01 -9.99906540e-01
      -9.99906063e-01 -9.99917686e-01 -9.99911010e-01 -9.99910474e-01
      -9.99907017e-01 -9.99906898e-01 -9.99917686e-01 -9.99911606e-01
      -9.99911427e-01 -9.99907315e-01 -9.99907792e-01 -9.99917686e-01
      -9.99911249e-01 -9.99910891e-01 -9.99908209e-01 -9.99907672e-01
      -9.99917686e-01 -9.99911547e-01 -9.99909699e-01 -9.99907911e-01
      -9.99907017e-01 -9.99917686e-01 -9.99911368e-01 -9.99909103e-01
      -9.99907494e-01 -9.99905944e-01 -9.99917686e-01 -9.99911785e-01
      -9.99909520e-01 -9.99907553e-01 -9.99906659e-01 -9.99917686e-01
      -9.99912858e-01 -9.99910057e-01 -9.99910474e-01 -9.99906123e-01
      -9.99917686e-01 -9.99914944e-01 -9.99912798e-01 -9.99913454e-01
      -9.99911129e-01 -9.99917686e-01 -9.99910414e-01 -9.99911427e-01
      -9.99908149e-01 -9.99907553e-01 -9.99917686e-01 -9.99911070e-01
      -9.99910951e-01 -9.99908626e-01 -9.99907613e-01 -9.99917686e-01
      -9.99917388e-01 -9.99464214e-01 -9.99033511e-01 -4.99824941e-01
      -9.99786973e-01 -9.99846101e-01 -9.67974603e-01 1. -9.99184132e-01
      -9.99654651e-01 -9.99733210e-01 -1. -9.99787092e-01</_>
    <_>
      -9.60281253e-01 -9.78920162e-01 -9.67263639e-01 -9.75898087e-01
      -9.34563100e-01 -9.77771640e-01 -9.75888073e-01 -9.99659181e-01
      -9.75207627e-01 -9.99688923e-01 -9.35743570e-01 -9.99691963e-01
      -9.60281253e-01 -9.93188500e-01 -9.94017720e-01 -9.97047544e-01
      -9.98098731e-01 -9.97889757e-01 -9.67263639e-01 -9.97466028e-01
      -9.96151686e-01 -9.97620761e-01 -9.96893108e-01 -9.98651505e-01
      -9.99496639e-01 -9.99466717e-01 -9.99328017e-01 -9.99702215e-01
      -9.99665916e-01 -9.99678314e-01 -9.99622762e-01 -9.99649942e-01
      -9.99702573e-01 -9.99665320e-01 -9.99678969e-01 -9.99635756e-01
      -9.99646842e-01 -9.99702513e-01 -9.99666035e-01 -9.99675274e-01
      -9.99634862e-01 -9.99647081e-01 -9.99702573e-01 -9.99664903e-01
      -9.99673545e-01 -9.99637902e-01 -9.99634385e-01 -9.99702573e-01
      -9.99660730e-01 -9.99675214e-01 -9.99628484e-01 -9.99642551e-01
      -9.99702573e-01 -9.99662340e-01 -9.99675333e-01 -9.99628007e-01
      -9.99637306e-01 -9.99702573e-01 -9.99661803e-01 -9.99678433e-01
      -9.99636233e-01 -9.99633431e-01 -9.99702573e-01 -9.99669850e-01
      -9.99671996e-01 -9.99640107e-01 -9.99641001e-01 -9.99702573e-01
      -9.99668360e-01 -9.99670029e-01 -9.99636948e-01 -9.99645770e-01
      -9.99702573e-01 -9.99669373e-01 -9.99666154e-01 -9.99636650e-01
      -9.99637723e-01 -9.99702513e-01 -9.99670863e-01 -9.99667585e-01
      -9.99637961e-01 -9.99640822e-01 -9.99702573e-01 -9.99673486e-01
      -9.99663830e-01 -9.99635637e-01 -9.99639332e-01 -9.99702573e-01
      -9.99676943e-01 -9.99657452e-01 -9.99653161e-01 -9.99632716e-01
      -9.99702573e-01 -9.99674439e-01 -9.99669313e-01 -9.99642015e-01
      -9.99637783e-01 -9.99702573e-01 -9.99678493e-01 -9.99671817e-01
      -9.99647856e-01 -9.99654114e-01 -9.99702573e-01 -9.99675930e-01
      -9.99672413e-01 -9.99630451e-01 -9.99650896e-01 -9.99702573e-01
      -9.99701738e-01 -9.87746954e-01 -9.94773269e-01 -4.96787965e-01
      -9.99030232e-01 -9.99462485e-01 -8.77178431e-01 1. -9.96083379e-01
      -9.92588162e-01 -9.98286486e-01 -1. -9.99028087e-01</_>
    <_>
      -9.99966621e-01 -9.99966621e-01 -9.99966621e-01 -9.99966621e-01
      -9.92643774e-01 -9.94546890e-01 -9.99966621e-01 -9.99908447e-01
      -9.99966621e-01 -9.99908447e-01 -9.85137045e-01 -9.99956131e-01
      -9.99966621e-01 -9.99966621e-01 -9.99966621e-01 -9.99966621e-01
      -9.99966621e-01 -9.99966621e-01 -9.99966621e-01 -9.99966621e-01
      -9.99966621e-01 -9.99966621e-01 -9.99966621e-01 -9.99966621e-01
      -9.99966621e-01 -9.99966621e-01 -9.99966621e-01 -9.99966502e-01
      -9.99966323e-01 -9.99966025e-01 -9.99966025e-01 -9.99966025e-01
      -9.99966621e-01 -9.99965966e-01 -9.99964654e-01 -9.99964595e-01
      -9.99964356e-01 -9.99966621e-01 -9.99965906e-01 -9.99965668e-01
      -9.99965549e-01 -9.99965668e-01 -9.99966621e-01 -9.99965012e-01
      -9.99965966e-01 -9.99964833e-01 -9.99964178e-01 -9.99966621e-01
      -9.99966621e-01 -9.99966621e-01 -9.99966621e-01 -9.99966621e-01
      -9.99966621e-01 -9.99965370e-01 -9.99964356e-01 -9.99963820e-01
      -9.99963403e-01 -9.99966621e-01 -9.99964058e-01 -9.99965012e-01
      -9.99964356e-01 -9.99963880e-01 -9.99966621e-01 -9.99963880e-01
      -9.99965310e-01 -9.99962926e-01 -9.99961615e-01 -9.99966621e-01
      -9.99966621e-01 -9.99966621e-01 -9.99966621e-01 -9.99966621e-01
      -9.99966621e-01 -9.99965787e-01 -9.99965012e-01 -9.99964714e-01
      -9.99964237e-01 -9.99966621e-01 -9.99964654e-01 -9.99964595e-01
      -9.99964178e-01 -9.99963939e-01 -9.99966621e-01 -9.99963760e-01
      -9.99965310e-01 -9.99961734e-01 -9.99962747e-01 -9.99966621e-01
      -9.99965966e-01 -9.99965906e-01 -9.99965787e-01 -9.99962151e-01
      -9.99966621e-01 -9.99965549e-01 -9.99962389e-01 -9.99965250e-01
      -9.99962330e-01 -9.99966621e-01 -9.99963939e-01 -9.99964058e-01
      -9.99964833e-01 -9.99964774e-01 -9.99966621e-01 -9.99963641e-01
      -9.99965191e-01 -9.99962091e-01 -9.99963105e-01 -9.99966621e-01
      -9.99964774e-01 -9.97378945e-01 -9.99576509e-01 -4.99327958e-01
      -9.99908566e-01 -9.99932885e-01 -9.85329747e-01 1. -9.99660015e-01
      -9.97827172e-01 -9.99852240e-01 -1. -9.99908566e-01</_>
    <_>
      -9.82898295e-01 -9.92007792e-01 -9.86572504e-01 -9.89856958e-01
      -9.71490920e-01 -9.88145590e-01 -9.91468430e-01 -9.99875665e-01
      -9.93633389e-01 -9.99884009e-01 -9.73426998e-01 -9.99885738e-01
      -9.82898295e-01 -9.97886062e-01 -9.97860789e-01 -9.98769164e-01
      -9.98888671e-01 -9.98478413e-01 -9.86572504e-01 -9.98141885e-01
      -9.98403311e-01 -9.99364913e-01 -9.97901559e-01 -9.97864187e-01
      -9.99843299e-01 -9.99802649e-01 -9.99770522e-01 -9.99887586e-01
      -9.99876142e-01 -9.99877930e-01 -9.99870956e-01 -9.99871492e-01
      -9.99887764e-01 -9.99874294e-01 -9.99880016e-01 -9.99864459e-01
      -9.99867141e-01 -9.99887764e-01 -9.99872983e-01 -9.99879897e-01
      -9.99862909e-01 -9.99866366e-01 -9.99887764e-01 -9.99874353e-01
      -9.99879777e-01 -9.99861717e-01 -9.99867618e-01 -9.99887764e-01
      -9.99878228e-01 -9.99878943e-01 -9.99874115e-01 -9.99875784e-01
      -9.99887764e-01 -9.99874234e-01 -9.99877691e-01 -9.99871671e-01
      -9.99869943e-01 -9.99887764e-01 -9.99875069e-01 -9.99879539e-01
      -9.99868393e-01 -9.99870598e-01 -9.99887764e-01 -9.99875426e-01
      -9.99879658e-01 -9.99863982e-01 -9.99869823e-01 -9.99887764e-01
      -9.99879062e-01 -9.99880314e-01 -9.99879837e-01 -9.99878764e-01
      -9.99887764e-01 -9.99873936e-01 -9.99879837e-01 -9.99865234e-01
      -9.99865830e-01 -9.99887764e-01 -9.99871314e-01 -9.99873936e-01
      -9.99874234e-01 -9.99873221e-01 -9.99887764e-01 -9.99871135e-01
      -9.99880433e-01 -9.99865472e-01 -9.99871433e-01 -9.99887764e-01
      -9.99873042e-01 -9.99880075e-01 -9.99874532e-01 -9.99878705e-01
      -9.99887764e-01 -9.99878824e-01 -9.99874711e-01 -9.99872386e-01
      -9.99872684e-01 -9.99887764e-01 -9.99877691e-01 -9.99875724e-01
      -9.99871135e-01 -9.99872148e-01 -9.99887764e-01 -9.99877751e-01
      -9.99878585e-01 -9.99872506e-01 -9.99873757e-01 -9.99887764e-01
      -9.99887586e-01 -9.89674926e-01 -9.97981608e-01 -4.97362375e-01
      -9.99649644e-01 -9.99800384e-01 -9.47819650e-01 1. -9.98478889e-01
      -9.92381573e-01 -9.99345839e-01 -1. -9.99648154e-01</_>
    <_>
      -9.99937117e-01 -9.99937117e-01 -9.99937117e-01 -9.99937117e-01
      -9.89406228e-01 -9.93023813e-01 -9.99937117e-01 -9.99841750e-01
      -9.99937117e-01 -9.99841750e-01 -9.99555588e-01 -9.99934018e-01
      -9.99937117e-01 -9.99937117e-01 -9.99937117e-01 -9.99937117e-01
      -9.99937117e-01 -9.99937117e-01 -9.99937117e-01 -9.99937117e-01
      -9.99937117e-01 -9.99937117e-01 -9.99937117e-01 -9.99937117e-01
      -9.99937117e-01 -9.99937117e-01 -9.99937117e-01 -9.99937057e-01
      -9.99935448e-01 -9.99935925e-01 -9.99934316e-01 -9.99934673e-01
      -9.99937117e-01 -9.99934256e-01 -9.99934793e-01 -9.99931693e-01
      -9.99930561e-01 -9.99937117e-01 -9.99935269e-01 -9.99935448e-01
      -9.99932051e-01 -9.99933660e-01 -9.99937117e-01 -9.99936283e-01
      -9.99936342e-01 -9.99935448e-01 -9.99935687e-01 -9.99937117e-01
      -9.99935567e-01 -9.99935448e-01 -9.99936044e-01 -9.99936223e-01
      -9.99937117e-01 -9.99935210e-01 -9.99936521e-01 -9.99934196e-01
      -9.99936163e-01 -9.99937117e-01 -9.99933779e-01 -9.99935031e-01
      -9.99931216e-01 -9.99931574e-01 -9.99937117e-01 -9.99935389e-01
      -9.99934912e-01 -9.99933243e-01 -9.99933243e-01 -9.99937117e-01
      -9.99935567e-01 -9.99936819e-01 -9.99936461e-01 -9.99936461e-01
      -9.99937117e-01 -9.99935567e-01 -9.99936521e-01 -9.99934733e-01
      -9.99936163e-01 -9.99937117e-01 -9.99935806e-01 -9.99936044e-01
      -9.99935329e-01 -9.99934196e-01 -9.99937117e-01 -9.99935508e-01
      -9.99936283e-01 -9.99935031e-01 -9.99933422e-01 -9.99937117e-01
      -9.99935508e-01 -9.99932349e-01 -9.99934852e-01 -9.99934256e-01
      -9.99937117e-01 -9.99936581e-01 -9.99933720e-01 -9.99936044e-01
      -9.99935508e-01 -9.99937117e-01 -9.99936700e-01 -9.99933481e-01
      -9.99935985e-01 -9.99935865e-01 -9.99937117e-01 -9.99936759e-01
      -9.99934196e-01 -9.99935746e-01 -9.99934912e-01 -9.99937117e-01
      -9.99936819e-01 -9.99572039e-01 -9.99274313e-01 -4.99861568e-01
      -9.99841809e-01 -9.99880612e-01 -9.78862584e-01 1. -9.99380469e-01
      -9.99703050e-01 -9.99797702e-01 -1. -9.99841809e-01</_>
    <_>
      -9.99937296e-01 -9.99937296e-01 -9.99937296e-01 -9.99937296e-01
      -9.87205267e-01 -9.92501915e-01 -9.99937296e-01 -9.99827325e-01
      -9.99937296e-01 -9.99827325e-01 -9.93669629e-01 -9.99932945e-01
      -9.99937296e-01 -9.99937296e-01 -9.99937296e-01 -9.99937296e-01
      -9.99937296e-01 -9.99937296e-01 -9.99937296e-01 -9.99937296e-01
      -9.99937296e-01 -9.99937296e-01 -9.99937296e-01 -9.99937296e-01
      -9.99937296e-01 -9.99937296e-01 -9.99937296e-01 -9.99937177e-01
      -9.99936998e-01 -9.99937236e-01 -9.99937117e-01 -9.99936759e-01
      -9.99937296e-01 -9.99935150e-01 -9.99936461e-01 -9.99935210e-01
      -9.99933004e-01 -9.99937296e-01 -9.99935389e-01 -9.99935389e-01
      -9.99933541e-01 -9.99932110e-01 -9.99937296e-01 -9.99936402e-01
      -9.99936044e-01 -9.99934614e-01 -9.99933481e-01 -9.99937296e-01
      -9.99935269e-01 -9.99936938e-01 -9.99936640e-01 -9.99935150e-01
      -9.99937296e-01 -9.99933720e-01 -9.99935746e-01 -9.99931395e-01
      -9.99932528e-01 -9.99937296e-01 -9.99933422e-01 -9.99935508e-01
      -9.99932468e-01 -9.99932051e-01 -9.99937296e-01 -9.99936819e-01
      -9.99937177e-01 -9.99936759e-01 -9.99937057e-01 -9.99937296e-01
      -9.99933302e-01 -9.99936044e-01 -9.99933362e-01 -9.99933422e-01
      -9.99937296e-01 -9.99935269e-01 -9.99932587e-01 -9.99928236e-01
      -9.99932110e-01 -9.99937296e-01 -9.99934494e-01 -9.99935567e-01
      -9.99933600e-01 -9.99934912e-01 -9.99937296e-01 -9.99936938e-01
      -9.99936461e-01 -9.99936640e-01 -9.99935746e-01 -9.99937296e-01
      -9.99934554e-01 -9.99936283e-01 -9.99931037e-01 -9.99935508e-01
      -9.99937296e-01 -9.99934494e-01 -9.99935508e-01 -9.99928057e-01
      -9.99934196e-01 -9.99937296e-01 -9.99934196e-01 -9.99936163e-01
      -9.99933302e-01 -9.99935210e-01 -9.99937296e-01 -9.99935687e-01
      -9.99936044e-01 -9.99933898e-01 -9.99934852e-01 -9.99937296e-01
      -9.99936640e-01 -9.97191489e-01 -9.99158025e-01 -4.99266595e-01
      -9.99827623e-01 -9.99879181e-01 -9.74444628e-01 1. -9.99323606e-01
      -9.97835755e-01 -9.99718368e-01 -1. -9.99827504e-01</_>
    <_>
      -9.99939680e-01 -9.99939680e-01 -9.99939680e-01 -9.99939680e-01
      -9.89832997e-01 -9.92609620e-01 -9.99939680e-01 -9.99832869e-01
      -9.99939680e-01 -9.99832869e-01 -9.99726057e-01 -9.99926567e-01
      -9.99939680e-01 -9.99939680e-01 -9.99939680e-01 -9.99939680e-01
      -9.99939680e-01 -9.99939680e-01 -9.99939680e-01 -9.99939680e-01
      -9.99939680e-01 -9.99939680e-01 -9.99939680e-01 -9.99939680e-01
      -9.99939680e-01 -9.99939680e-01 -9.99939680e-01 -9.99939561e-01
      -9.99936461e-01 -9.99939322e-01 -9.99937952e-01 -9.99937057e-01
      -9.99939680e-01 -9.99933541e-01 -9.99939322e-01 -9.99938071e-01
      -9.99937594e-01 -9.99939680e-01 -9.99934971e-01 -9.99939442e-01
      -9.99937654e-01 -9.99938428e-01 -9.99939680e-01 -9.99938786e-01
      -9.99939203e-01 -9.99937296e-01 -9.99937356e-01 -9.99939680e-01
      -9.99937773e-01 -9.99939442e-01 -9.99938667e-01 -9.99938786e-01
      -9.99939680e-01 -9.99933600e-01 -9.99939144e-01 -9.99937236e-01
      -9.99936938e-01 -9.99939680e-01 -9.99932706e-01 -9.99939084e-01
      -9.99936342e-01 -9.99936759e-01 -9.99939680e-01 -9.99937117e-01
      -9.99939322e-01 -9.99937832e-01 -9.99936819e-01 -9.99939680e-01
      -9.99937832e-01 -9.99939501e-01 -9.99938190e-01 -9.99939084e-01
      -9.99939680e-01 -9.99930739e-01 -9.99939144e-01 -9.99937534e-01
      -9.99936819e-01 -9.99939680e-01 -9.99931872e-01 -9.99938726e-01
      -9.99935925e-01 -9.99935567e-01 -9.99939680e-01 -9.99938309e-01
      -9.99938965e-01 -9.99937534e-01 -9.99937475e-01 -9.99939680e-01
      -9.99939442e-01 -9.99939620e-01 -9.99939322e-01 -9.99938786e-01
      -9.99939680e-01 -9.99934196e-01 -9.99938428e-01 -9.99936163e-01
      -9.99936044e-01 -9.99939680e-01 -9.99934614e-01 -9.99937773e-01
      -9.99933660e-01 -9.99933720e-01 -9.99939680e-01 -9.99938190e-01
      -9.99939203e-01 -9.99938011e-01 -9.99937832e-01 -9.99939680e-01
      -9.99937952e-01 -9.97197986e-01 -9.99186456e-01 -4.99269545e-01
      -9.99833167e-01 -9.99880612e-01 -9.79713261e-01 1. -9.99350667e-01
      -9.97900188e-01 -9.99725044e-01 -1. -9.99833047e-01</_>
    <_>
      -9.92678344e-01 -9.91864145e-01 -9.85438049e-01 -9.88855720e-01
      -9.88774836e-01 -9.91335094e-01 -9.99919176e-01 -9.99907196e-01
      -9.63544786e-01 -9.99910176e-01 -9.63544786e-01 -9.99914885e-01
      -9.92678344e-01 -9.99600530e-01 -9.98622537e-01 -9.97426093e-01
      -9.99431729e-01 -9.99137282e-01 -9.85438049e-01 -9.96947706e-01
      -9.96728718e-01 -9.99338627e-01 -9.97747064e-01 -9.99366403e-01
      -9.99890208e-01 -9.99890089e-01 -9.99880910e-01 -9.99919057e-01
      -9.99912560e-01 -9.99913931e-01 -9.99906361e-01 -9.99907792e-01
      -9.99919176e-01 -9.99910653e-01 -9.99915361e-01 -9.99909461e-01
      -9.99905407e-01 -9.99919176e-01 -9.99912858e-01 -9.99915063e-01
      -9.99910414e-01 -9.99902844e-01 -9.99919176e-01 -9.99912798e-01
      -9.99915242e-01 -9.99910414e-01 -9.99904394e-01 -9.99919176e-01
      -9.99915063e-01 -9.99912977e-01 -9.99913990e-01 -9.99914229e-01
      -9.99919176e-01 -9.99913573e-01 -9.99912441e-01 -9.99912620e-01
      -9.99913216e-01 -9.99919176e-01 -9.99912620e-01 -9.99915421e-01
      -9.99914408e-01 -9.99912858e-01 -9.99919176e-01 -9.99907613e-01
      -9.99915957e-01 -9.99910355e-01 -9.99907613e-01 -9.99919176e-01
      -9.99917328e-01 -9.99917746e-01 -9.99918044e-01 -9.99916673e-01
      -9.99919176e-01 -9.99918044e-01 -9.99917686e-01 -9.99917507e-01
      -9.99916852e-01 -9.99919176e-01 -9.99915540e-01 -9.99917984e-01
      -9.99917269e-01 -9.99917448e-01 -9.99919176e-01 -9.99906003e-01
      -9.99916613e-01 -9.99907315e-01 -9.99910355e-01 -9.99919176e-01
      -9.99915183e-01 -9.99916732e-01 -9.99915481e-01 -9.99912620e-01
      -9.99919176e-01 -9.99916553e-01 -9.99918699e-01 -9.99918222e-01
      -9.99917209e-01 -9.99919176e-01 -9.99916673e-01 -9.99918878e-01
      -9.99918282e-01 -9.99918044e-01 -9.99919176e-01 -9.99908030e-01
      -9.99916971e-01 -9.99909461e-01 -9.99913096e-01 -9.99919176e-01
      -9.99918878e-01 -9.97168720e-01 -9.98900115e-01 -4.99251932e-01
      -9.99776900e-01 -9.99846697e-01 -9.80402410e-01 1. -9.99113142e-01
      -9.97749507e-01 -9.99659657e-01 -1. -9.99776781e-01</_>
    <_>
      -9.91324961e-01 -9.95009601e-01 -9.93405282e-01 -9.94162202e-01
      -9.81252670e-01 -9.90049362e-01 -9.85795915e-01 -9.99902785e-01
      -9.99915242e-01 -9.99910712e-01 -9.65625405e-01 -9.99909520e-01
      -9.91324961e-01 -9.97665107e-01 -9.98879135e-01 -9.98933136e-01
      -9.99355197e-01 -9.99538660e-01 -9.93405282e-01 -9.98053730e-01
      -9.99574423e-01 -9.99125004e-01 -9.99730051e-01 -9.99689937e-01
      -9.99892294e-01 -9.99893785e-01 -9.99873519e-01 -9.99915123e-01
      -9.99909282e-01 -9.99907196e-01 -9.99903977e-01 -9.99904394e-01
      -9.99915242e-01 -9.99910772e-01 -9.99909103e-01 -9.99906957e-01
      -9.99908447e-01 -9.99915242e-01 -9.99911845e-01 -9.99909818e-01
      -9.99908209e-01 -9.99908924e-01 -9.99915242e-01 -9.99909282e-01
      -9.99910831e-01 -9.99907434e-01 -9.99905169e-01 -9.99915242e-01
      -9.99908090e-01 -9.99907017e-01 -9.99904275e-01 -9.99902964e-01
      -9.99915242e-01 -9.99907374e-01 -9.99907315e-01 -9.99902487e-01
      -9.99902666e-01 -9.99915242e-01 -9.99906659e-01 -9.99907136e-01
      -9.99902189e-01 -9.99903440e-01 -9.99915242e-01 -9.99908507e-01
      -9.99908566e-01 -9.99904811e-01 -9.99904513e-01 -9.99915242e-01
      -9.99908328e-01 -9.99908388e-01 -9.99905229e-01 -9.99904811e-01
      -9.99915242e-01 -9.99908268e-01 -9.99906838e-01 -9.99905288e-01
      -9.99903142e-01 -9.99915242e-01 -9.99909043e-01 -9.99907017e-01
      -9.99905527e-01 -9.99903381e-01 -9.99915242e-01 -9.99908686e-01
      -9.99906659e-01 -9.99905407e-01 -9.99903798e-01 -9.99915242e-01
      -9.99910772e-01 -9.99907792e-01 -9.99908149e-01 -9.99905765e-01
      -9.99915242e-01 -9.99908984e-01 -9.99908090e-01 -9.99906600e-01
      -9.99905884e-01 -9.99915242e-01 -9.99909163e-01 -9.99909580e-01
      -9.99906957e-01 -9.99906540e-01 -9.99915242e-01 -9.99909639e-01
      -9.99909818e-01 -9.99907374e-01 -9.99906600e-01 -9.99915242e-01
      -9.99914944e-01 -9.99402165e-01 -9.98995781e-01 -4.99808162e-01
      -9.99780834e-01 -9.99842465e-01 -9.65921104e-01 1. -9.99153078e-01
      -9.99605358e-01 -9.99724448e-01 -1. -9.99780893e-01</_>
    <_>
      -9.99923468e-01 -9.99923468e-01 -9.99923468e-01 -9.99923468e-01
      -9.85963821e-01 -9.92409587e-01 -9.99923468e-01 -9.99811828e-01
      -9.99923468e-01 -9.99811828e-01 -9.94117260e-01 -9.99922037e-01
      -9.99923468e-01 -9.99923468e-01 -9.99923468e-01 -9.99923468e-01
      -9.99923468e-01 -9.99923468e-01 -9.99923468e-01 -9.99923468e-01
      -9.99923468e-01 -9.99923468e-01 -9.99923468e-01 -9.99923468e-01
      -9.99923468e-01 -9.99923468e-01 -9.99923468e-01 -9.99923348e-01
      -9.99923348e-01 -9.99921858e-01 -9.99923348e-01 -9.99923408e-01
      -9.99923468e-01 -9.99923348e-01 -9.99920130e-01 -9.99923289e-01
      -9.99923408e-01 -9.99923468e-01 -9.99923408e-01 -9.99920607e-01
      -9.99923229e-01 -9.99923468e-01 -9.99923468e-01 -9.99922991e-01
      -9.99922574e-01 -9.99922693e-01 -9.99919713e-01 -9.99923468e-01
      -9.99920785e-01 -9.99922752e-01 -9.99922752e-01 -9.99922633e-01
      -9.99923468e-01 -9.99919891e-01 -9.99919176e-01 -9.99922335e-01
      -9.99922335e-01 -9.99923468e-01 -9.99918401e-01 -9.99918520e-01
      -9.99921858e-01 -9.99922097e-01 -9.99923468e-01 -9.99919653e-01
      -9.99922812e-01 -9.99922931e-01 -9.99922931e-01 -9.99923468e-01
      -9.99920905e-01 -9.99922693e-01 -9.99922872e-01 -9.99922216e-01
      -9.99923468e-01 -9.99920368e-01 -9.99918818e-01 -9.99921441e-01
      -9.99921620e-01 -9.99923468e-01 -9.99919534e-01 -9.99919832e-01
      -9.99921978e-01 -9.99922335e-01 -9.99923468e-01 -9.99919951e-01
      -9.99922752e-01 -9.99922991e-01 -9.99922872e-01 -9.99923468e-01
      -9.99923468e-01 -9.99923468e-01 -9.99923468e-01 -9.99923468e-01
      -9.99923468e-01 -9.99923468e-01 -9.99923468e-01 -9.99923468e-01
      -9.99923468e-01 -9.99923468e-01 -9.99922693e-01 -9.99923289e-01
      -9.99923110e-01 -9.99922991e-01 -9.99923468e-01 -9.99918640e-01
      -9.99922812e-01 -9.99919236e-01 -9.99920249e-01 -9.99923468e-01
      -9.99923229e-01 -9.96057272e-01 -9.99157906e-01 -4.98975962e-01
      -9.99812245e-01 -9.99846458e-01 -9.71985459e-01 1. -9.99268591e-01
      -9.96381223e-01 -9.99762952e-01 -1. -9.99811888e-01</_>
    <_>
      -9.99914825e-01 -9.99914825e-01 -9.99914825e-01 -9.99914825e-01
      -9.86298978e-01 -9.91200864e-01 -9.99914825e-01 -9.99764144e-01
      -9.99914825e-01 -9.99764144e-01 -9.99914825e-01 -9.99888539e-01
      -9.99914825e-01 -9.99914825e-01 -9.99914825e-01 -9.99914825e-01
      -9.99914825e-01 -9.99914825e-01 -9.99914825e-01 -9.99914825e-01
      -9.99914825e-01 -9.99914825e-01 -9.99914825e-01 -9.99914825e-01
      -9.99914825e-01 -9.99914825e-01 -9.99914825e-01 -9.99914706e-01
      -9.99913752e-01 -9.99913454e-01 -9.99912620e-01 -9.99909699e-01
      -9.99914825e-01 -9.99912083e-01 -9.99909818e-01 -9.99907553e-01
      -9.99904215e-01 -9.99914825e-01 -9.99912322e-01 -9.99909222e-01
      -9.99903023e-01 -9.99906421e-01 -9.99914825e-01 -9.99913394e-01
      -9.99913216e-01 -9.99907851e-01 -9.99912143e-01 -9.99914825e-01
      -9.99910831e-01 -9.99908507e-01 -9.99904156e-01 -9.99898732e-01
      -9.99914825e-01 -9.99910474e-01 -9.99909520e-01 -9.99905705e-01
      -9.99903262e-01 -9.99914825e-01 -9.99910057e-01 -9.99909759e-01
      -9.99904454e-01 -9.99906182e-01 -9.99914825e-01 -9.99910712e-01
      -9.99908924e-01 -9.99898911e-01 -9.99903977e-01 -9.99914825e-01
      -9.99910474e-01 -9.99909937e-01 -9.99902427e-01 -9.99906480e-01
      -9.99914825e-01 -9.99910116e-01 -9.99909639e-01 -9.99903560e-01
      -9.99906063e-01 -9.99914825e-01 -9.99910295e-01 -9.99909401e-01
      -9.99905467e-01 -9.99903142e-01 -9.99914825e-01 -9.99910772e-01
      -9.99908507e-01 -9.99904871e-01 -9.99898970e-01 -9.99914825e-01
      -9.99913394e-01 -9.99913156e-01 -9.99908209e-01 -9.99911964e-01
      -9.99914825e-01 -9.99911666e-01 -9.99908328e-01 -9.99901414e-01
      -9.99905348e-01 -9.99914825e-01 -9.99912500e-01 -9.99909699e-01
      -9.99906898e-01 -9.99904871e-01 -9.99914825e-01 -9.99913514e-01
      -9.99913156e-01 -9.99911964e-01 -9.99908626e-01 -9.99914825e-01
      -9.99910533e-01 -9.98360097e-01 -9.98922765e-01 -4.99547631e-01
      -9.99764383e-01 -9.99842167e-01 -9.72628772e-01 1. -9.99134123e-01
      -9.98929620e-01 -9.99633253e-01 -1. -9.99764562e-01</_>
    <_>
      -9.99972105e-01 -9.99972105e-01 -9.99972105e-01 -9.99972105e-01
      -9.92675722e-01 -9.95416284e-01 -9.99972105e-01 -9.99930680e-01
      -9.99972105e-01 -9.99930680e-01 -9.89456952e-01 -9.99961913e-01
      -9.99972105e-01 -9.99972105e-01 -9.99972105e-01 -9.99972105e-01
      -9.99972105e-01 -9.99972105e-01 -9.99972105e-01 -9.99972105e-01
      -9.99972105e-01 -9.99972105e-01 -9.99972105e-01 -9.99972105e-01
      -9.99972105e-01 -9.99972105e-01 -9.99972105e-01 -9.99972045e-01
      -9.99972105e-01 -9.99972105e-01 -9.99972105e-01 -9.99972105e-01
      -9.99972105e-01 -9.99971807e-01 -9.99972045e-01 -9.99971926e-01
      -9.99971926e-01 -9.99972105e-01 -9.99971509e-01 -9.99971926e-01
      -9.99971807e-01 -9.99971867e-01 -9.99972105e-01 -9.99972105e-01
      -9.99972105e-01 -9.99972105e-01 -9.99972105e-01 -9.99972105e-01
      -9.99972105e-01 -9.99972105e-01 -9.99972105e-01 -9.99972105e-01
      -9.99972105e-01 -9.99971569e-01 -9.99971569e-01 -9.99971032e-01
      -9.99971151e-01 -9.99972105e-01 -9.99971628e-01 -9.99971688e-01
      -9.99971151e-01 -9.99971092e-01 -9.99972105e-01 -9.99972105e-01
      -9.99972105e-01 -9.99972105e-01 -9.99972105e-01 -9.99972105e-01
      -9.99971628e-01 -9.99971807e-01 -9.99971330e-01 -9.99971330e-01
      -9.99972105e-01 -9.99971926e-01 -9.99971926e-01 -9.99971747e-01
      -9.99971688e-01 -9.99972105e-01 -9.99971986e-01 -9.99971986e-01
      -9.99971688e-01 -9.99971867e-01 -9.99972105e-01 -9.99971628e-01
      -9.99971867e-01 -9.99971211e-01 -9.99971271e-01 -9.99972105e-01
      -9.99971867e-01 -9.99971926e-01 -9.99971628e-01 -9.99971688e-01
      -9.99972105e-01 -9.99971807e-01 -9.99971867e-01 -9.99971509e-01
      -9.99971390e-01 -9.99972105e-01 -9.99971807e-01 -9.99971867e-01
      -9.99971330e-01 -9.99971509e-01 -9.99972105e-01 -9.99971747e-01
      -9.99971867e-01 -9.99971628e-01 -9.99971569e-01 -9.99972105e-01
      -9.99966323e-01 -9.98416603e-01 -9.99830067e-01 -4.99590307e-01
      -9.99930739e-01 -9.99938071e-01 -9.85392869e-01 1. -9.99851346e-01
      -9.98541951e-01 -9.99924302e-01 -1. -9.99931335e-01</_>
    <_>
      -9.99935269e-01 -9.99935269e-01 -9.99935269e-01 -9.99935269e-01
      -9.90967572e-01 -9.92641747e-01 -9.99935269e-01 -9.99829829e-01
      -9.99935269e-01 -9.99829829e-01 -9.97192979e-01 -9.99931812e-01
      -9.99935269e-01 -9.99935269e-01 -9.99935269e-01 -9.99935269e-01
      -9.99935269e-01 -9.99935269e-01 -9.99935269e-01 -9.99935269e-01
      -9.99935269e-01 -9.99935269e-01 -9.99935269e-01 -9.99935269e-01
      -9.99935269e-01 -9.99935269e-01 -9.99935269e-01 -9.99935150e-01
      -9.99931872e-01 -9.99933779e-01 -9.99933422e-01 -9.99933004e-01
      -9.99935269e-01 -9.99932051e-01 -9.99932945e-01 -9.99927461e-01
      -9.99928772e-01 -9.99935269e-01 -9.99931514e-01 -9.99931455e-01
      -9.99927700e-01 -9.99927163e-01 -9.99935269e-01 -9.99933600e-01
      -9.99925494e-01 -9.99929845e-01 -9.99929190e-01 -9.99935269e-01
      -9.99929786e-01 -9.99935091e-01 -9.99935031e-01 -9.99933600e-01
      -9.99935269e-01 -9.99932468e-01 -9.99927819e-01 -9.99933362e-01
      -9.99933600e-01 -9.99935269e-01 -9.99929488e-01 -9.99924362e-01
      -9.99933004e-01 -9.99932826e-01 -9.99935269e-01 -9.99932528e-01
      -9.99933660e-01 -9.99934912e-01 -9.99934852e-01 -9.99935269e-01
      -9.99932706e-01 -9.99931514e-01 -9.99933660e-01 -9.99929488e-01
      -9.99935269e-01 -9.99930739e-01 -9.99934137e-01 -9.99932826e-01
      -9.99933243e-01 -9.99935269e-01 -9.99932826e-01 -9.99933779e-01
      -9.99934196e-01 -9.99933183e-01 -9.99935269e-01 -9.99935269e-01
      -9.99932885e-01 -9.99933779e-01 -9.99934793e-01 -9.99935269e-01
      -9.99935031e-01 -9.99933600e-01 -9.99934912e-01 -9.99933302e-01
      -9.99935269e-01 -9.99934793e-01 -9.99934852e-01 -9.99934971e-01
      -9.99933541e-01 -9.99935269e-01 -9.99933958e-01 -9.99935031e-01
      -9.99935210e-01 -9.99934435e-01 -9.99935269e-01 -9.99935210e-01
      -9.99935150e-01 -9.99935210e-01 -9.99934494e-01 -9.99935269e-01
      -9.99934793e-01 -9.97507095e-01 -9.99213099e-01 -4.99344736e-01
      -9.99830067e-01 -9.99868155e-01 -9.81999993e-01 1. -9.99349535e-01
      -9.97906387e-01 -9.99754488e-01 -1. -9.99829948e-01</_>
    <_>
      -9.77808774e-01 -9.88761723e-01 -9.82147038e-01 -9.88414943e-01
      -9.53441560e-01 -9.85204160e-01 -9.87613738e-01 -9.99825537e-01
      -9.89710331e-01 -9.99838769e-01 -9.51272666e-01 -9.99839842e-01
      -9.77808774e-01 -9.95451629e-01 -9.96198773e-01 -9.98614371e-01
      -9.99134064e-01 -9.98449802e-01 -9.82147038e-01 -9.98681724e-01
      -9.98228371e-01 -9.99543250e-01 -9.98272777e-01 -9.99338746e-01
      -9.99759495e-01 -9.99690592e-01 -9.99624312e-01 -9.99843717e-01
      -9.99829054e-01 -9.99828041e-01 -9.99798238e-01 -9.99816835e-01
      -9.99843895e-01 -9.99827385e-01 -9.99831676e-01 -9.99810278e-01
      -9.99815941e-01 -9.99843895e-01 -9.99827445e-01 -9.99829113e-01
      -9.99815524e-01 -9.99803245e-01 -9.99843895e-01 -9.99827266e-01
      -9.99828935e-01 -9.99819040e-01 -9.99799788e-01 -9.99843836e-01
      -9.99827027e-01 -9.99824286e-01 -9.99804199e-01 -9.99816000e-01
      -9.99843895e-01 -9.99830425e-01 -9.99822199e-01 -9.99807775e-01
      -9.99808908e-01 -9.99843895e-01 -9.99828994e-01 -9.99824345e-01
      -9.99810398e-01 -9.99805927e-01 -9.99843895e-01 -9.99827087e-01
      -9.99827921e-01 -9.99813259e-01 -9.99805868e-01 -9.99843836e-01
      -9.99819756e-01 -9.99828756e-01 -9.99825001e-01 -9.99822438e-01
      -9.99843895e-01 -9.99825060e-01 -9.99828100e-01 -9.99815464e-01
      -9.99815464e-01 -9.99843895e-01 -9.99821782e-01 -9.99831319e-01
      -9.99808252e-01 -9.99813795e-01 -9.99843895e-01 -9.99822497e-01
      -9.99833584e-01 -9.99800742e-01 -9.99817073e-01 -9.99843895e-01
      -9.99827564e-01 -9.99824584e-01 -9.99821961e-01 -9.99821961e-01
      -9.99843895e-01 -9.99819100e-01 -9.99831259e-01 -9.99818742e-01
      -9.99813676e-01 -9.99843895e-01 -9.99822557e-01 -9.99830544e-01
      -9.99816656e-01 -9.99820411e-01 -9.99843895e-01 -9.99821603e-01
      -9.99830425e-01 -9.99815822e-01 -9.99820888e-01 -9.99843895e-01
      -9.99843597e-01 -9.91757870e-01 -9.97146964e-01 -4.97861713e-01
      -9.99497235e-01 -9.99725282e-01 -9.13614154e-01 1. -9.97866392e-01
      -9.95001078e-01 -9.99070942e-01 -1. -9.99496520e-01</_>
    <_>
      -9.83042598e-01 -9.88704264e-01 -9.88499045e-01 -9.90964949e-01
      -9.66415226e-01 -9.86590624e-01 -9.91389930e-01 -9.99820948e-01
      -9.96456146e-01 -9.99826849e-01 -9.28061903e-01 -9.99828637e-01
      -9.83042598e-01 -9.96853948e-01 -9.95767891e-01 -9.98864233e-01
      -9.99111772e-01 -9.97985959e-01 -9.88499045e-01 -9.96857822e-01
      -9.97290194e-01 -9.98864055e-01 -9.98323977e-01 -9.98835206e-01
      -9.99762774e-01 -9.99782801e-01 -9.99732792e-01 -9.99833524e-01
      -9.99823034e-01 -9.99823928e-01 -9.99810457e-01 -9.99815524e-01
      -9.99833643e-01 -9.99818742e-01 -9.99819219e-01 -9.99809802e-01
      -9.99811828e-01 -9.99833643e-01 -9.99819875e-01 -9.99821186e-01
      -9.99813557e-01 -9.99813974e-01 -9.99833643e-01 -9.99819994e-01
      -9.99821126e-01 -9.99812782e-01 -9.99810338e-01 -9.99833643e-01
      -9.99823511e-01 -9.99818504e-01 -9.99818802e-01 -9.99818444e-01
      -9.99833643e-01 -9.99821007e-01 -9.99817431e-01 -9.99808013e-01
      -9.99811530e-01 -9.99833643e-01 -9.99821663e-01 -9.99818861e-01
      -9.99812603e-01 -9.99812365e-01 -9.99833643e-01 -9.99820471e-01
      -9.99819994e-01 -9.99809742e-01 -9.99812841e-01 -9.99833643e-01
      -9.99823630e-01 -9.99822378e-01 -9.99808550e-01 -9.99818087e-01
      -9.99833643e-01 -9.99819040e-01 -9.99817729e-01 -9.99810338e-01
      -9.99809444e-01 -9.99833643e-01 -9.99821723e-01 -9.99820173e-01
      -9.99807775e-01 -9.99812067e-01 -9.99833643e-01 -9.99821484e-01
      -9.99820828e-01 -9.99812245e-01 -9.99816835e-01 -9.99833643e-01
      -9.99820888e-01 -9.99819934e-01 -9.99813080e-01 -9.99809444e-01
      -9.99833643e-01 -9.99819815e-01 -9.99818146e-01 -9.99809504e-01
      -9.99809682e-01 -9.99833643e-01 -9.99820471e-01 -9.99818504e-01
      -9.99809563e-01 -9.99811649e-01 -9.99833643e-01 -9.99821186e-01
      -9.99819875e-01 -9.99812365e-01 -9.99814212e-01 -9.99833643e-01
      -9.99833226e-01 -9.97143030e-01 -9.97857928e-01 -4.99202758e-01
      -9.99552965e-01 -9.99689937e-01 -9.36995208e-01 1. -9.98237133e-01
      -9.97816443e-01 -9.99393761e-01 -1. -9.99552608e-01</_>
    <_>
      -9.90396559e-01 -9.93821204e-01 -9.90389407e-01 -9.92714703e-01
      -9.90920186e-01 -9.90997016e-01 -9.85600829e-01 -9.99934316e-01
      -9.69470143e-01 -9.99934912e-01 -9.69470143e-01 -9.99932289e-01
      -9.90396559e-01 -9.98003900e-01 -9.98519540e-01 -9.99856889e-01
      -9.99257565e-01 -9.99400198e-01 -9.90389407e-01 -9.97986197e-01
      -9.98916805e-01 -9.98073697e-01 -9.99305487e-01 -9.99866545e-01
      -9.99922454e-01 -9.99912441e-01 -9.99900162e-01 -9.99939084e-01
      -9.99934435e-01 -9.99936461e-01 -9.99929607e-01 -9.99932706e-01
      -9.99939203e-01 -9.99934912e-01 -9.99935508e-01 -9.99930024e-01
      -9.99930143e-01 -9.99939203e-01 -9.99933004e-01 -9.99935806e-01
      -9.99928892e-01 -9.99927998e-01 -9.99939203e-01 -9.99934494e-01
      -9.99935985e-01 -9.99931812e-01 -9.99926865e-01 -9.99939203e-01
      -9.99934435e-01 -9.99934673e-01 -9.99930739e-01 -9.99930680e-01
      -9.99939203e-01 -9.99933243e-01 -9.99934852e-01 -9.99928534e-01
      -9.99927759e-01 -9.99939203e-01 -9.99933243e-01 -9.99934435e-01
      -9.99929130e-01 -9.99926805e-01 -9.99939203e-01 -9.99934614e-01
      -9.99935687e-01 -9.99931812e-01 -9.99926031e-01 -9.99939203e-01
      -9.99934077e-01 -9.99932766e-01 -9.99932349e-01 -9.99930561e-01
      -9.99939203e-01 -9.99935150e-01 -9.99931633e-01 -9.99931276e-01
      -9.99932051e-01 -9.99939203e-01 -9.99934494e-01 -9.99932587e-01
      -9.99931931e-01 -9.99929726e-01 -9.99939203e-01 -9.99935746e-01
      -9.99934494e-01 -9.99932170e-01 -9.99930084e-01 -9.99939203e-01
      -9.99933660e-01 -9.99937654e-01 -9.99937713e-01 -9.99936223e-01
      -9.99939203e-01 -9.99936283e-01 -9.99934494e-01 -9.99935925e-01
      -9.99935627e-01 -9.99939203e-01 -9.99936521e-01 -9.99936819e-01
      -9.99937177e-01 -9.99936879e-01 -9.99939203e-01 -9.99937654e-01
      -9.99937117e-01 -9.99936163e-01 -9.99935091e-01 -9.99939203e-01
      -9.99938965e-01 -9.95369494e-01 -9.99077559e-01 -4.98812079e-01
      -9.99820232e-01 -9.99885499e-01 -9.84642565e-01 1. -9.99280870e-01
      -9.96179163e-01 -9.99698102e-01 -1. -9.99820113e-01</_>
    <_>
      -9.86490428e-01 -9.92844880e-01 -9.86363828e-01 -9.91675377e-01
      -9.77675498e-01 -9.88983631e-01 -9.79385853e-01 -9.99887347e-01
      -9.88957942e-01 -9.99895096e-01 -9.50083435e-01 -9.99890089e-01
      -9.86490428e-01 -9.99166191e-01 -9.96249020e-01 -9.99731839e-01
      -9.98848081e-01 -9.99585092e-01 -9.86363828e-01 -9.98514831e-01
      -9.97984469e-01 -9.99680221e-01 -9.98283923e-01 -9.99461651e-01
      -9.99849319e-01 -9.99835849e-01 -9.99796987e-01 -9.99897361e-01
      -9.99888062e-01 -9.99887645e-01 -9.99878764e-01 -9.99885380e-01
      -9.99897480e-01 -9.99884129e-01 -9.99884188e-01 -9.99879241e-01
      -9.99881446e-01 -9.99897480e-01 -9.99886334e-01 -9.99887764e-01
      -9.99882579e-01 -9.99882042e-01 -9.99897480e-01 -9.99886274e-01
      -9.99886036e-01 -9.99881148e-01 -9.99879956e-01 -9.99897480e-01
      -9.99889195e-01 -9.99884367e-01 -9.99883771e-01 -9.99885559e-01
      -9.99897480e-01 -9.99888957e-01 -9.99882817e-01 -9.99885440e-01
      -9.99883235e-01 -9.99897480e-01 -9.99888241e-01 -9.99887705e-01
      -9.99883175e-01 -9.99883652e-01 -9.99897480e-01 -9.99888599e-01
      -9.99885738e-01 -9.99881089e-01 -9.99879420e-01 -9.99897480e-01
      -9.99892175e-01 -9.99884784e-01 -9.99887645e-01 -9.99882340e-01
      -9.99897480e-01 -9.99887884e-01 -9.99886930e-01 -9.99885917e-01
      -9.99883056e-01 -9.99897480e-01 -9.99886990e-01 -9.99888539e-01
      -9.99877870e-01 -9.99878526e-01 -9.99897480e-01 -9.99887466e-01
      -9.99888957e-01 -9.99877810e-01 -9.99881685e-01 -9.99897480e-01
      -9.99886751e-01 -9.99890447e-01 -9.99887407e-01 -9.99882936e-01
      -9.99897480e-01 -9.99885201e-01 -9.99890924e-01 -9.99884546e-01
      -9.99883473e-01 -9.99897480e-01 -9.99885261e-01 -9.99890447e-01
      -9.99878705e-01 -9.99878705e-01 -9.99897480e-01 -9.99887109e-01
      -9.99890149e-01 -9.99876559e-01 -9.99881923e-01 -9.99897480e-01
      -9.99897301e-01 -9.96626854e-01 -9.98430610e-01 -4.99105632e-01
      -9.99702811e-01 -9.99814391e-01 -9.60141242e-01 1. -9.98768628e-01
      -9.97653127e-01 -9.99518812e-01 -1. -9.99702632e-01</_>
    <_>
      -9.78960752e-01 -9.83547032e-01 -9.82253373e-01 -9.87993598e-01
      -9.76882577e-01 -9.85098660e-01 -9.96082842e-01 -9.99801815e-01
      -9.87475693e-01 -9.99808133e-01 -9.76286352e-01 -9.99807596e-01
      -9.78960752e-01 -9.96539533e-01 -9.95598674e-01 -9.97676134e-01
      -9.98531699e-01 -9.97954130e-01 -9.82253373e-01 -9.97603118e-01
      -9.95866656e-01 -9.99356687e-01 -9.98444259e-01 -9.98656571e-01
      -9.99743223e-01 -9.99768794e-01 -9.99712288e-01 -9.99812484e-01
      -9.99805927e-01 -9.99804080e-01 -9.99805272e-01 -9.99804139e-01
      -9.99812663e-01 -9.99809742e-01 -9.99804020e-01 -9.99808252e-01
      -9.99805808e-01 -9.99812663e-01 -9.99811947e-01 -9.99807656e-01
      -9.99811709e-01 -9.99810100e-01 -9.99812663e-01 -9.99811471e-01
      -9.99806106e-01 -9.99810934e-01 -9.99808550e-01 -9.99812663e-01
      -9.99809742e-01 -9.99797940e-01 -9.99808073e-01 -9.99806225e-01
      -9.99812663e-01 -9.99808371e-01 -9.99806821e-01 -9.99809802e-01
      -9.99808967e-01 -9.99812663e-01 -9.99807477e-01 -9.99807715e-01
      -9.99804854e-01 -9.99804556e-01 -9.99812663e-01 -9.99804914e-01
      -9.99805152e-01 -9.99803185e-01 -9.99801576e-01 -9.99812663e-01
      -9.99807775e-01 -9.99808967e-01 -9.99810815e-01 -9.99810517e-01
      -9.99812663e-01 -9.99808192e-01 -9.99807656e-01 -9.99807417e-01
      -9.99805868e-01 -9.99812663e-01 -9.99807358e-01 -9.99807894e-01
      -9.99805152e-01 -9.99804080e-01 -9.99812663e-01 -9.99808013e-01
      -9.99805331e-01 -9.99806106e-01 -9.99803960e-01 -9.99812663e-01
      -9.99805927e-01 -9.99807060e-01 -9.99803662e-01 -9.99806941e-01
      -9.99812663e-01 -9.99809504e-01 -9.99808490e-01 -9.99806643e-01
      -9.99805331e-01 -9.99812663e-01 -9.99805093e-01 -9.99807358e-01
      -9.99803901e-01 -9.99804676e-01 -9.99812663e-01 -9.99810576e-01
      -9.99811292e-01 -9.99810517e-01 -9.99810755e-01 -9.99812663e-01
      -9.99811888e-01 -9.97596681e-01 -9.97935116e-01 -4.99305546e-01
      -9.99526381e-01 -9.99633372e-01 -9.59815621e-01 1. -9.98221040e-01
      -9.97951329e-01 -9.99438465e-01 -1. -9.99526024e-01</_>
    <_>
      -9.99961495e-01 -9.99961495e-01 -9.99961495e-01 -9.99961495e-01
      -9.92550552e-01 -9.93884087e-01 -9.99961495e-01 -9.99888420e-01
      -9.99961495e-01 -9.99888420e-01 -9.99961495e-01 -9.99948084e-01
      -9.99961495e-01 -9.99961495e-01 -9.99961495e-01 -9.99961495e-01
      -9.99961495e-01 -9.99961495e-01 -9.99961495e-01 -9.99961495e-01
      -9.99961495e-01 -9.99961495e-01 -9.99961495e-01 -9.99961495e-01
      -9.99961495e-01 -9.99961495e-01 -9.99961495e-01 -9.99961436e-01
      -9.99960482e-01 -9.99961257e-01 -9.99959350e-01 -9.99960124e-01
      -9.99961495e-01 -9.99957860e-01 -9.99961257e-01 -9.99959528e-01
      -9.99959528e-01 -9.99961495e-01 -9.99956548e-01 -9.99961078e-01
      -9.99959111e-01 -9.99959171e-01 -9.99961495e-01 -9.99961495e-01
      -9.99961495e-01 -9.99961495e-01 -9.99961495e-01 -9.99961495e-01
      -9.99959111e-01 -9.99961019e-01 -9.99959648e-01 -9.99959111e-01
      -9.99961495e-01 -9.99958992e-01 -9.99960244e-01 -9.99956489e-01
      -9.99958515e-01 -9.99961495e-01 -9.99958336e-01 -9.99960423e-01
      -9.99958515e-01 -9.99956727e-01 -9.99961495e-01 -9.99961495e-01
      -9.99961495e-01 -9.99961495e-01 -9.99961495e-01 -9.99961495e-01
      -9.99959052e-01 -9.99959946e-01 -9.99958932e-01 -9.99957204e-01
      -9.99961495e-01 -9.99958813e-01 -9.99957800e-01 -9.99955058e-01
      -9.99952614e-01 -9.99961495e-01 -9.99958456e-01 -9.99959707e-01
      -9.99956310e-01 -9.99955595e-01 -9.99961495e-01 -9.99961257e-01
      -9.99961495e-01 -9.99961376e-01 -9.99961436e-01 -9.99961495e-01
      -9.99958038e-01 -9.99961138e-01 -9.99959826e-01 -9.99958098e-01
      -9.99961495e-01 -9.99958575e-01 -9.99960661e-01 -9.99959350e-01
      -9.99958634e-01 -9.99961495e-01 -9.99958634e-01 -9.99960482e-01
      -9.99959588e-01 -9.99959469e-01 -9.99961495e-01 -9.99960721e-01
      -9.99961495e-01 -9.99961197e-01 -9.99961257e-01 -9.99961495e-01
      -9.99959052e-01 -9.96071398e-01 -9.99445856e-01 -4.98998582e-01
      -9.99888659e-01 -9.99924362e-01 -9.85119998e-01 1. -9.99569535e-01
      -9.96961594e-01 -9.99798834e-01 -1. -9.99888659e-01</_>
    <_>
      -9.89880383e-01 -9.94719446e-01 -9.94383037e-01 -9.93779957e-01
      -9.80601013e-01 -9.91416812e-01 -9.86457288e-01 -9.99920070e-01
      -9.98618841e-01 -9.99922693e-01 -9.66580331e-01 -9.99924004e-01
      -9.89880383e-01 -9.98732984e-01 -9.98396099e-01 -9.99464691e-01
      -9.99628901e-01 -9.99729812e-01 -9.94383037e-01 -9.98600125e-01
      -9.99536216e-01 -9.99583781e-01 -9.99021113e-01 -9.99239624e-01
      -9.99901593e-01 -9.99902189e-01 -9.99884307e-01 -9.99926448e-01
      -9.99920130e-01 -9.99920607e-01 -9.99915898e-01 -9.99918163e-01
      -9.99926567e-01 -9.99920905e-01 -9.99921739e-01 -9.99918520e-01
      -9.99919057e-01 -9.99926567e-01 -9.99918520e-01 -9.99919415e-01
      -9.99915302e-01 -9.99914885e-01 -9.99926567e-01 -9.99920309e-01
      -9.99919891e-01 -9.99916673e-01 -9.99915659e-01 -9.99926567e-01
      -9.99920905e-01 -9.99919176e-01 -9.99914587e-01 -9.99917448e-01
      -9.99926567e-01 -9.99920607e-01 -9.99917567e-01 -9.99916613e-01
      -9.99917269e-01 -9.99926567e-01 -9.99920845e-01 -9.99918222e-01
      -9.99917269e-01 -9.99917269e-01 -9.99926567e-01 -9.99920607e-01
      -9.99920428e-01 -9.99916673e-01 -9.99914885e-01 -9.99926567e-01
      -9.99921799e-01 -9.99917626e-01 -9.99917567e-01 -9.99918103e-01
      -9.99926567e-01 -9.99919891e-01 -9.99918699e-01 -9.99915540e-01
      -9.99916196e-01 -9.99926567e-01 -9.99920666e-01 -9.99919236e-01
      -9.99916494e-01 -9.99916792e-01 -9.99926567e-01 -9.99921083e-01
      -9.99920666e-01 -9.99913216e-01 -9.99918282e-01 -9.99926567e-01
      -9.99920189e-01 -9.99920189e-01 -9.99917269e-01 -9.99916315e-01
      -9.99926567e-01 -9.99919057e-01 -9.99920249e-01 -9.99918818e-01
      -9.99918163e-01 -9.99926567e-01 -9.99920726e-01 -9.99919474e-01
      -9.99918163e-01 -9.99918222e-01 -9.99926567e-01 -9.99919474e-01
      -9.99923468e-01 -9.99911010e-01 -9.99921203e-01 -9.99926567e-01
      -9.99926388e-01 -9.97153997e-01 -9.98932600e-01 -4.99251634e-01
      -9.99796152e-01 -9.99867260e-01 -9.63766932e-01 1. -9.99146104e-01
      -9.97812092e-01 -9.99680340e-01 -1. -9.99795973e-01</_>
    <_>
      -9.91552770e-01 -9.94604170e-01 -9.93468046e-01 -9.94383454e-01
      -9.80922461e-01 -9.89998817e-01 -9.85638261e-01 -9.99900520e-01
      -9.99914229e-01 -9.99909639e-01 -9.65243995e-01 -9.99908864e-01
      -9.91552770e-01 -9.97403145e-01 -9.98901486e-01 -9.98849750e-01
      -9.99363720e-01 -9.99493003e-01 -9.93468046e-01 -9.98266041e-01
      -9.99414623e-01 -9.99105215e-01 -9.99753833e-01 -9.99699235e-01
      -9.99890804e-01 -9.99892592e-01 -9.99871731e-01 -9.99914110e-01
      -9.99907494e-01 -9.99906659e-01 -9.99902606e-01 -9.99902844e-01
      -9.99914229e-01 -9.99910057e-01 -9.99908268e-01 -9.99905527e-01
      -9.99907017e-01 -9.99914229e-01 -9.99910116e-01 -9.99908626e-01
      -9.99906838e-01 -9.99908268e-01 -9.99914229e-01 -9.99907911e-01
      -9.99909759e-01 -9.99905288e-01 -9.99904513e-01 -9.99914229e-01
      -9.99907076e-01 -9.99906540e-01 -9.99902785e-01 -9.99902606e-01
      -9.99914229e-01 -9.99906719e-01 -9.99906719e-01 -9.99901831e-01
      -9.99902308e-01 -9.99914229e-01 -9.99907017e-01 -9.99906719e-01
      -9.99901712e-01 -9.99903142e-01 -9.99914229e-01 -9.99907017e-01
      -9.99907315e-01 -9.99902427e-01 -9.99903679e-01 -9.99914229e-01
      -9.99907911e-01 -9.99907374e-01 -9.99904513e-01 -9.99904692e-01
      -9.99914229e-01 -9.99908090e-01 -9.99905944e-01 -9.99904633e-01
      -9.99903142e-01 -9.99914229e-01 -9.99908447e-01 -9.99906301e-01
      -9.99904990e-01 -9.99903619e-01 -9.99914229e-01 -9.99909461e-01
      -9.99906778e-01 -9.99905944e-01 -9.99904871e-01 -9.99914229e-01
      -9.99909282e-01 -9.99907136e-01 -9.99907494e-01 -9.99904394e-01
      -9.99914229e-01 -9.99907970e-01 -9.99907613e-01 -9.99906242e-01
      -9.99905348e-01 -9.99914229e-01 -9.99907136e-01 -9.99907434e-01
      -9.99905169e-01 -9.99903679e-01 -9.99914229e-01 -9.99908209e-01
      -9.99907911e-01 -9.99905765e-01 -9.99905109e-01 -9.99914229e-01
      -9.99913931e-01 -9.99422789e-01 -9.98982668e-01 -4.99812961e-01
      -9.99778330e-01 -9.99840796e-01 -9.65341449e-01 1. -9.99141932e-01
      -9.99627173e-01 -9.99721527e-01 -1. -9.99778390e-01</_>
    <_>
      -9.91604865e-01 -9.94521439e-01 -9.93119121e-01 -9.92811918e-01
      -9.82786775e-01 -9.90507007e-01 -9.86411572e-01 -9.99908686e-01
      -9.67115700e-01 -9.99913990e-01 -9.67115700e-01 -9.99912858e-01
      -9.91604865e-01 -9.97985482e-01 -9.98536050e-01 -9.98871207e-01
      -9.99351501e-01 -9.99477327e-01 -9.93119121e-01 -9.97190297e-01
      -9.98968184e-01 -9.98760879e-01 -9.99314308e-01 -9.99739885e-01
      -9.99896586e-01 -9.99895632e-01 -9.99876738e-01 -9.99918580e-01
      -9.99913096e-01 -9.99911129e-01 -9.99907970e-01 -9.99907613e-01
      -9.99918699e-01 -9.99912739e-01 -9.99910891e-01 -9.99907374e-01
      -9.99908090e-01 -9.99918699e-01 -9.99915659e-01 -9.99913812e-01
      -9.99912560e-01 -9.99913692e-01 -9.99918699e-01 -9.99916673e-01
      -9.99915183e-01 -9.99914289e-01 -9.99914825e-01 -9.99918699e-01
      -9.99912500e-01 -9.99911904e-01 -9.99909222e-01 -9.99907196e-01
      -9.99918699e-01 -9.99912620e-01 -9.99910891e-01 -9.99908686e-01
      -9.99907792e-01 -9.99918699e-01 -9.99911189e-01 -9.99910891e-01
      -9.99907017e-01 -9.99908149e-01 -9.99918699e-01 -9.99912143e-01
      -9.99912262e-01 -9.99908030e-01 -9.99908507e-01 -9.99918699e-01
      -9.99911547e-01 -9.99911189e-01 -9.99907017e-01 -9.99907315e-01
      -9.99918640e-01 -9.99911666e-01 -9.99910772e-01 -9.99907732e-01
      -9.99907732e-01 -9.99918699e-01 -9.99911845e-01 -9.99910176e-01
      -9.99907553e-01 -9.99907553e-01 -9.99918699e-01 -9.99911785e-01
      -9.99909580e-01 -9.99908030e-01 -9.99907911e-01 -9.99918699e-01
      -9.99914408e-01 -9.99909818e-01 -9.99911070e-01 -9.99910176e-01
      -9.99918699e-01 -9.99914229e-01 -9.99911070e-01 -9.99912143e-01
      -9.99911606e-01 -9.99918699e-01 -9.99913812e-01 -9.99911785e-01
      -9.99911964e-01 -9.99911308e-01 -9.99918699e-01 -9.99912500e-01
      -9.99911904e-01 -9.99910116e-01 -9.99909461e-01 -9.99918699e-01
      -9.99918461e-01 -9.99237776e-01 -9.99021351e-01 -4.99768734e-01
      -9.99790132e-01 -9.99849379e-01 -9.68729794e-01 1. -9.99175370e-01
      -9.99454975e-01 -9.99731958e-01 -1. -9.99790132e-01</_>
    <_>
      -9.99908507e-01 -9.99908507e-01 -9.99908507e-01 -9.99908507e-01
      -9.85477924e-01 -9.91708875e-01 -9.99908507e-01 -9.99774456e-01
      -9.99908507e-01 -9.99774456e-01 -9.99640465e-01 -9.99905765e-01
      -9.99908507e-01 -9.99908507e-01 -9.99908507e-01 -9.99908507e-01
      -9.99908507e-01 -9.99908507e-01 -9.99908507e-01 -9.99908507e-01
      -9.99908507e-01 -9.99908507e-01 -9.99908507e-01 -9.99908507e-01
      -9.99908507e-01 -9.99908507e-01 -9.99908507e-01 -9.99908328e-01
      -9.99907374e-01 -9.99906361e-01 -9.99902904e-01 -9.99905527e-01
      -9.99908507e-01 -9.99906063e-01 -9.99906778e-01 -9.99905646e-01
      -9.99905825e-01 -9.99908507e-01 -9.99904692e-01 -9.99903202e-01
      -9.99898136e-01 -9.99900758e-01 -9.99908507e-01 -9.99906361e-01
      -9.99905109e-01 -9.99901295e-01 -9.99904990e-01 -9.99908507e-01
      -9.99906480e-01 -9.99907970e-01 -9.99907672e-01 -9.99907732e-01
      -9.99908507e-01 -9.99907553e-01 -9.99907553e-01 -9.99905765e-01
      -9.99907315e-01 -9.99908507e-01 -9.99906898e-01 -9.99904454e-01
      -9.99902487e-01 -9.99903798e-01 -9.99908507e-01 -9.99906301e-01
      -9.99905527e-01 -9.99903440e-01 -9.99901831e-01 -9.99908507e-01
      -9.99907315e-01 -9.99907672e-01 -9.99907613e-01 -9.99907851e-01
      -9.99908507e-01 -9.99905169e-01 -9.99906719e-01 -9.99902427e-01
      -9.99905467e-01 -9.99908507e-01 -9.99906063e-01 -9.99904454e-01
      -9.99899745e-01 -9.99901831e-01 -9.99908507e-01 -9.99906659e-01
      -9.99904454e-01 -9.99903500e-01 -9.99902189e-01 -9.99908507e-01
      -9.99907672e-01 -9.99908447e-01 -9.99907851e-01 -9.99908328e-01
      -9.99908507e-01 -9.99908388e-01 -9.99908388e-01 -9.99908328e-01
      -9.99908328e-01 -9.99908507e-01 -9.99908030e-01 -9.99906600e-01
      -9.99906540e-01 -9.99907970e-01 -9.99908507e-01 -9.99908388e-01
      -9.99905348e-01 -9.99907911e-01 -9.99907613e-01 -9.99908507e-01
      -9.99908209e-01 -9.99400616e-01 -9.98984754e-01 -4.99804318e-01
      -9.99774516e-01 -9.99822795e-01 -9.71032143e-01 1. -9.99120772e-01
      -9.99547064e-01 -9.99724925e-01 -1. -9.99774516e-01</_>
    <_>
      -9.86627936e-01 -9.92888927e-01 -9.86252904e-01 -9.91742074e-01
      -9.77764845e-01 -9.89068091e-01 -9.79531586e-01 -9.99888241e-01
      -9.89036024e-01 -9.99895811e-01 -9.50436413e-01 -9.99890804e-01
      -9.86627936e-01 -9.99193549e-01 -9.96243358e-01 -9.99759316e-01
      -9.98893142e-01 -9.99558568e-01 -9.86252904e-01 -9.98413622e-01
      -9.98056948e-01 -9.99685049e-01 -9.98196125e-01 -9.99415696e-01
      -9.99850750e-01 -9.99835670e-01 -9.99797463e-01 -9.99898076e-01
      -9.99888957e-01 -9.99888897e-01 -9.99880075e-01 -9.99886334e-01
      -9.99898195e-01 -9.99885559e-01 -9.99883711e-01 -9.99881804e-01
      -9.99882340e-01 -9.99898195e-01 -9.99887347e-01 -9.99888062e-01
      -9.99883950e-01 -9.99883413e-01 -9.99898195e-01 -9.99887347e-01
      -9.99886811e-01 -9.99881506e-01 -9.99880135e-01 -9.99898195e-01
      -9.99889970e-01 -9.99884546e-01 -9.99884903e-01 -9.99884605e-01
      -9.99898195e-01 -9.99890208e-01 -9.99884844e-01 -9.99886096e-01
      -9.99884903e-01 -9.99898195e-01 -9.99888420e-01 -9.99887168e-01
      -9.99882519e-01 -9.99883294e-01 -9.99898195e-01 -9.99888718e-01
      -9.99886751e-01 -9.99880433e-01 -9.99880850e-01 -9.99898195e-01
      -9.99894261e-01 -9.99887586e-01 -9.99889791e-01 -9.99886572e-01
      -9.99898195e-01 -9.99891341e-01 -9.99890029e-01 -9.99889433e-01
      -9.99886930e-01 -9.99898195e-01 -9.99887168e-01 -9.99889076e-01
      -9.99877870e-01 -9.99879003e-01 -9.99898195e-01 -9.99888897e-01
      -9.99890506e-01 -9.99878228e-01 -9.99882698e-01 -9.99898195e-01
      -9.99888599e-01 -9.99890983e-01 -9.99889553e-01 -9.99884844e-01
      -9.99898195e-01 -9.99885798e-01 -9.99891281e-01 -9.99886096e-01
      -9.99883235e-01 -9.99898195e-01 -9.99886215e-01 -9.99891281e-01
      -9.99878526e-01 -9.99879599e-01 -9.99898195e-01 -9.99887466e-01
      -9.99891043e-01 -9.99878526e-01 -9.99882877e-01 -9.99898195e-01
      -9.99898076e-01 -9.96658266e-01 -9.98441219e-01 -4.99113619e-01
      -9.99704897e-01 -9.99815881e-01 -9.60322618e-01 1. -9.98776913e-01
      -9.97678757e-01 -9.99522030e-01 -1. -9.99704719e-01</_>
    <_>
      -9.91318285e-01 -9.93698597e-01 -9.86751139e-01 -9.90392089e-01
      -9.89391208e-01 -9.90971267e-01 -9.96415019e-01 -9.99926329e-01
      -9.65440094e-01 -9.99924719e-01 -9.65440094e-01 -9.99924779e-01
      -9.91318285e-01 -9.97627139e-01 -9.98804986e-01 -9.99190927e-01
      -9.99684989e-01 -9.99528229e-01 -9.86751139e-01 -9.97907937e-01
      -9.96642053e-01 -9.99422312e-01 -9.98543918e-01 -9.99288857e-01
      -9.99906242e-01 -9.99897540e-01 -9.99883890e-01 -9.99931753e-01
      -9.99923944e-01 -9.99925971e-01 -9.99919951e-01 -9.99920607e-01
      -9.99931872e-01 -9.99924481e-01 -9.99925852e-01 -9.99920487e-01
      -9.99919295e-01 -9.99931872e-01 -9.99924064e-01 -9.99926329e-01
      -9.99919713e-01 -9.99918163e-01 -9.99931872e-01 -9.99924541e-01
      -9.99927640e-01 -9.99921560e-01 -9.99917924e-01 -9.99931872e-01
      -9.99925017e-01 -9.99925792e-01 -9.99917984e-01 -9.99919236e-01
      -9.99931812e-01 -9.99923944e-01 -9.99925435e-01 -9.99918163e-01
      -9.99918520e-01 -9.99931872e-01 -9.99924183e-01 -9.99925673e-01
      -9.99919593e-01 -9.99917448e-01 -9.99931872e-01 -9.99924719e-01
      -9.99925852e-01 -9.99919593e-01 -9.99917150e-01 -9.99931872e-01
      -9.99926567e-01 -9.99924481e-01 -9.99925852e-01 -9.99923766e-01
      -9.99931872e-01 -9.99926269e-01 -9.99925196e-01 -9.99925315e-01
      -9.99925017e-01 -9.99931872e-01 -9.99924481e-01 -9.99925852e-01
      -9.99920368e-01 -9.99919474e-01 -9.99931872e-01 -9.99924541e-01
      -9.99926746e-01 -9.99920428e-01 -9.99919832e-01 -9.99931872e-01
      -9.99924898e-01 -9.99924123e-01 -9.99921262e-01 -9.99921322e-01
      -9.99931872e-01 -9.99926686e-01 -9.99924600e-01 -9.99922395e-01
      -9.99922752e-01 -9.99931872e-01 -9.99925315e-01 -9.99924123e-01
      -9.99921799e-01 -9.99921799e-01 -9.99931872e-01 -9.99925375e-01
      -9.99924004e-01 -9.99921203e-01 -9.99922276e-01 -9.99931872e-01
      -9.99931574e-01 -9.96373177e-01 -9.98942614e-01 -4.99059170e-01
      -9.99797046e-01 -9.99876201e-01 -9.81380641e-01 1. -9.99178767e-01
      -9.97229636e-01 -9.99661207e-01 -1. -9.99797106e-01</_>
    <_>
      -9.99921143e-01 -9.99921143e-01 -9.99921143e-01 -9.99921143e-01
      -9.84819353e-01 -9.91740823e-01 -9.99921143e-01 -9.99789357e-01
      -9.99921143e-01 -9.99789357e-01 -9.97285724e-01 -9.99919534e-01
      -9.99921143e-01 -9.99921143e-01 -9.99921143e-01 -9.99921143e-01
      -9.99921143e-01 -9.99921143e-01 -9.99921143e-01 -9.99921143e-01
      -9.99921143e-01 -9.99921143e-01 -9.99921143e-01 -9.99921143e-01
      -9.99921143e-01 -9.99921143e-01 -9.99921143e-01 -9.99921024e-01
      -9.99905586e-01 -9.99919832e-01 -9.99919951e-01 -9.99919653e-01
      -9.99921143e-01 -9.99917507e-01 -9.99918997e-01 -9.99920547e-01
      -9.99920785e-01 -9.99921143e-01 -9.99919832e-01 -9.99918342e-01
      -9.99919951e-01 -9.99920666e-01 -9.99921143e-01 -9.99919832e-01
      -9.99918401e-01 -9.99920011e-01 -9.99918640e-01 -9.99921143e-01
      -9.99906600e-01 -9.99919891e-01 -9.99919713e-01 -9.99919534e-01
      -9.99921143e-01 -9.99911308e-01 -9.99915957e-01 -9.99919474e-01
      -9.99919772e-01 -9.99921143e-01 -9.99912918e-01 -9.99915600e-01
      -9.99918759e-01 -9.99920309e-01 -9.99921143e-01 -9.99915540e-01
      -9.99916375e-01 -9.99915838e-01 -9.99920249e-01 -9.99921143e-01
      -9.99913275e-01 -9.99918640e-01 -9.99919415e-01 -9.99918818e-01
      -9.99921143e-01 -9.99913812e-01 -9.99916911e-01 -9.99918580e-01
      -9.99918997e-01 -9.99921143e-01 -9.99914348e-01 -9.99917924e-01
      -9.99918640e-01 -9.99919891e-01 -9.99921143e-01 -9.99910653e-01
      -9.99915540e-01 -9.99914050e-01 -9.99918997e-01 -9.99921143e-01
      -9.99918759e-01 -9.99918461e-01 -9.99920249e-01 -9.99919295e-01
      -9.99921143e-01 -9.99918044e-01 -9.99917686e-01 -9.99919474e-01
      -9.99919116e-01 -9.99921143e-01 -9.99918640e-01 -9.99914825e-01
      -9.99919474e-01 -9.99920189e-01 -9.99921143e-01 -9.99915063e-01
      -9.99915183e-01 -9.99916375e-01 -9.99918818e-01 -9.99921143e-01
      -9.99920905e-01 -9.96120274e-01 -9.98964190e-01 -4.98990506e-01
      -9.99789834e-01 -9.99845326e-01 -9.69731271e-01 1. -9.99147892e-01
      -9.96787965e-01 -9.99689758e-01 -1. -9.99789476e-01</_>
    <_>
      -9.92778361e-01 -9.95783389e-01 -9.92663622e-01 -9.94669795e-01
      -9.88782644e-01 -9.92118537e-01 -9.99948442e-01 -9.99944568e-01
      -9.99948442e-01 -9.99944746e-01 -9.74240303e-01 -9.99939024e-01
      -9.92778361e-01 -9.98872340e-01 -9.98959243e-01 -9.99458611e-01
      -9.99381900e-01 -9.99649763e-01 -9.92663622e-01 -9.99150813e-01
      -9.98600602e-01 -9.98957813e-01 -9.99451101e-01 -9.99307454e-01
      -9.99930203e-01 -9.99925911e-01 -9.99914527e-01 -9.99948323e-01
      -9.99942958e-01 -9.99943435e-01 -9.99939978e-01 -9.99940157e-01
      -9.99948442e-01 -9.99943435e-01 -9.99944687e-01 -9.99940932e-01
      -9.99941766e-01 -9.99948442e-01 -9.99942303e-01 -9.99944210e-01
      -9.99938786e-01 -9.99939203e-01 -9.99948442e-01 -9.99942660e-01
      -9.99944270e-01 -9.99939859e-01 -9.99937773e-01 -9.99948442e-01
      -9.99942899e-01 -9.99945283e-01 -9.99942541e-01 -9.99941766e-01
      -9.99948442e-01 -9.99943137e-01 -9.99944806e-01 -9.99940991e-01
      -9.99941289e-01 -9.99948442e-01 -9.99942422e-01 -9.99943733e-01
      -9.99938846e-01 -9.99939203e-01 -9.99948442e-01 -9.99943733e-01
      -9.99943137e-01 -9.99939620e-01 -9.99938548e-01 -9.99948442e-01
      -9.99944925e-01 -9.99945760e-01 -9.99944210e-01 -9.99939859e-01
      -9.99948442e-01 -9.99943376e-01 -9.99944627e-01 -9.99941289e-01
      -9.99940813e-01 -9.99948442e-01 -9.99943435e-01 -9.99944448e-01
      -9.99940276e-01 -9.99940455e-01 -9.99948442e-01 -9.99943197e-01
      -9.99943912e-01 -9.99939263e-01 -9.99938190e-01 -9.99948442e-01
      -9.99944568e-01 -9.99944985e-01 -9.99943018e-01 -9.99938965e-01
      -9.99948442e-01 -9.99944031e-01 -9.99942362e-01 -9.99940932e-01
      -9.99941349e-01 -9.99948442e-01 -9.99945819e-01 -9.99943435e-01
      -9.99942422e-01 -9.99944329e-01 -9.99948442e-01 -9.99942899e-01
      -9.99943733e-01 -9.99941111e-01 -9.99940932e-01 -9.99948442e-01
      -9.99948204e-01 -9.96125758e-01 -9.99185026e-01 -4.99005705e-01
      -9.99848008e-01 -9.99906778e-01 -9.80036736e-01 1. -9.99367595e-01
      -9.96958137e-01 -9.99738336e-01 -1. -9.99847889e-01</_>
    <_>
      -9.99905825e-01 -9.99905825e-01 -9.99905825e-01 -9.99905825e-01
      -9.88567472e-01 -9.91483212e-01 -9.99905825e-01 -9.99764085e-01
      -9.99905825e-01 -9.99764085e-01 -9.96645331e-01 -9.99901831e-01
      -9.99905825e-01 -9.99905825e-01 -9.99905825e-01 -9.99905825e-01
      -9.99905825e-01 -9.99905825e-01 -9.99905825e-01 -9.99905825e-01
      -9.99905825e-01 -9.99905825e-01 -9.99905825e-01 -9.99905825e-01
      -9.99905825e-01 -9.99905825e-01 -9.99905825e-01 -9.99905705e-01
      -9.99905646e-01 -9.99905348e-01 -9.99903142e-01 -9.99905705e-01
      -9.99905825e-01 -9.99905646e-01 -9.99905646e-01 -9.99902427e-01
      -9.99905825e-01 -9.99905825e-01 -9.99905109e-01 -9.99904990e-01
      -9.99900579e-01 -9.99904275e-01 -9.99905825e-01 -9.99904573e-01
      -9.99903917e-01 -9.99899089e-01 -9.99900937e-01 -9.99905825e-01
      -9.99905765e-01 -9.99905407e-01 -9.99905825e-01 -9.99904394e-01
      -9.99905825e-01 -9.99905467e-01 -9.99903202e-01 -9.99904990e-01
      -9.99903202e-01 -9.99905825e-01 -9.99904931e-01 -9.99903977e-01
      -9.99900579e-01 -9.99903440e-01 -9.99905825e-01 -9.99905527e-01
      -9.99905229e-01 -9.99902427e-01 -9.99904633e-01 -9.99905825e-01
      -9.99903798e-01 -9.99905288e-01 -9.99904096e-01 -9.99903798e-01
      -9.99905825e-01 -9.99904454e-01 -9.99903381e-01 -9.99899387e-01
      -9.99903023e-01 -9.99905825e-01 -9.99903381e-01 -9.99902844e-01
      -9.99895394e-01 -9.99900162e-01 -9.99905825e-01 -9.99903738e-01
      -9.99904573e-01 -9.99901533e-01 -9.99902010e-01 -9.99905825e-01
      -9.99904931e-01 -9.99904573e-01 -9.99902487e-01 -9.99905050e-01
      -9.99905825e-01 -9.99905169e-01 -9.99903679e-01 -9.99902487e-01
      -9.99905169e-01 -9.99905825e-01 -9.99905646e-01 -9.99903917e-01
      -9.99905467e-01 -9.99903440e-01 -9.99905825e-01 -9.99904215e-01
      -9.99904931e-01 -9.99904573e-01 -9.99900997e-01 -9.99905825e-01
      -9.99905288e-01 -9.99430895e-01 -9.98960137e-01 -4.99810696e-01
      -9.99764144e-01 -9.99816179e-01 -9.77242172e-01 1. -9.99103665e-01
      -9.99595582e-01 -9.99705136e-01 -1. -9.99764144e-01</_>
    <_>
      -9.99971926e-01 -9.99971926e-01 -9.99971926e-01 -9.99971926e-01
      -9.92538393e-01 -9.94998276e-01 -9.99971926e-01 -9.99922693e-01
      -9.99971926e-01 -9.99922693e-01 -9.87417221e-01 -9.99952614e-01
      -9.99971926e-01 -9.99971926e-01 -9.99971926e-01 -9.99971926e-01
      -9.99971926e-01 -9.99971926e-01 -9.99971926e-01 -9.99971926e-01
      -9.99971926e-01 -9.99971926e-01 -9.99971926e-01 -9.99971926e-01
      -9.99971926e-01 -9.99971926e-01 -9.99971926e-01 -9.99971807e-01
      -9.99971926e-01 -9.99971926e-01 -9.99971926e-01 -9.99971926e-01
