<?xml version="1.0"?>
<opencv_storage>
<my_svm type_id="opencv-ml-svm">
  <svm_type>C_SVC</svm_type>
  <kernel><type>RBF</type>
    <gamma>5.0625000000000009e-01</gamma></kernel>
  <C>3.1250000000000000e+02</C>
  <term_criteria><epsilon>9.9999999747524271e-07</epsilon>
    <iterations>1000</iterations></term_criteria>
  <var_all>121</var_all>
  <var_count>121</var_count>
  <class_count>2</class_count>
  <class_labels type_id="opencv-matrix">
    <rows>1</rows>
    <cols>2</cols>
    <dt>i</dt>
    <data>
      -1 1</data></class_labels>
  <sv_total>658</sv_total>
  <support_vectors>
    <_>
      -9.89020884e-01 -9.91809905e-01 -9.88253713e-01 -9.86527801e-01
      -9.83680546e-01 -9.90405023e-01 -9.99905765e-01 -9.99898791e-01
      -9.54562783e-01 -9.99894619e-01 -9.77856636e-01 -9.99902368e-01
      -9.89020884e-01 -9.98637497e-01 -9.98784781e-01 -9.98490214e-01
      -9.99648690e-01 -9.99008477e-01 -9.88253713e-01 -9.94651675e-01
      -9.96540546e-01 -9.98426557e-01 -9.96225417e-01 -9.98539209e-01
      -9.99882877e-01 -9.99884725e-01 -9.99868214e-01 -9.99905586e-01
      -9.99893963e-01 -9.99905050e-01 -9.99902129e-01 -9.99901056e-01
      -9.99905765e-01 -9.99894798e-01 -9.99904156e-01 -9.99899626e-01
      -9.99899209e-01 -9.99905765e-01 -9.99897420e-01 -9.99903858e-01
      -9.99902487e-01 -9.99900401e-01 -9.99905765e-01 -9.99895632e-01
      -9.99904633e-01 -9.99899805e-01 -9.99901831e-01 -9.99905765e-01
      -9.99894023e-01 -9.99904633e-01 -9.99901414e-01 -9.99899626e-01
      -9.99905765e-01 -9.99901652e-01 -9.99904990e-01 -9.99903917e-01
      -9.99902368e-01 -9.99905765e-01 -9.99904275e-01 -9.99905109e-01
      -9.99905109e-01 -9.99904931e-01 -9.99905765e-01 -9.99896705e-01
      -9.99905229e-01 -9.99902964e-01 -9.99903619e-01 -9.99905765e-01
      -9.99894083e-01 -9.99905109e-01 -9.99901891e-01 -9.99902487e-01
      -9.99905765e-01 -9.99900937e-01 -9.99904811e-01 -9.99903202e-01
      -9.99902606e-01 -9.99905765e-01 -9.99901056e-01 -9.99904513e-01
      -9.99901295e-01 -9.99901175e-01 -9.99905765e-01 -9.99893129e-01
      -9.99904990e-01 -9.99900877e-01 -9.99899268e-01 -9.99905765e-01
      -9.99895275e-01 -9.99904633e-01 -9.99901533e-01 -9.99901414e-01
      -9.99905765e-01 -9.99895036e-01 -9.99904037e-01 -9.99901652e-01
      -9.99900103e-01 -9.99905765e-01 -9.99892890e-01 -9.99904752e-01
      -9.99900043e-01 -9.99900043e-01 -9.99905765e-01 -9.99890804e-01
      -9.99904990e-01 -9.99900401e-01 -9.99901175e-01 -9.99905765e-01
      -9.99905348e-01 -9.98426318e-01 -9.98688579e-01 -4.99559551e-01
      -9.99728203e-01 -9.99822795e-01 -9.68930900e-01 1. -9.98956680e-01
      -9.99013543e-01 -9.99588847e-01 -1. -9.99728620e-01</_>
    <_>
      -9.76734161e-01 -9.71217632e-01 -9.53925669e-01 -9.80763912e-01
      -9.50163126e-01 -9.79211390e-01 -9.91957963e-01 -9.99540746e-01
      -9.48984385e-01 -9.99600232e-01 -9.44274962e-01 -9.99600530e-01
      -9.76734161e-01 -9.89800096e-01 -9.90942895e-01 -9.97004211e-01
      -9.94812548e-01 -9.99155283e-01 -9.53925669e-01 -9.94066536e-01
      -9.96029913e-01 -9.98949647e-01 -9.97346699e-01 -9.96249199e-01
      -9.99508619e-01 -9.99418437e-01 -9.99377668e-01 -9.99610305e-01
      -9.99607682e-01 -9.99610662e-01 -9.99609351e-01 -9.99609351e-01
      -9.99610782e-01 -9.99595463e-01 -9.99608099e-01 -9.99603927e-01
      -9.99602735e-01 -9.99610782e-01 -9.99609590e-01 -9.99606013e-01
      -9.99607563e-01 -9.99607503e-01 -9.99610782e-01 -9.99608994e-01
      -9.99609590e-01 -9.99608815e-01 -9.99608576e-01 -9.99610782e-01
      -9.99605238e-01 -9.99610424e-01 -9.99608934e-01 -9.99608219e-01
      -9.99610782e-01 -9.99609172e-01 -9.99609590e-01 -9.99610424e-01
      -9.99605834e-01 -9.99610782e-01 -9.99610305e-01 -9.99609470e-01
      -9.99607086e-01 -9.99610603e-01 -9.99610782e-01 -9.99600887e-01
      -9.99608397e-01 -9.99605119e-01 -9.99606788e-01 -9.99610782e-01
      -9.99601245e-01 -9.99609947e-01 -9.99601483e-01 -9.99606431e-01
      -9.99610782e-01 -9.99609530e-01 -9.99609828e-01 -9.99605596e-01
      -9.99609888e-01 -9.99610782e-01 -9.99610364e-01 -9.99608517e-01
      -9.99610186e-01 -9.99610722e-01 -9.99610782e-01 -9.99592543e-01
      -9.99608099e-01 -9.99607980e-01 -9.99603391e-01 -9.99610782e-01
      -9.99608815e-01 -9.99610066e-01 -9.99606729e-01 -9.99608576e-01
      -9.99610782e-01 -9.99607801e-01 -9.99608636e-01 -9.99604940e-01
      -9.99606788e-01 -9.99610782e-01 -9.99604046e-01 -9.99601126e-01
      -9.99600232e-01 -9.99603570e-01 -9.99610782e-01 -9.99605179e-01
      -9.99608517e-01 -9.99606550e-01 -9.99601781e-01 -9.99610782e-01
      -9.99608636e-01 -9.98477817e-01 -9.96026218e-01 -4.99424875e-01
      -9.99022782e-01 -9.99219060e-01 -9.14620459e-01 1. -9.96536016e-01
      -9.98894334e-01 -9.98896062e-01 -1. -9.99022841e-01</_>
    <_>
      -9.92091179e-01 -9.93125141e-01 -9.92097676e-01 -9.88600969e-01
      -9.86627162e-01 -9.90943849e-01 -9.99908745e-01 -9.99882519e-01
      -9.99908745e-01 -9.99884188e-01 -9.99908745e-01 -9.99892175e-01
      -9.92091179e-01 -9.99335647e-01 -9.98355746e-01 -9.99314487e-01
      -9.99709070e-01 -9.99360383e-01 -9.92097676e-01 -9.97175813e-01
      -9.98279393e-01 -9.99426007e-01 -9.97947872e-01 -9.99086976e-01
      -9.99898672e-01 -9.99889970e-01 -9.99884725e-01 -9.99908566e-01
      -9.99904037e-01 -9.99906838e-01 -9.99903917e-01 -9.99901175e-01
      -9.99908745e-01 -9.99905288e-01 -9.99906778e-01 -9.99904037e-01
      -9.99900937e-01 -9.99908745e-01 -9.99904871e-01 -9.99907076e-01
      -9.99903977e-01 -9.99901354e-01 -9.99908745e-01 -9.99906719e-01
      -9.99905467e-01 -9.99903917e-01 -9.99903083e-01 -9.99908745e-01
      -9.99905467e-01 -9.99906480e-01 -9.99903619e-01 -9.99902010e-01
      -9.99908745e-01 -9.99905705e-01 -9.99906659e-01 -9.99904633e-01
      -9.99901652e-01 -9.99908745e-01 -9.99907076e-01 -9.99906898e-01
      -9.99905169e-01 -9.99903738e-01 -9.99908745e-01 -9.99906600e-01
      -9.99907136e-01 -9.99904811e-01 -9.99905705e-01 -9.99908745e-01
      -9.99905944e-01 -9.99907911e-01 -9.99906242e-01 -9.99904335e-01
      -9.99908745e-01 -9.99908745e-01 -9.99908745e-01 -9.99908745e-01
      -9.99908745e-01 -9.99908745e-01 -9.99908626e-01 -9.99907136e-01
      -9.99908268e-01 -9.99908268e-01 -9.99908745e-01 -9.99907494e-01
      -9.99906957e-01 -9.99906659e-01 -9.99904394e-01 -9.99908745e-01
      -9.99905467e-01 -9.99906540e-01 -9.99902427e-01 -9.99902070e-01
      -9.99908745e-01 -9.99906540e-01 -9.99907076e-01 -9.99904454e-01
      -9.99904096e-01 -9.99908745e-01 -9.99905109e-01 -9.99906540e-01
      -9.99903560e-01 -9.99902844e-01 -9.99908745e-01 -9.99905288e-01
      -9.99906123e-01 -9.99903560e-01 -9.99901175e-01 -9.99908745e-01
      -9.99905348e-01 -9.99002337e-01 -9.99000013e-01 -4.99705106e-01
      -9.99753118e-01 -9.99815285e-01 -9.74122405e-01 1. -9.99172926e-01
      -9.99260843e-01 -9.99668717e-01 -1. -9.99753594e-01</_>
    <_>
      -9.88965213e-01 -9.91772115e-01 -9.88217950e-01 -9.86493051e-01
      -9.83674824e-01 -9.90394950e-01 -9.94554698e-01 -9.99876916e-01
      -9.54586327e-01 -9.99872446e-01 -9.78034437e-01 -9.99880433e-01
      -9.88965213e-01 -9.98773217e-01 -9.98633802e-01 -9.98990476e-01
      -9.99581456e-01 -9.98452067e-01 -9.88217950e-01 -9.96516347e-01
      -9.94604230e-01 -9.98496890e-01 -9.98414278e-01 -9.98382449e-01
      -9.99860883e-01 -9.99862790e-01 -9.99846339e-01 -9.99883592e-01
      -9.99881923e-01 -9.99877632e-01 -9.99879062e-01 -9.99879241e-01
      -9.99883771e-01 -9.99882221e-01 -9.99877572e-01 -9.99879777e-01
      -9.99879599e-01 -9.99883771e-01 -9.99882221e-01 -9.99877751e-01
      -9.99877393e-01 -9.99878883e-01 -9.99883771e-01 -9.99882638e-01
      -9.99877334e-01 -9.99878168e-01 -9.99878883e-01 -9.99883771e-01
      -9.99881387e-01 -9.99877870e-01 -9.99878347e-01 -9.99879122e-01
      -9.99883771e-01 -9.99882281e-01 -9.99881923e-01 -9.99881208e-01
      -9.99881446e-01 -9.99883771e-01 -9.99882519e-01 -9.99882400e-01
      -9.99881208e-01 -9.99882519e-01 -9.99883771e-01 -9.99880791e-01
      -9.99878526e-01 -9.99878705e-01 -9.99878466e-01 -9.99883771e-01
      -9.99882221e-01 -9.99876976e-01 -9.99877751e-01 -9.99877334e-01
      -9.99883771e-01 -9.99881148e-01 -9.99881506e-01 -9.99879658e-01
      -9.99880254e-01 -9.99883771e-01 -9.99882638e-01 -9.99882638e-01
      -9.99882817e-01 -9.99882877e-01 -9.99883771e-01 -9.99880373e-01
      -9.99879718e-01 -9.99878347e-01 -9.99881148e-01 -9.99883771e-01
      -9.99882400e-01 -9.99875367e-01 -9.99877870e-01 -9.99878109e-01
      -9.99883771e-01 -9.99882400e-01 -9.99877572e-01 -9.99877036e-01
      -9.99878049e-01 -9.99883771e-01 -9.99882877e-01 -9.99879301e-01
      -9.99880552e-01 -9.99879956e-01 -9.99883771e-01 -9.99881864e-01
      -9.99878287e-01 -9.99879420e-01 -9.99877393e-01 -9.99883771e-01
      -9.99883115e-01 -9.99398768e-01 -9.98770177e-01 -4.99791443e-01
      -9.99706268e-01 -9.99771416e-01 -9.68941212e-01 1. -9.98936474e-01
      -9.99572337e-01 -9.99649584e-01 -1. -9.99706328e-01</_>
    <_>
      -9.83266056e-01 -9.92097676e-01 -9.93489861e-01 -9.94222999e-01
      -9.67441559e-01 -9.87671614e-01 -9.75950778e-01 -9.99845266e-01
      -9.97402966e-01 -9.99849856e-01 -9.69917357e-01 -9.99854743e-01
      -9.83266056e-01 -9.98381615e-01 -9.97901857e-01 -9.99260783e-01
      -9.97964025e-01 -9.98413742e-01 -9.93489861e-01 -9.99385834e-01
      -9.98696446e-01 -9.99247432e-01 -9.99068618e-01 -9.99242663e-01
      -9.99830186e-01 -9.99810576e-01 -9.99787033e-01 -9.99860883e-01
      -9.99859810e-01 -9.99860764e-01 -9.99860048e-01 -9.99860287e-01
      -9.99861002e-01 -9.99856353e-01 -9.99859810e-01 -9.99854624e-01
      -9.99856412e-01 -9.99861002e-01 -9.99858439e-01 -9.99859333e-01
      -9.99858260e-01 -9.99858379e-01 -9.99861002e-01 -9.99859691e-01
      -9.99860704e-01 -9.99860287e-01 -9.99860048e-01 -9.99861002e-01
      -9.99859869e-01 -9.99860704e-01 -9.99860585e-01 -9.99860525e-01
      -9.99861002e-01 -9.99856174e-01 -9.99858975e-01 -9.99858320e-01
      -9.99848723e-01 -9.99861002e-01 -9.99858975e-01 -9.99856114e-01
      -9.99857664e-01 -9.99853253e-01 -9.99861002e-01 -9.99858439e-01
      -9.99860168e-01 -9.99858022e-01 -9.99859393e-01 -9.99861002e-01
      -9.99855936e-01 -9.99860525e-01 -9.99859214e-01 -9.99859452e-01
      -9.99861002e-01 -9.99849021e-01 -9.99859810e-01 -9.99858558e-01
      -9.99855340e-01 -9.99861002e-01 -9.99860168e-01 -9.99860287e-01
      -9.99860525e-01 -9.99859631e-01 -9.99861002e-01 -9.99857366e-01
      -9.99860585e-01 -9.99859333e-01 -9.99857545e-01 -9.99861002e-01
      -9.99860048e-01 -9.99860585e-01 -9.99860406e-01 -9.99860346e-01
      -9.99861002e-01 -9.99858856e-01 -9.99859869e-01 -9.99858677e-01
      -9.99860108e-01 -9.99861002e-01 -9.99860048e-01 -9.99859750e-01
      -9.99859452e-01 -9.99858320e-01 -9.99861002e-01 -9.99859571e-01
      -9.99860764e-01 -9.99860287e-01 -9.99860287e-01 -9.99861002e-01
      -9.99859989e-01 -9.98844326e-01 -9.98483717e-01 -4.99641597e-01
      -9.99637783e-01 -9.99722898e-01 -9.39136028e-01 1. -9.98707771e-01
      -9.99124229e-01 -9.99555230e-01 -1. -9.99638021e-01</_>
    <_>
      -9.75254416e-01 -9.83870506e-01 -9.88541007e-01 -9.89214838e-01
      -9.62488532e-01 -9.84056652e-01 -9.89972532e-01 -9.99757409e-01
      -9.95529890e-01 -9.99752343e-01 -9.67742980e-01 -9.99757290e-01
      -9.75254416e-01 -9.96595323e-01 -9.96984601e-01 -9.98594880e-01
      -9.99066472e-01 -9.98880684e-01 -9.88541007e-01 -9.96652365e-01
      -9.98965442e-01 -9.98585343e-01 -9.98821259e-01 -9.98912394e-01
      -9.99720633e-01 -9.99693930e-01 -9.99649942e-01 -9.99779463e-01
      -9.99779642e-01 -9.99779642e-01 -9.99779642e-01 -9.99779642e-01
      -9.99779642e-01 -9.99779642e-01 -9.99777615e-01 -9.99779284e-01
      -9.99778450e-01 -9.99779642e-01 -9.99779642e-01 -9.99778092e-01
      -9.99779344e-01 -9.99779522e-01 -9.99779642e-01 -9.99779642e-01
      -9.99779642e-01 -9.99779642e-01 -9.99779582e-01 -9.99779642e-01
      -9.99777377e-01 -9.99779642e-01 -9.99778748e-01 -9.99778926e-01
      -9.99779642e-01 -9.99771237e-01 -9.99777794e-01 -9.99773383e-01
      -9.99777019e-01 -9.99779642e-01 -9.99779284e-01 -9.99778330e-01
      -9.99776423e-01 -9.99779582e-01 -9.99779642e-01 -9.99778986e-01
      -9.99779463e-01 -9.99775946e-01 -9.99779522e-01 -9.99779642e-01
      -9.99777079e-01 -9.99777257e-01 -9.99773979e-01 -9.99776900e-01
      -9.99779642e-01 -9.99775589e-01 -9.99777436e-01 -9.99767542e-01
      -9.99778152e-01 -9.99779642e-01 -9.99778986e-01 -9.99774754e-01
      -9.99773264e-01 -9.99779344e-01 -9.99779642e-01 -9.99775290e-01
      -9.99776006e-01 -9.99778152e-01 -9.99777973e-01 -9.99779642e-01
      -9.99779165e-01 -9.99779224e-01 -9.99779403e-01 -9.99777734e-01
      -9.99779642e-01 -9.99779522e-01 -9.99778986e-01 -9.99778688e-01
      -9.99779582e-01 -9.99779642e-01 -9.99779344e-01 -9.99776542e-01
      -9.99777794e-01 -9.99778867e-01 -9.99779642e-01 -9.99779344e-01
      -9.99778867e-01 -9.99779344e-01 -9.99778330e-01 -9.99779642e-01
      -9.99773681e-01 -9.99211967e-01 -9.98074591e-01 -4.99692738e-01
      -9.99452949e-01 -9.99540031e-01 -9.31455791e-01 1. -9.98279393e-01
      -9.99366939e-01 -9.99421954e-01 -1. -9.99453604e-01</_>
    <_>
      -9.91998255e-01 -9.93052006e-01 -9.91855502e-01 -9.88344252e-01
      -9.86626089e-01 -9.90949273e-01 -9.99913275e-01 -9.99887645e-01
      -9.99913275e-01 -9.99889672e-01 -9.99913275e-01 -9.99897122e-01
      -9.91998255e-01 -9.98322070e-01 -9.99334991e-01 -9.99379218e-01
      -9.99032736e-01 -9.99318242e-01 -9.91855502e-01 -9.98193443e-01
      -9.96989787e-01 -9.99147236e-01 -9.98417079e-01 -9.99345362e-01
      -9.99903202e-01 -9.99894500e-01 -9.99889314e-01 -9.99913096e-01
      -9.99908447e-01 -9.99911845e-01 -9.99906659e-01 -9.99907136e-01
      -9.99913275e-01 -9.99911487e-01 -9.99912024e-01 -9.99908507e-01
      -9.99910295e-01 -9.99913275e-01 -9.99908209e-01 -9.99911845e-01
      -9.99906898e-01 -9.99908149e-01 -9.99913275e-01 -9.99909401e-01
      -9.99911368e-01 -9.99905527e-01 -9.99908984e-01 -9.99913275e-01
      -9.99909997e-01 -9.99912381e-01 -9.99909341e-01 -9.99909997e-01
      -9.99913275e-01 -9.99913275e-01 -9.99913275e-01 -9.99913275e-01
      -9.99913275e-01 -9.99913275e-01 -9.99909282e-01 -9.99911785e-01
      -9.99906778e-01 -9.99909043e-01 -9.99913275e-01 -9.99908984e-01
      -9.99911726e-01 -9.99906182e-01 -9.99909163e-01 -9.99913275e-01
      -9.99908626e-01 -9.99911487e-01 -9.99907255e-01 -9.99908090e-01
      -9.99913275e-01 -9.99911010e-01 -9.99913275e-01 -9.99913096e-01
      -9.99913096e-01 -9.99913275e-01 -9.99909759e-01 -9.99912679e-01
      -9.99909341e-01 -9.99909937e-01 -9.99913275e-01 -9.99908924e-01
      -9.99911189e-01 -9.99905288e-01 -9.99908507e-01 -9.99913275e-01
      -9.99908149e-01 -9.99911785e-01 -9.99906123e-01 -9.99908805e-01
      -9.99913275e-01 -9.99909580e-01 -9.99912500e-01 -9.99909341e-01
      -9.99911487e-01 -9.99913275e-01 -9.99909997e-01 -9.99912262e-01
      -9.99910235e-01 -9.99909520e-01 -9.99913275e-01 -9.99906898e-01
      -9.99912500e-01 -9.99908745e-01 -9.99909282e-01 -9.99913275e-01
      -9.99910057e-01 -9.98490274e-01 -9.98985410e-01 -4.99579251e-01
      -9.99757767e-01 -9.99825180e-01 -9.74116802e-01 1. -9.99175787e-01
      -9.98867154e-01 -9.99653816e-01 -1. -9.99758303e-01</_>
    <_>
      -9.40807521e-01 -9.69996929e-01 -9.62320924e-01 -9.60946321e-01
      -9.54787970e-01 -9.81204152e-01 -9.25345123e-01 -9.99515772e-01
      -8.15846622e-01 -9.99524355e-01 -9.41193581e-01 -9.99526262e-01
      -9.40807521e-01 -9.95420814e-01 -9.93512571e-01 -9.97540116e-01
      -9.96010482e-01 -9.95964527e-01 -9.62320924e-01 -9.87599730e-01
      -9.94137585e-01 -9.96091902e-01 -9.92694020e-01 -9.90777612e-01
      -9.99410272e-01 -9.99345243e-01 -9.99291778e-01 -9.99544203e-01
      -9.99534070e-01 -9.99539256e-01 -9.99532223e-01 -9.99537587e-01
      -9.99544799e-01 -9.99536216e-01 -9.99538660e-01 -9.99535918e-01
      -9.99532163e-01 -9.99544799e-01 -9.99532819e-01 -9.99540150e-01
      -9.99537826e-01 -9.99537408e-01 -9.99544799e-01 -9.99537706e-01
      -9.99535739e-01 -9.99535620e-01 -9.99528348e-01 -9.99544799e-01
      -9.99534786e-01 -9.99537766e-01 -9.99533534e-01 -9.99530017e-01
      -9.99544799e-01 -9.99538660e-01 -9.99542654e-01 -9.99541223e-01
      -9.99535322e-01 -9.99544799e-01 -9.99541521e-01 -9.99540985e-01
      -9.99539196e-01 -9.99534011e-01 -9.99544799e-01 -9.99536633e-01
      -9.99540806e-01 -9.99539435e-01 -9.99538004e-01 -9.99544799e-01
      -9.99532402e-01 -9.99540329e-01 -9.99533057e-01 -9.99530613e-01
      -9.99544799e-01 -9.99538243e-01 -9.99542713e-01 -9.99540329e-01
      -9.99538481e-01 -9.99544799e-01 -9.99543667e-01 -9.99543548e-01
      -9.99541700e-01 -9.99543846e-01 -9.99544799e-01 -9.99536395e-01
      -9.99543548e-01 -9.99542356e-01 -9.99538481e-01 -9.99544799e-01
      -9.99531925e-01 -9.99539137e-01 -9.99531627e-01 -9.99526441e-01
      -9.99544799e-01 -9.99534965e-01 -9.99538779e-01 -9.99529064e-01
      -9.99533713e-01 -9.99544799e-01 -9.99537230e-01 -9.99539137e-01
      -9.99534130e-01 -9.99537289e-01 -9.99544799e-01 -9.99532402e-01
      -9.99540567e-01 -9.99536693e-01 -9.99530554e-01 -9.99544799e-01
      -9.99540627e-01 -9.97783899e-01 -9.95309949e-01 -4.99218047e-01
      -9.98825669e-01 -9.99071538e-01 -9.16274071e-01 1. -9.95968163e-01
      -9.98381495e-01 -9.98623073e-01 -1. -9.98825967e-01</_>
    <_>
      -9.92091179e-01 -9.93125141e-01 -9.92097676e-01 -9.88600969e-01
      -9.86627162e-01 -9.90943849e-01 -9.99908745e-01 -9.99882519e-01
      -9.99908745e-01 -9.99884188e-01 -9.99908745e-01 -9.99892175e-01
      -9.92091179e-01 -9.99335647e-01 -9.98355746e-01 -9.99314487e-01
      -9.99709070e-01 -9.99360383e-01 -9.92097676e-01 -9.97175813e-01
      -9.98279393e-01 -9.99426007e-01 -9.97947872e-01 -9.99086976e-01
      -9.99898672e-01 -9.99889970e-01 -9.99884725e-01 -9.99908566e-01
      -9.99904037e-01 -9.99906838e-01 -9.99903917e-01 -9.99901175e-01
      -9.99908745e-01 -9.99905288e-01 -9.99906778e-01 -9.99904037e-01
      -9.99900937e-01 -9.99908745e-01 -9.99904871e-01 -9.99907076e-01
      -9.99903977e-01 -9.99901354e-01 -9.99908745e-01 -9.99906719e-01
      -9.99905467e-01 -9.99903917e-01 -9.99903083e-01 -9.99908745e-01
      -9.99905467e-01 -9.99906480e-01 -9.99903619e-01 -9.99902010e-01
      -9.99908745e-01 -9.99905705e-01 -9.99906659e-01 -9.99904633e-01
      -9.99901652e-01 -9.99908745e-01 -9.99907076e-01 -9.99906898e-01
      -9.99905169e-01 -9.99903738e-01 -9.99908745e-01 -9.99906600e-01
      -9.99907136e-01 -9.99904811e-01 -9.99905705e-01 -9.99908745e-01
      -9.99905944e-01 -9.99907911e-01 -9.99906242e-01 -9.99904335e-01
      -9.99908745e-01 -9.99908745e-01 -9.99908745e-01 -9.99908745e-01
      -9.99908745e-01 -9.99908745e-01 -9.99908626e-01 -9.99907136e-01
      -9.99908268e-01 -9.99908268e-01 -9.99908745e-01 -9.99907494e-01
      -9.99906957e-01 -9.99906659e-01 -9.99904394e-01 -9.99908745e-01
      -9.99905467e-01 -9.99906540e-01 -9.99902427e-01 -9.99902070e-01
      -9.99908745e-01 -9.99906540e-01 -9.99907076e-01 -9.99904454e-01
      -9.99904096e-01 -9.99908745e-01 -9.99905109e-01 -9.99906540e-01
      -9.99903560e-01 -9.99902844e-01 -9.99908745e-01 -9.99905288e-01
      -9.99906123e-01 -9.99903560e-01 -9.99901175e-01 -9.99908745e-01
      -9.99905348e-01 -9.99002337e-01 -9.99000013e-01 -4.99705106e-01
      -9.99753118e-01 -9.99815285e-01 -9.74122405e-01 1. -9.99172926e-01
      -9.99260843e-01 -9.99668717e-01 -1. -9.99753594e-01</_>
    <_>
      -9.83228624e-01 -9.92096961e-01 -9.93464768e-01 -9.94221509e-01
      -9.67408657e-01 -9.87659574e-01 -9.75927114e-01 -9.99842227e-01
      -9.97397661e-01 -9.99846876e-01 -9.69888508e-01 -9.99851525e-01
      -9.83228624e-01 -9.97907698e-01 -9.98380065e-01 -9.98424888e-01
      -9.99360263e-01 -9.99282420e-01 -9.93464768e-01 -9.98692274e-01
      -9.99381959e-01 -9.99236941e-01 -9.99204338e-01 -9.99247491e-01
      -9.99826968e-01 -9.99807298e-01 -9.99783754e-01 -9.99857664e-01
      -9.99857426e-01 -9.99857426e-01 -9.99857545e-01 -9.99857247e-01
      -9.99857843e-01 -9.99855459e-01 -9.99856412e-01 -9.99855697e-01
      -9.99854207e-01 -9.99857843e-01 -9.99857068e-01 -9.99856412e-01
      -9.99854386e-01 -9.99856234e-01 -9.99857843e-01 -9.99857306e-01
      -9.99857485e-01 -9.99857128e-01 -9.99857068e-01 -9.99857843e-01
      -9.99854326e-01 -9.99856889e-01 -9.99854803e-01 -9.99855578e-01
      -9.99857843e-01 -9.99847829e-01 -9.99857187e-01 -9.99851525e-01
      -9.99855399e-01 -9.99857843e-01 -9.99857008e-01 -9.99857247e-01
      -9.99856591e-01 -9.99857366e-01 -9.99857843e-01 -9.99854565e-01
      -9.99856830e-01 -9.99854922e-01 -9.99856114e-01 -9.99857843e-01
      -9.99854863e-01 -9.99855518e-01 -9.99853432e-01 -9.99851465e-01
      -9.99857843e-01 -9.99851525e-01 -9.99855816e-01 -9.99845922e-01
      -9.99854624e-01 -9.99857843e-01 -9.99855280e-01 -9.99851584e-01
      -9.99850452e-01 -9.99854863e-01 -9.99857843e-01 -9.99856591e-01
      -9.99856949e-01 -9.99857068e-01 -9.99855638e-01 -9.99857843e-01
      -9.99857247e-01 -9.99857426e-01 -9.99857128e-01 -9.99856770e-01
      -9.99857843e-01 -9.99857247e-01 -9.99857306e-01 -9.99857187e-01
      -9.99857485e-01 -9.99857843e-01 -9.99857187e-01 -9.99854982e-01
      -9.99855697e-01 -9.99856234e-01 -9.99857843e-01 -9.99857068e-01
      -9.99857426e-01 -9.99857068e-01 -9.99857366e-01 -9.99857843e-01
      -9.99856710e-01 -9.99003470e-01 -9.98493195e-01 -4.99679565e-01
      -9.99634385e-01 -9.99715090e-01 -9.39072251e-01 1. -9.98704255e-01
      -9.99247491e-01 -9.99557793e-01 -1. -9.99634564e-01</_>
    <_>
      -9.95261014e-01 -9.96630907e-01 -9.74135101e-01 -9.85837579e-01
      -9.80225086e-01 -9.88909245e-01 -9.95278835e-01 -9.99842048e-01
      -9.46645200e-01 -9.99852002e-01 -9.99870896e-01 -9.99866605e-01
      -9.95261014e-01 -9.99655485e-01 -9.99817371e-01 -9.99678731e-01
      -9.99710381e-01 -9.99694586e-01 -9.74135101e-01 -9.96330023e-01
      -9.95422065e-01 -9.98824358e-01 -9.97669816e-01 -9.99623239e-01
      -9.99849498e-01 -9.99833167e-01 -9.99824762e-01 -9.99870658e-01
      -9.99867678e-01 -9.99865592e-01 -9.99865294e-01 -9.99866903e-01
      -9.99870896e-01 -9.99869049e-01 -9.99864519e-01 -9.99866843e-01
      -9.99864340e-01 -9.99870896e-01 -9.99869227e-01 -9.99863744e-01
      -9.99865711e-01 -9.99866843e-01 -9.99870896e-01 -9.99868155e-01
      -9.99866545e-01 -9.99864876e-01 -9.99866605e-01 -9.99870896e-01
      -9.99868155e-01 -9.99866426e-01 -9.99866188e-01 -9.99865949e-01
      -9.99870896e-01 -9.99869883e-01 -9.99868691e-01 -9.99869168e-01
      -9.99869525e-01 -9.99870896e-01 -9.99870121e-01 -9.99869049e-01
      -9.99868512e-01 -9.99868929e-01 -9.99870896e-01 -9.99867976e-01
      -9.99865115e-01 -9.99866486e-01 -9.99865353e-01 -9.99870896e-01
      -9.99867558e-01 -9.99867201e-01 -9.99862373e-01 -9.99867201e-01
      -9.99870896e-01 -9.99868929e-01 -9.99868274e-01 -9.99867976e-01
      -9.99868512e-01 -9.99870896e-01 -9.99870300e-01 -9.99869704e-01
      -9.99869585e-01 -9.99869585e-01 -9.99870896e-01 -9.99867320e-01
      -9.99866247e-01 -9.99864936e-01 -9.99864221e-01 -9.99870896e-01
      -9.99868274e-01 -9.99864638e-01 -9.99863327e-01 -9.99864995e-01
      -9.99870896e-01 -9.99868751e-01 -9.99866426e-01 -9.99864638e-01
      -9.99865651e-01 -9.99870896e-01 -9.99868870e-01 -9.99867380e-01
      -9.99867439e-01 -9.99867082e-01 -9.99870896e-01 -9.99868989e-01
      -9.99865472e-01 -9.99864399e-01 -9.99865711e-01 -9.99870896e-01
      -9.99870062e-01 -9.98857975e-01 -9.98555660e-01 -4.99649853e-01
      -9.99662340e-01 -9.99741495e-01 -9.64924634e-01 1. -9.98779595e-01
      -9.99141276e-01 -9.99571621e-01 -1. -9.99662519e-01</_>
    <_>
      -9.91998255e-01 -9.93052006e-01 -9.91855502e-01 -9.88344252e-01
      -9.86626089e-01 -9.90949273e-01 -9.99913275e-01 -9.99887645e-01
      -9.99913275e-01 -9.99889672e-01 -9.99913275e-01 -9.99897122e-01
      -9.91998255e-01 -9.98322070e-01 -9.99334991e-01 -9.99379218e-01
      -9.99032736e-01 -9.99318242e-01 -9.91855502e-01 -9.98193443e-01
      -9.96989787e-01 -9.99147236e-01 -9.98417079e-01 -9.99345362e-01
      -9.99903202e-01 -9.99894500e-01 -9.99889314e-01 -9.99913096e-01
      -9.99908447e-01 -9.99911845e-01 -9.99906659e-01 -9.99907136e-01
      -9.99913275e-01 -9.99911487e-01 -9.99912024e-01 -9.99908507e-01
      -9.99910295e-01 -9.99913275e-01 -9.99908209e-01 -9.99911845e-01
      -9.99906898e-01 -9.99908149e-01 -9.99913275e-01 -9.99909401e-01
      -9.99911368e-01 -9.99905527e-01 -9.99908984e-01 -9.99913275e-01
      -9.99909997e-01 -9.99912381e-01 -9.99909341e-01 -9.99909997e-01
      -9.99913275e-01 -9.99913275e-01 -9.99913275e-01 -9.99913275e-01
      -9.99913275e-01 -9.99913275e-01 -9.99909282e-01 -9.99911785e-01
      -9.99906778e-01 -9.99909043e-01 -9.99913275e-01 -9.99908984e-01
      -9.99911726e-01 -9.99906182e-01 -9.99909163e-01 -9.99913275e-01
      -9.99908626e-01 -9.99911487e-01 -9.99907255e-01 -9.99908090e-01
      -9.99913275e-01 -9.99911010e-01 -9.99913275e-01 -9.99913096e-01
      -9.99913096e-01 -9.99913275e-01 -9.99909759e-01 -9.99912679e-01
      -9.99909341e-01 -9.99909937e-01 -9.99913275e-01 -9.99908924e-01
      -9.99911189e-01 -9.99905288e-01 -9.99908507e-01 -9.99913275e-01
      -9.99908149e-01 -9.99911785e-01 -9.99906123e-01 -9.99908805e-01
      -9.99913275e-01 -9.99909580e-01 -9.99912500e-01 -9.99909341e-01
      -9.99911487e-01 -9.99913275e-01 -9.99909997e-01 -9.99912262e-01
      -9.99910235e-01 -9.99909520e-01 -9.99913275e-01 -9.99906898e-01
      -9.99912500e-01 -9.99908745e-01 -9.99909282e-01 -9.99913275e-01
      -9.99910057e-01 -9.98490274e-01 -9.98985410e-01 -4.99579251e-01
      -9.99757767e-01 -9.99825180e-01 -9.74116802e-01 1. -9.99175787e-01
      -9.98867154e-01 -9.99653816e-01 -1. -9.99758303e-01</_>
    <_>
      -9.92091179e-01 -9.93125141e-01 -9.92097676e-01 -9.88600969e-01
      -9.86627162e-01 -9.90943849e-01 -9.99908745e-01 -9.99882519e-01
      -9.99908745e-01 -9.99884188e-01 -9.99908745e-01 -9.99892175e-01
      -9.92091179e-01 -9.99335647e-01 -9.98355746e-01 -9.99314487e-01
      -9.99709070e-01 -9.99360383e-01 -9.92097676e-01 -9.97175813e-01
      -9.98279393e-01 -9.99426007e-01 -9.97947872e-01 -9.99086976e-01
      -9.99898672e-01 -9.99889970e-01 -9.99884725e-01 -9.99908566e-01
      -9.99904037e-01 -9.99906838e-01 -9.99903917e-01 -9.99901175e-01
      -9.99908745e-01 -9.99905288e-01 -9.99906778e-01 -9.99904037e-01
      -9.99900937e-01 -9.99908745e-01 -9.99904871e-01 -9.99907076e-01
      -9.99903977e-01 -9.99901354e-01 -9.99908745e-01 -9.99906719e-01
      -9.99905467e-01 -9.99903917e-01 -9.99903083e-01 -9.99908745e-01
      -9.99905467e-01 -9.99906480e-01 -9.99903619e-01 -9.99902010e-01
      -9.99908745e-01 -9.99905705e-01 -9.99906659e-01 -9.99904633e-01
      -9.99901652e-01 -9.99908745e-01 -9.99907076e-01 -9.99906898e-01
      -9.99905169e-01 -9.99903738e-01 -9.99908745e-01 -9.99906600e-01
      -9.99907136e-01 -9.99904811e-01 -9.99905705e-01 -9.99908745e-01
      -9.99905944e-01 -9.99907911e-01 -9.99906242e-01 -9.99904335e-01
      -9.99908745e-01 -9.99908745e-01 -9.99908745e-01 -9.99908745e-01
      -9.99908745e-01 -9.99908745e-01 -9.99908626e-01 -9.99907136e-01
      -9.99908268e-01 -9.99908268e-01 -9.99908745e-01 -9.99907494e-01
      -9.99906957e-01 -9.99906659e-01 -9.99904394e-01 -9.99908745e-01
      -9.99905467e-01 -9.99906540e-01 -9.99902427e-01 -9.99902070e-01
      -9.99908745e-01 -9.99906540e-01 -9.99907076e-01 -9.99904454e-01
      -9.99904096e-01 -9.99908745e-01 -9.99905109e-01 -9.99906540e-01
      -9.99903560e-01 -9.99902844e-01 -9.99908745e-01 -9.99905288e-01
      -9.99906123e-01 -9.99903560e-01 -9.99901175e-01 -9.99908745e-01
      -9.99905348e-01 -9.99002337e-01 -9.99000013e-01 -4.99705106e-01
      -9.99753118e-01 -9.99815285e-01 -9.74122405e-01 1. -9.99172926e-01
      -9.99260843e-01 -9.99668717e-01 -1. -9.99753594e-01</_>
    <_>
      -9.93709445e-01 -9.96449232e-01 -9.97179508e-01 -9.94782686e-01
      -9.87137496e-01 -9.93188620e-01 -9.99937892e-01 -9.99927044e-01
      -9.99937892e-01 -9.99927223e-01 -9.99937892e-01 -9.99929488e-01
      -9.93709445e-01 -9.99223471e-01 -9.98917222e-01 -9.99471486e-01
      -9.99644816e-01 -9.99614239e-01 -9.97179508e-01 -9.99049485e-01
      -9.99071062e-01 -9.99612629e-01 -9.99724925e-01 -9.99670982e-01
      -9.99931037e-01 -9.99931812e-01 -9.99926865e-01 -9.99937773e-01
      -9.99937415e-01 -9.99936998e-01 -9.99937057e-01 -9.99937057e-01
      -9.99937892e-01 -9.99937713e-01 -9.99936402e-01 -9.99937415e-01
      -9.99936759e-01 -9.99937892e-01 -9.99937654e-01 -9.99937117e-01
      -9.99937057e-01 -9.99937534e-01 -9.99937892e-01 -9.99937832e-01
      -9.99937713e-01 -9.99937654e-01 -9.99937654e-01 -9.99937892e-01
      -9.99936879e-01 -9.99936342e-01 -9.99936342e-01 -9.99936640e-01
      -9.99937892e-01 -9.99937236e-01 -9.99937117e-01 -9.99936104e-01
      -9.99936879e-01 -9.99937892e-01 -9.99936581e-01 -9.99937594e-01
      -9.99936759e-01 -9.99937415e-01 -9.99937892e-01 -9.99936938e-01
      -9.99937773e-01 -9.99936998e-01 -9.99937177e-01 -9.99937892e-01
      -9.99937713e-01 -9.99936879e-01 -9.99937177e-01 -9.99937236e-01
      -9.99937892e-01 -9.99937475e-01 -9.99937713e-01 -9.99936879e-01
      -9.99937236e-01 -9.99937892e-01 -9.99937415e-01 -9.99937713e-01
      -9.99937594e-01 -9.99937415e-01 -9.99937892e-01 -9.99937117e-01
      -9.99937415e-01 -9.99936700e-01 -9.99936283e-01 -9.99937892e-01
      -9.99937892e-01 -9.99937892e-01 -9.99937892e-01 -9.99937892e-01
      -9.99937892e-01 -9.99937832e-01 -9.99937773e-01 -9.99937832e-01
      -9.99937773e-01 -9.99937892e-01 -9.99937832e-01 -9.99937057e-01
      -9.99937415e-01 -9.99937475e-01 -9.99937892e-01 -9.99937773e-01
      -9.99937713e-01 -9.99937713e-01 -9.99937534e-01 -9.99937892e-01
      -9.99936461e-01 -9.99453247e-01 -9.99431193e-01 -4.99832183e-01
      -9.99848068e-01 -9.99873400e-01 -9.74963188e-01 1. -9.99495327e-01
      -9.99527812e-01 -9.99830425e-01 -1. -9.99848127e-01</_>
    <_>
      -9.89500701e-01 -9.95312214e-01 -9.76132154e-01 -9.92355943e-01
      -9.67036366e-01 -9.88335013e-01 -9.92380083e-01 -9.99838710e-01
      -9.76398528e-01 -9.99867082e-01 -9.61415827e-01 -9.99864221e-01
      -9.89500701e-01 -9.98556018e-01 -9.98240411e-01 -9.99719977e-01
      -9.99160528e-01 -9.99525905e-01 -9.76132154e-01 -9.98983979e-01
      -9.99041557e-01 -9.99477863e-01 -9.98969555e-01 -9.99101460e-01
      -9.99812901e-01 -9.99747097e-01 -9.99696672e-01 -9.99871254e-01
      -9.99863446e-01 -9.99869704e-01 -9.99866724e-01 -9.99863982e-01
      -9.99871433e-01 -9.99862671e-01 -9.99869764e-01 -9.99866962e-01
      -9.99862969e-01 -9.99871433e-01 -9.99864578e-01 -9.99867618e-01
      -9.99863982e-01 -9.99863625e-01 -9.99871433e-01 -9.99866188e-01
      -9.99870002e-01 -9.99865592e-01 -9.99864519e-01 -9.99871433e-01
      -9.99864817e-01 -9.99870360e-01 -9.99867737e-01 -9.99860704e-01
      -9.99871433e-01 -9.99865651e-01 -9.99870121e-01 -9.99867260e-01
      -9.99867976e-01 -9.99871433e-01 -9.99869466e-01 -9.99869406e-01
      -9.99866307e-01 -9.99868333e-01 -9.99871433e-01 -9.99863565e-01
      -9.99869943e-01 -9.99868631e-01 -9.99868274e-01 -9.99871433e-01
      -9.99865413e-01 -9.99870121e-01 -9.99866426e-01 -9.99865353e-01
      -9.99871433e-01 -9.99863803e-01 -9.99870360e-01 -9.99865413e-01
      -9.99868274e-01 -9.99871433e-01 -9.99869287e-01 -9.99870777e-01
      -9.99867916e-01 -9.99869704e-01 -9.99871433e-01 -9.99860287e-01
      -9.99870062e-01 -9.99867022e-01 -9.99865711e-01 -9.99871433e-01
      -9.99859869e-01 -9.99870002e-01 -9.99863625e-01 -9.99859214e-01
      -9.99871433e-01 -9.99858320e-01 -9.99869764e-01 -9.99862552e-01
      -9.99861538e-01 -9.99871433e-01 -9.99861777e-01 -9.99869466e-01
      -9.99864638e-01 -9.99860704e-01 -9.99871433e-01 -9.99861956e-01
      -9.99869823e-01 -9.99864995e-01 -9.99857903e-01 -9.99871433e-01
      -9.99870896e-01 -9.96601403e-01 -9.98132110e-01 -4.99085933e-01
      -9.99622524e-01 -9.99752283e-01 -9.38272059e-01 1. -9.98528183e-01
      -9.97638762e-01 -9.99406219e-01 -1. -9.99622703e-01</_>
    <_>
      -9.75254416e-01 -9.83870506e-01 -9.88541007e-01 -9.89214838e-01
      -9.62488532e-01 -9.84056652e-01 -9.89972532e-01 -9.99757409e-01
      -9.95529890e-01 -9.99752343e-01 -9.67742980e-01 -9.99757290e-01
      -9.75254416e-01 -9.96595323e-01 -9.96984601e-01 -9.98594880e-01
      -9.99066472e-01 -9.98880684e-01 -9.88541007e-01 -9.96652365e-01
      -9.98965442e-01 -9.98585343e-01 -9.98821259e-01 -9.98912394e-01
      -9.99720633e-01 -9.99693930e-01 -9.99649942e-01 -9.99779463e-01
      -9.99779642e-01 -9.99779642e-01 -9.99779642e-01 -9.99779642e-01
      -9.99779642e-01 -9.99779642e-01 -9.99777615e-01 -9.99779284e-01
      -9.99778450e-01 -9.99779642e-01 -9.99779642e-01 -9.99778092e-01
      -9.99779344e-01 -9.99779522e-01 -9.99779642e-01 -9.99779642e-01
      -9.99779642e-01 -9.99779642e-01 -9.99779582e-01 -9.99779642e-01
      -9.99777377e-01 -9.99779642e-01 -9.99778748e-01 -9.99778926e-01
      -9.99779642e-01 -9.99771237e-01 -9.99777794e-01 -9.99773383e-01
      -9.99777019e-01 -9.99779642e-01 -9.99779284e-01 -9.99778330e-01
      -9.99776423e-01 -9.99779582e-01 -9.99779642e-01 -9.99778986e-01
      -9.99779463e-01 -9.99775946e-01 -9.99779522e-01 -9.99779642e-01
      -9.99777079e-01 -9.99777257e-01 -9.99773979e-01 -9.99776900e-01
      -9.99779642e-01 -9.99775589e-01 -9.99777436e-01 -9.99767542e-01
      -9.99778152e-01 -9.99779642e-01 -9.99778986e-01 -9.99774754e-01
      -9.99773264e-01 -9.99779344e-01 -9.99779642e-01 -9.99775290e-01
      -9.99776006e-01 -9.99778152e-01 -9.99777973e-01 -9.99779642e-01
      -9.99779165e-01 -9.99779224e-01 -9.99779403e-01 -9.99777734e-01
      -9.99779642e-01 -9.99779522e-01 -9.99778986e-01 -9.99778688e-01
      -9.99779582e-01 -9.99779642e-01 -9.99779344e-01 -9.99776542e-01
      -9.99777794e-01 -9.99778867e-01 -9.99779642e-01 -9.99779344e-01
      -9.99778867e-01 -9.99779344e-01 -9.99778330e-01 -9.99779642e-01
      -9.99773681e-01 -9.99211967e-01 -9.98074591e-01 -4.99692738e-01
      -9.99452949e-01 -9.99540031e-01 -9.31455791e-01 1. -9.98279393e-01
      -9.99366939e-01 -9.99421954e-01 -1. -9.99453604e-01</_>
    <_>
      -9.83228624e-01 -9.92096961e-01 -9.93464768e-01 -9.94221509e-01
      -9.67408657e-01 -9.87659574e-01 -9.75927114e-01 -9.99842227e-01
      -9.97397661e-01 -9.99846876e-01 -9.69888508e-01 -9.99851525e-01
      -9.83228624e-01 -9.97907698e-01 -9.98380065e-01 -9.98424888e-01
      -9.99360263e-01 -9.99282420e-01 -9.93464768e-01 -9.98692274e-01
      -9.99381959e-01 -9.99236941e-01 -9.99204338e-01 -9.99247491e-01
      -9.99826968e-01 -9.99807298e-01 -9.99783754e-01 -9.99857664e-01
      -9.99857426e-01 -9.99857426e-01 -9.99857545e-01 -9.99857247e-01
      -9.99857843e-01 -9.99855459e-01 -9.99856412e-01 -9.99855697e-01
      -9.99854207e-01 -9.99857843e-01 -9.99857068e-01 -9.99856412e-01
      -9.99854386e-01 -9.99856234e-01 -9.99857843e-01 -9.99857306e-01
      -9.99857485e-01 -9.99857128e-01 -9.99857068e-01 -9.99857843e-01
      -9.99854326e-01 -9.99856889e-01 -9.99854803e-01 -9.99855578e-01
      -9.99857843e-01 -9.99847829e-01 -9.99857187e-01 -9.99851525e-01
      -9.99855399e-01 -9.99857843e-01 -9.99857008e-01 -9.99857247e-01
      -9.99856591e-01 -9.99857366e-01 -9.99857843e-01 -9.99854565e-01
      -9.99856830e-01 -9.99854922e-01 -9.99856114e-01 -9.99857843e-01
      -9.99854863e-01 -9.99855518e-01 -9.99853432e-01 -9.99851465e-01
      -9.99857843e-01 -9.99851525e-01 -9.99855816e-01 -9.99845922e-01
      -9.99854624e-01 -9.99857843e-01 -9.99855280e-01 -9.99851584e-01
      -9.99850452e-01 -9.99854863e-01 -9.99857843e-01 -9.99856591e-01
      -9.99856949e-01 -9.99857068e-01 -9.99855638e-01 -9.99857843e-01
      -9.99857247e-01 -9.99857426e-01 -9.99857128e-01 -9.99856770e-01
      -9.99857843e-01 -9.99857247e-01 -9.99857306e-01 -9.99857187e-01
      -9.99857485e-01 -9.99857843e-01 -9.99857187e-01 -9.99854982e-01
      -9.99855697e-01 -9.99856234e-01 -9.99857843e-01 -9.99857068e-01
      -9.99857426e-01 -9.99857068e-01 -9.99857366e-01 -9.99857843e-01
      -9.99856710e-01 -9.99003470e-01 -9.98493195e-01 -4.99679565e-01
      -9.99634385e-01 -9.99715090e-01 -9.39072251e-01 1. -9.98704255e-01
      -9.99247491e-01 -9.99557793e-01 -1. -9.99634564e-01</_>
    <_>
      -9.91998255e-01 -9.93052006e-01 -9.91855502e-01 -9.88344252e-01
      -9.86626089e-01 -9.90949273e-01 -9.99913275e-01 -9.99887645e-01
      -9.99913275e-01 -9.99889672e-01 -9.99913275e-01 -9.99897122e-01
      -9.91998255e-01 -9.98322070e-01 -9.99334991e-01 -9.99379218e-01
      -9.99032736e-01 -9.99318242e-01 -9.91855502e-01 -9.98193443e-01
      -9.96989787e-01 -9.99147236e-01 -9.98417079e-01 -9.99345362e-01
      -9.99903202e-01 -9.99894500e-01 -9.99889314e-01 -9.99913096e-01
      -9.99908447e-01 -9.99911845e-01 -9.99906659e-01 -9.99907136e-01
      -9.99913275e-01 -9.99911487e-01 -9.99912024e-01 -9.99908507e-01
      -9.99910295e-01 -9.99913275e-01 -9.99908209e-01 -9.99911845e-01
      -9.99906898e-01 -9.99908149e-01 -9.99913275e-01 -9.99909401e-01
      -9.99911368e-01 -9.99905527e-01 -9.99908984e-01 -9.99913275e-01
      -9.99909997e-01 -9.99912381e-01 -9.99909341e-01 -9.99909997e-01
      -9.99913275e-01 -9.99913275e-01 -9.99913275e-01 -9.99913275e-01
      -9.99913275e-01 -9.99913275e-01 -9.99909282e-01 -9.99911785e-01
      -9.99906778e-01 -9.99909043e-01 -9.99913275e-01 -9.99908984e-01
      -9.99911726e-01 -9.99906182e-01 -9.99909163e-01 -9.99913275e-01
      -9.99908626e-01 -9.99911487e-01 -9.99907255e-01 -9.99908090e-01
      -9.99913275e-01 -9.99911010e-01 -9.99913275e-01 -9.99913096e-01
      -9.99913096e-01 -9.99913275e-01 -9.99909759e-01 -9.99912679e-01
      -9.99909341e-01 -9.99909937e-01 -9.99913275e-01 -9.99908924e-01
      -9.99911189e-01 -9.99905288e-01 -9.99908507e-01 -9.99913275e-01
      -9.99908149e-01 -9.99911785e-01 -9.99906123e-01 -9.99908805e-01
      -9.99913275e-01 -9.99909580e-01 -9.99912500e-01 -9.99909341e-01
      -9.99911487e-01 -9.99913275e-01 -9.99909997e-01 -9.99912262e-01
      -9.99910235e-01 -9.99909520e-01 -9.99913275e-01 -9.99906898e-01
      -9.99912500e-01 -9.99908745e-01 -9.99909282e-01 -9.99913275e-01
      -9.99910057e-01 -9.98490274e-01 -9.98985410e-01 -4.99579251e-01
      -9.99757767e-01 -9.99825180e-01 -9.74116802e-01 1. -9.99175787e-01
      -9.98867154e-01 -9.99653816e-01 -1. -9.99758303e-01</_>
    <_>
      -9.92091179e-01 -9.93125141e-01 -9.92097676e-01 -9.88600969e-01
      -9.86627162e-01 -9.90943849e-01 -9.99908745e-01 -9.99882519e-01
      -9.99908745e-01 -9.99884188e-01 -9.99908745e-01 -9.99892175e-01
      -9.92091179e-01 -9.99335647e-01 -9.98355746e-01 -9.99314487e-01
      -9.99709070e-01 -9.99360383e-01 -9.92097676e-01 -9.97175813e-01
      -9.98279393e-01 -9.99426007e-01 -9.97947872e-01 -9.99086976e-01
      -9.99898672e-01 -9.99889970e-01 -9.99884725e-01 -9.99908566e-01
      -9.99904037e-01 -9.99906838e-01 -9.99903917e-01 -9.99901175e-01
      -9.99908745e-01 -9.99905288e-01 -9.99906778e-01 -9.99904037e-01
      -9.99900937e-01 -9.99908745e-01 -9.99904871e-01 -9.99907076e-01
      -9.99903977e-01 -9.99901354e-01 -9.99908745e-01 -9.99906719e-01
      -9.99905467e-01 -9.99903917e-01 -9.99903083e-01 -9.99908745e-01
      -9.99905467e-01 -9.99906480e-01 -9.99903619e-01 -9.99902010e-01
      -9.99908745e-01 -9.99905705e-01 -9.99906659e-01 -9.99904633e-01
      -9.99901652e-01 -9.99908745e-01 -9.99907076e-01 -9.99906898e-01
      -9.99905169e-01 -9.99903738e-01 -9.99908745e-01 -9.99906600e-01
      -9.99907136e-01 -9.99904811e-01 -9.99905705e-01 -9.99908745e-01
      -9.99905944e-01 -9.99907911e-01 -9.99906242e-01 -9.99904335e-01
      -9.99908745e-01 -9.99908745e-01 -9.99908745e-01 -9.99908745e-01
      -9.99908745e-01 -9.99908745e-01 -9.99908626e-01 -9.99907136e-01
      -9.99908268e-01 -9.99908268e-01 -9.99908745e-01 -9.99907494e-01
      -9.99906957e-01 -9.99906659e-01 -9.99904394e-01 -9.99908745e-01
      -9.99905467e-01 -9.99906540e-01 -9.99902427e-01 -9.99902070e-01
      -9.99908745e-01 -9.99906540e-01 -9.99907076e-01 -9.99904454e-01
      -9.99904096e-01 -9.99908745e-01 -9.99905109e-01 -9.99906540e-01
      -9.99903560e-01 -9.99902844e-01 -9.99908745e-01 -9.99905288e-01
      -9.99906123e-01 -9.99903560e-01 -9.99901175e-01 -9.99908745e-01
      -9.99905348e-01 -9.99002337e-01 -9.99000013e-01 -4.99705106e-01
      -9.99753118e-01 -9.99815285e-01 -9.74122405e-01 1. -9.99172926e-01
      -9.99260843e-01 -9.99668717e-01 -1. -9.99753594e-01</_>
    <_>
      -9.92091179e-01 -9.93125141e-01 -9.92097676e-01 -9.88600969e-01
      -9.86627162e-01 -9.90943849e-01 -9.99908745e-01 -9.99882519e-01
      -9.99908745e-01 -9.99884188e-01 -9.99908745e-01 -9.99892175e-01
      -9.92091179e-01 -9.99335647e-01 -9.98355746e-01 -9.99314487e-01
      -9.99709070e-01 -9.99360383e-01 -9.92097676e-01 -9.97175813e-01
      -9.98279393e-01 -9.99426007e-01 -9.97947872e-01 -9.99086976e-01
      -9.99898672e-01 -9.99889970e-01 -9.99884725e-01 -9.99908566e-01
      -9.99904037e-01 -9.99906838e-01 -9.99903917e-01 -9.99901175e-01
      -9.99908745e-01 -9.99905288e-01 -9.99906778e-01 -9.99904037e-01
      -9.99900937e-01 -9.99908745e-01 -9.99904871e-01 -9.99907076e-01
      -9.99903977e-01 -9.99901354e-01 -9.99908745e-01 -9.99906719e-01
      -9.99905467e-01 -9.99903917e-01 -9.99903083e-01 -9.99908745e-01
      -9.99905467e-01 -9.99906480e-01 -9.99903619e-01 -9.99902010e-01
      -9.99908745e-01 -9.99905705e-01 -9.99906659e-01 -9.99904633e-01
      -9.99901652e-01 -9.99908745e-01 -9.99907076e-01 -9.99906898e-01
      -9.99905169e-01 -9.99903738e-01 -9.99908745e-01 -9.99906600e-01
      -9.99907136e-01 -9.99904811e-01 -9.99905705e-01 -9.99908745e-01
      -9.99905944e-01 -9.99907911e-01 -9.99906242e-01 -9.99904335e-01
      -9.99908745e-01 -9.99908745e-01 -9.99908745e-01 -9.99908745e-01
      -9.99908745e-01 -9.99908745e-01 -9.99908626e-01 -9.99907136e-01
      -9.99908268e-01 -9.99908268e-01 -9.99908745e-01 -9.99907494e-01
      -9.99906957e-01 -9.99906659e-01 -9.99904394e-01 -9.99908745e-01
      -9.99905467e-01 -9.99906540e-01 -9.99902427e-01 -9.99902070e-01
      -9.99908745e-01 -9.99906540e-01 -9.99907076e-01 -9.99904454e-01
      -9.99904096e-01 -9.99908745e-01 -9.99905109e-01 -9.99906540e-01
      -9.99903560e-01 -9.99902844e-01 -9.99908745e-01 -9.99905288e-01
      -9.99906123e-01 -9.99903560e-01 -9.99901175e-01 -9.99908745e-01
      -9.99905348e-01 -9.99002337e-01 -9.99000013e-01 -4.99705106e-01
      -9.99753118e-01 -9.99815285e-01 -9.74122405e-01 1. -9.99172926e-01
      -9.99260843e-01 -9.99668717e-01 -1. -9.99753594e-01</_>
    <_>
      -9.92091179e-01 -9.93125141e-01 -9.92097676e-01 -9.88600969e-01
      -9.86627162e-01 -9.90943849e-01 -9.99908745e-01 -9.99882519e-01
      -9.99908745e-01 -9.99884188e-01 -9.99908745e-01 -9.99892175e-01
      -9.92091179e-01 -9.99335647e-01 -9.98355746e-01 -9.99314487e-01
      -9.99709070e-01 -9.99360383e-01 -9.92097676e-01 -9.97175813e-01
      -9.98279393e-01 -9.99426007e-01 -9.97947872e-01 -9.99086976e-01
      -9.99898672e-01 -9.99889970e-01 -9.99884725e-01 -9.99908566e-01
      -9.99904037e-01 -9.99906838e-01 -9.99903917e-01 -9.99901175e-01
      -9.99908745e-01 -9.99905288e-01 -9.99906778e-01 -9.99904037e-01
      -9.99900937e-01 -9.99908745e-01 -9.99904871e-01 -9.99907076e-01
      -9.99903977e-01 -9.99901354e-01 -9.99908745e-01 -9.99906719e-01
      -9.99905467e-01 -9.99903917e-01 -9.99903083e-01 -9.99908745e-01
      -9.99905467e-01 -9.99906480e-01 -9.99903619e-01 -9.99902010e-01
      -9.99908745e-01 -9.99905705e-01 -9.99906659e-01 -9.99904633e-01
      -9.99901652e-01 -9.99908745e-01 -9.99907076e-01 -9.99906898e-01
      -9.99905169e-01 -9.99903738e-01 -9.99908745e-01 -9.99906600e-01
      -9.99907136e-01 -9.99904811e-01 -9.99905705e-01 -9.99908745e-01
      -9.99905944e-01 -9.99907911e-01 -9.99906242e-01 -9.99904335e-01
      -9.99908745e-01 -9.99908745e-01 -9.99908745e-01 -9.99908745e-01
      -9.99908745e-01 -9.99908745e-01 -9.99908626e-01 -9.99907136e-01
      -9.99908268e-01 -9.99908268e-01 -9.99908745e-01 -9.99907494e-01
      -9.99906957e-01 -9.99906659e-01 -9.99904394e-01 -9.99908745e-01
      -9.99905467e-01 -9.99906540e-01 -9.99902427e-01 -9.99902070e-01
      -9.99908745e-01 -9.99906540e-01 -9.99907076e-01 -9.99904454e-01
      -9.99904096e-01 -9.99908745e-01 -9.99905109e-01 -9.99906540e-01
      -9.99903560e-01 -9.99902844e-01 -9.99908745e-01 -9.99905288e-01
      -9.99906123e-01 -9.99903560e-01 -9.99901175e-01 -9.99908745e-01
      -9.99905348e-01 -9.99002337e-01 -9.99000013e-01 -4.99705106e-01
      -9.99753118e-01 -9.99815285e-01 -9.74122405e-01 1. -9.99172926e-01
      -9.99260843e-01 -9.99668717e-01 -1. -9.99753594e-01</_>
    <_>
      -9.83228624e-01 -9.92096961e-01 -9.93464768e-01 -9.94221509e-01
      -9.67408657e-01 -9.87659574e-01 -9.75927114e-01 -9.99842227e-01
      -9.97397661e-01 -9.99846876e-01 -9.69888508e-01 -9.99851525e-01
      -9.83228624e-01 -9.97907698e-01 -9.98380065e-01 -9.98424888e-01
      -9.99360263e-01 -9.99282420e-01 -9.93464768e-01 -9.98692274e-01
      -9.99381959e-01 -9.99236941e-01 -9.99204338e-01 -9.99247491e-01
      -9.99826968e-01 -9.99807298e-01 -9.99783754e-01 -9.99857664e-01
      -9.99857426e-01 -9.99857426e-01 -9.99857545e-01 -9.99857247e-01
      -9.99857843e-01 -9.99855459e-01 -9.99856412e-01 -9.99855697e-01
      -9.99854207e-01 -9.99857843e-01 -9.99857068e-01 -9.99856412e-01
      -9.99854386e-01 -9.99856234e-01 -9.99857843e-01 -9.99857306e-01
      -9.99857485e-01 -9.99857128e-01 -9.99857068e-01 -9.99857843e-01
      -9.99854326e-01 -9.99856889e-01 -9.99854803e-01 -9.99855578e-01
      -9.99857843e-01 -9.99847829e-01 -9.99857187e-01 -9.99851525e-01
      -9.99855399e-01 -9.99857843e-01 -9.99857008e-01 -9.99857247e-01
      -9.99856591e-01 -9.99857366e-01 -9.99857843e-01 -9.99854565e-01
      -9.99856830e-01 -9.99854922e-01 -9.99856114e-01 -9.99857843e-01
      -9.99854863e-01 -9.99855518e-01 -9.99853432e-01 -9.99851465e-01
      -9.99857843e-01 -9.99851525e-01 -9.99855816e-01 -9.99845922e-01
      -9.99854624e-01 -9.99857843e-01 -9.99855280e-01 -9.99851584e-01
      -9.99850452e-01 -9.99854863e-01 -9.99857843e-01 -9.99856591e-01
      -9.99856949e-01 -9.99857068e-01 -9.99855638e-01 -9.99857843e-01
      -9.99857247e-01 -9.99857426e-01 -9.99857128e-01 -9.99856770e-01
      -9.99857843e-01 -9.99857247e-01 -9.99857306e-01 -9.99857187e-01
      -9.99857485e-01 -9.99857843e-01 -9.99857187e-01 -9.99854982e-01
      -9.99855697e-01 -9.99856234e-01 -9.99857843e-01 -9.99857068e-01
      -9.99857426e-01 -9.99857068e-01 -9.99857366e-01 -9.99857843e-01
      -9.99856710e-01 -9.99003470e-01 -9.98493195e-01 -4.99679565e-01
      -9.99634385e-01 -9.99715090e-01 -9.39072251e-01 1. -9.98704255e-01
      -9.99247491e-01 -9.99557793e-01 -1. -9.99634564e-01</_>
    <_>
      -9.75254416e-01 -9.83870506e-01 -9.88541007e-01 -9.89214838e-01
      -9.62488532e-01 -9.84056652e-01 -9.89972532e-01 -9.99757409e-01
      -9.95529890e-01 -9.99752343e-01 -9.67742980e-01 -9.99757290e-01
      -9.75254416e-01 -9.96595323e-01 -9.96984601e-01 -9.98594880e-01
      -9.99066472e-01 -9.98880684e-01 -9.88541007e-01 -9.96652365e-01
      -9.98965442e-01 -9.98585343e-01 -9.98821259e-01 -9.98912394e-01
      -9.99720633e-01 -9.99693930e-01 -9.99649942e-01 -9.99779463e-01
      -9.99779642e-01 -9.99779642e-01 -9.99779642e-01 -9.99779642e-01
      -9.99779642e-01 -9.99779642e-01 -9.99777615e-01 -9.99779284e-01
      -9.99778450e-01 -9.99779642e-01 -9.99779642e-01 -9.99778092e-01
      -9.99779344e-01 -9.99779522e-01 -9.99779642e-01 -9.99779642e-01
      -9.99779642e-01 -9.99779642e-01 -9.99779582e-01 -9.99779642e-01
      -9.99777377e-01 -9.99779642e-01 -9.99778748e-01 -9.99778926e-01
      -9.99779642e-01 -9.99771237e-01 -9.99777794e-01 -9.99773383e-01
      -9.99777019e-01 -9.99779642e-01 -9.99779284e-01 -9.99778330e-01
      -9.99776423e-01 -9.99779582e-01 -9.99779642e-01 -9.99778986e-01
      -9.99779463e-01 -9.99775946e-01 -9.99779522e-01 -9.99779642e-01
      -9.99777079e-01 -9.99777257e-01 -9.99773979e-01 -9.99776900e-01
      -9.99779642e-01 -9.99775589e-01 -9.99777436e-01 -9.99767542e-01
      -9.99778152e-01 -9.99779642e-01 -9.99778986e-01 -9.99774754e-01
      -9.99773264e-01 -9.99779344e-01 -9.99779642e-01 -9.99775290e-01
      -9.99776006e-01 -9.99778152e-01 -9.99777973e-01 -9.99779642e-01
      -9.99779165e-01 -9.99779224e-01 -9.99779403e-01 -9.99777734e-01
      -9.99779642e-01 -9.99779522e-01 -9.99778986e-01 -9.99778688e-01
      -9.99779582e-01 -9.99779642e-01 -9.99779344e-01 -9.99776542e-01
      -9.99777794e-01 -9.99778867e-01 -9.99779642e-01 -9.99779344e-01
      -9.99778867e-01 -9.99779344e-01 -9.99778330e-01 -9.99779642e-01
      -9.99773681e-01 -9.99211967e-01 -9.98074591e-01 -4.99692738e-01
      -9.99452949e-01 -9.99540031e-01 -9.31455791e-01 1. -9.98279393e-01
      -9.99366939e-01 -9.99421954e-01 -1. -9.99453604e-01</_>
    <_>
      -9.91901994e-01 -9.93076921e-01 -9.86828864e-01 -9.87415969e-01
      -9.79333341e-01 -9.89391744e-01 -9.94487107e-01 -9.99870300e-01
      -9.46878135e-01 -9.99880195e-01 -9.99892533e-01 -9.99884546e-01
      -9.91901994e-01 -9.98321891e-01 -9.98605490e-01 -9.99367237e-01
      -9.99135554e-01 -9.98767436e-01 -9.86828864e-01 -9.98177230e-01
      -9.97172058e-01 -9.98847187e-01 -9.98896062e-01 -9.99641955e-01
      -9.99868810e-01 -9.99855638e-01 -9.99839723e-01 -9.99892294e-01
      -9.99883294e-01 -9.99891937e-01 -9.99889791e-01 -9.99888361e-01
      -9.99892533e-01 -9.99884725e-01 -9.99890983e-01 -9.99888182e-01
      -9.99887228e-01 -9.99892533e-01 -9.99882817e-01 -9.99891579e-01
      -9.99888182e-01 -9.99887526e-01 -9.99892533e-01 -9.99884009e-01
      -9.99891758e-01 -9.99888420e-01 -9.99888539e-01 -9.99892533e-01
      -9.99881685e-01 -9.99891639e-01 -9.99888718e-01 -9.99886036e-01
      -9.99892533e-01 -9.99882936e-01 -9.99891937e-01 -9.99890268e-01
      -9.99889255e-01 -9.99892533e-01 -9.99887645e-01 -9.99892056e-01
      -9.99891281e-01 -9.99890208e-01 -9.99892533e-01 -9.99884486e-01
      -9.99891996e-01 -9.99890387e-01 -9.99890625e-01 -9.99892533e-01
      -9.99885082e-01 -9.99891818e-01 -9.99889910e-01 -9.99889910e-01
      -9.99892533e-01 -9.99881387e-01 -9.99891937e-01 -9.99889374e-01
      -9.99889970e-01 -9.99892533e-01 -9.99889076e-01 -9.99890924e-01
      -9.99890685e-01 -9.99890447e-01 -9.99892533e-01 -9.99881625e-01
      -9.99891400e-01 -9.99888361e-01 -9.99887586e-01 -9.99892533e-01
      -9.99879718e-01 -9.99891520e-01 -9.99886572e-01 -9.99886155e-01
      -9.99892533e-01 -9.99877632e-01 -9.99891102e-01 -9.99886572e-01
      -9.99886036e-01 -9.99892533e-01 -9.99882758e-01 -9.99891043e-01
      -9.99886453e-01 -9.99884784e-01 -9.99892533e-01 -9.99881208e-01
      -9.99890864e-01 -9.99886453e-01 -9.99885798e-01 -9.99892533e-01
      -9.99891341e-01 -9.97538149e-01 -9.98515248e-01 -4.99330789e-01
      -9.99685109e-01 -9.99789834e-01 -9.60791469e-01 1. -9.98826921e-01
      -9.98279810e-01 -9.99513984e-01 -1. -9.99685645e-01</_>
    <_>
      -9.75254416e-01 -9.83870506e-01 -9.88541007e-01 -9.89214838e-01
      -9.62488532e-01 -9.84056652e-01 -9.89972532e-01 -9.99757409e-01
      -9.95529890e-01 -9.99752343e-01 -9.67742980e-01 -9.99757290e-01
      -9.75254416e-01 -9.96595323e-01 -9.96984601e-01 -9.98594880e-01
      -9.99066472e-01 -9.98880684e-01 -9.88541007e-01 -9.96652365e-01
      -9.98965442e-01 -9.98585343e-01 -9.98821259e-01 -9.98912394e-01
      -9.99720633e-01 -9.99693930e-01 -9.99649942e-01 -9.99779463e-01
      -9.99779642e-01 -9.99779642e-01 -9.99779642e-01 -9.99779642e-01
      -9.99779642e-01 -9.99779642e-01 -9.99777615e-01 -9.99779284e-01
      -9.99778450e-01 -9.99779642e-01 -9.99779642e-01 -9.99778092e-01
      -9.99779344e-01 -9.99779522e-01 -9.99779642e-01 -9.99779642e-01
      -9.99779642e-01 -9.99779642e-01 -9.99779582e-01 -9.99779642e-01
      -9.99777377e-01 -9.99779642e-01 -9.99778748e-01 -9.99778926e-01
      -9.99779642e-01 -9.99771237e-01 -9.99777794e-01 -9.99773383e-01
      -9.99777019e-01 -9.99779642e-01 -9.99779284e-01 -9.99778330e-01
      -9.99776423e-01 -9.99779582e-01 -9.99779642e-01 -9.99778986e-01
      -9.99779463e-01 -9.99775946e-01 -9.99779522e-01 -9.99779642e-01
      -9.99777079e-01 -9.99777257e-01 -9.99773979e-01 -9.99776900e-01
      -9.99779642e-01 -9.99775589e-01 -9.99777436e-01 -9.99767542e-01
      -9.99778152e-01 -9.99779642e-01 -9.99778986e-01 -9.99774754e-01
      -9.99773264e-01 -9.99779344e-01 -9.99779642e-01 -9.99775290e-01
      -9.99776006e-01 -9.99778152e-01 -9.99777973e-01 -9.99779642e-01
      -9.99779165e-01 -9.99779224e-01 -9.99779403e-01 -9.99777734e-01
      -9.99779642e-01 -9.99779522e-01 -9.99778986e-01 -9.99778688e-01
      -9.99779582e-01 -9.99779642e-01 -9.99779344e-01 -9.99776542e-01
      -9.99777794e-01 -9.99778867e-01 -9.99779642e-01 -9.99779344e-01
      -9.99778867e-01 -9.99779344e-01 -9.99778330e-01 -9.99779642e-01
      -9.99773681e-01 -9.99211967e-01 -9.98074591e-01 -4.99692738e-01
      -9.99452949e-01 -9.99540031e-01 -9.31455791e-01 1. -9.98279393e-01
      -9.99366939e-01 -9.99421954e-01 -1. -9.99453604e-01</_>
    <_>
      -9.75254416e-01 -9.83870506e-01 -9.88541007e-01 -9.89214838e-01
      -9.62488532e-01 -9.84056652e-01 -9.89972532e-01 -9.99757409e-01
      -9.95529890e-01 -9.99752343e-01 -9.67742980e-01 -9.99757290e-01
      -9.75254416e-01 -9.96595323e-01 -9.96984601e-01 -9.98594880e-01
      -9.99066472e-01 -9.98880684e-01 -9.88541007e-01 -9.96652365e-01
      -9.98965442e-01 -9.98585343e-01 -9.98821259e-01 -9.98912394e-01
      -9.99720633e-01 -9.99693930e-01 -9.99649942e-01 -9.99779463e-01
      -9.99779642e-01 -9.99779642e-01 -9.99779642e-01 -9.99779642e-01
      -9.99779642e-01 -9.99779642e-01 -9.99777615e-01 -9.99779284e-01
      -9.99778450e-01 -9.99779642e-01 -9.99779642e-01 -9.99778092e-01
      -9.99779344e-01 -9.99779522e-01 -9.99779642e-01 -9.99779642e-01
      -9.99779642e-01 -9.99779642e-01 -9.99779582e-01 -9.99779642e-01
      -9.99777377e-01 -9.99779642e-01 -9.99778748e-01 -9.99778926e-01
      -9.99779642e-01 -9.99771237e-01 -9.99777794e-01 -9.99773383e-01
      -9.99777019e-01 -9.99779642e-01 -9.99779284e-01 -9.99778330e-01
      -9.99776423e-01 -9.99779582e-01 -9.99779642e-01 -9.99778986e-01
      -9.99779463e-01 -9.99775946e-01 -9.99779522e-01 -9.99779642e-01
      -9.99777079e-01 -9.99777257e-01 -9.99773979e-01 -9.99776900e-01
      -9.99779642e-01 -9.99775589e-01 -9.99777436e-01 -9.99767542e-01
      -9.99778152e-01 -9.99779642e-01 -9.99778986e-01 -9.99774754e-01
      -9.99773264e-01 -9.99779344e-01 -9.99779642e-01 -9.99775290e-01
      -9.99776006e-01 -9.99778152e-01 -9.99777973e-01 -9.99779642e-01
      -9.99779165e-01 -9.99779224e-01 -9.99779403e-01 -9.99777734e-01
      -9.99779642e-01 -9.99779522e-01 -9.99778986e-01 -9.99778688e-01
      -9.99779582e-01 -9.99779642e-01 -9.99779344e-01 -9.99776542e-01
      -9.99777794e-01 -9.99778867e-01 -9.99779642e-01 -9.99779344e-01
      -9.99778867e-01 -9.99779344e-01 -9.99778330e-01 -9.99779642e-01
      -9.99773681e-01 -9.99211967e-01 -9.98074591e-01 -4.99692738e-01
      -9.99452949e-01 -9.99540031e-01 -9.31455791e-01 1. -9.98279393e-01
      -9.99366939e-01 -9.99421954e-01 -1. -9.99453604e-01</_>
    <_>
      -9.91998255e-01 -9.93052006e-01 -9.91855502e-01 -9.88344252e-01
      -9.86626089e-01 -9.90949273e-01 -9.99913275e-01 -9.99887645e-01
      -9.99913275e-01 -9.99889672e-01 -9.99913275e-01 -9.99897122e-01
      -9.91998255e-01 -9.98322070e-01 -9.99334991e-01 -9.99379218e-01
      -9.99032736e-01 -9.99318242e-01 -9.91855502e-01 -9.98193443e-01
      -9.96989787e-01 -9.99147236e-01 -9.98417079e-01 -9.99345362e-01
      -9.99903202e-01 -9.99894500e-01 -9.99889314e-01 -9.99913096e-01
      -9.99908447e-01 -9.99911845e-01 -9.99906659e-01 -9.99907136e-01
      -9.99913275e-01 -9.99911487e-01 -9.99912024e-01 -9.99908507e-01
      -9.99910295e-01 -9.99913275e-01 -9.99908209e-01 -9.99911845e-01
      -9.99906898e-01 -9.99908149e-01 -9.99913275e-01 -9.99909401e-01
      -9.99911368e-01 -9.99905527e-01 -9.99908984e-01 -9.99913275e-01
      -9.99909997e-01 -9.99912381e-01 -9.99909341e-01 -9.99909997e-01
      -9.99913275e-01 -9.99913275e-01 -9.99913275e-01 -9.99913275e-01
      -9.99913275e-01 -9.99913275e-01 -9.99909282e-01 -9.99911785e-01
      -9.99906778e-01 -9.99909043e-01 -9.99913275e-01 -9.99908984e-01
      -9.99911726e-01 -9.99906182e-01 -9.99909163e-01 -9.99913275e-01
      -9.99908626e-01 -9.99911487e-01 -9.99907255e-01 -9.99908090e-01
      -9.99913275e-01 -9.99911010e-01 -9.99913275e-01 -9.99913096e-01
      -9.99913096e-01 -9.99913275e-01 -9.99909759e-01 -9.99912679e-01
      -9.99909341e-01 -9.99909937e-01 -9.99913275e-01 -9.99908924e-01
      -9.99911189e-01 -9.99905288e-01 -9.99908507e-01 -9.99913275e-01
      -9.99908149e-01 -9.99911785e-01 -9.99906123e-01 -9.99908805e-01
      -9.99913275e-01 -9.99909580e-01 -9.99912500e-01 -9.99909341e-01
      -9.99911487e-01 -9.99913275e-01 -9.99909997e-01 -9.99912262e-01
      -9.99910235e-01 -9.99909520e-01 -9.99913275e-01 -9.99906898e-01
      -9.99912500e-01 -9.99908745e-01 -9.99909282e-01 -9.99913275e-01
      -9.99910057e-01 -9.98490274e-01 -9.98985410e-01 -4.99579251e-01
      -9.99757767e-01 -9.99825180e-01 -9.74116802e-01 1. -9.99175787e-01
      -9.98867154e-01 -9.99653816e-01 -1. -9.99758303e-01</_>
    <_>
      -9.92091179e-01 -9.93125141e-01 -9.92097676e-01 -9.88600969e-01
      -9.86627162e-01 -9.90943849e-01 -9.99908745e-01 -9.99882519e-01
      -9.99908745e-01 -9.99884188e-01 -9.99908745e-01 -9.99892175e-01
      -9.92091179e-01 -9.99335647e-01 -9.98355746e-01 -9.99314487e-01
      -9.99709070e-01 -9.99360383e-01 -9.92097676e-01 -9.97175813e-01
      -9.98279393e-01 -9.99426007e-01 -9.97947872e-01 -9.99086976e-01
      -9.99898672e-01 -9.99889970e-01 -9.99884725e-01 -9.99908566e-01
      -9.99904037e-01 -9.99906838e-01 -9.99903917e-01 -9.99901175e-01
      -9.99908745e-01 -9.99905288e-01 -9.99906778e-01 -9.99904037e-01
      -9.99900937e-01 -9.99908745e-01 -9.99904871e-01 -9.99907076e-01
      -9.99903977e-01 -9.99901354e-01 -9.99908745e-01 -9.99906719e-01
      -9.99905467e-01 -9.99903917e-01 -9.99903083e-01 -9.99908745e-01
      -9.99905467e-01 -9.99906480e-01 -9.99903619e-01 -9.99902010e-01
      -9.99908745e-01 -9.99905705e-01 -9.99906659e-01 -9.99904633e-01
      -9.99901652e-01 -9.99908745e-01 -9.99907076e-01 -9.99906898e-01
      -9.99905169e-01 -9.99903738e-01 -9.99908745e-01 -9.99906600e-01
      -9.99907136e-01 -9.99904811e-01 -9.99905705e-01 -9.99908745e-01
      -9.99905944e-01 -9.99907911e-01 -9.99906242e-01 -9.99904335e-01
      -9.99908745e-01 -9.99908745e-01 -9.99908745e-01 -9.99908745e-01
      -9.99908745e-01 -9.99908745e-01 -9.99908626e-01 -9.99907136e-01
      -9.99908268e-01 -9.99908268e-01 -9.99908745e-01 -9.99907494e-01
      -9.99906957e-01 -9.99906659e-01 -9.99904394e-01 -9.99908745e-01
      -9.99905467e-01 -9.99906540e-01 -9.99902427e-01 -9.99902070e-01
      -9.99908745e-01 -9.99906540e-01 -9.99907076e-01 -9.99904454e-01
      -9.99904096e-01 -9.99908745e-01 -9.99905109e-01 -9.99906540e-01
      -9.99903560e-01 -9.99902844e-01 -9.99908745e-01 -9.99905288e-01
      -9.99906123e-01 -9.99903560e-01 -9.99901175e-01 -9.99908745e-01
      -9.99905348e-01 -9.99002337e-01 -9.99000013e-01 -4.99705106e-01
      -9.99753118e-01 -9.99815285e-01 -9.74122405e-01 1. -9.99172926e-01
      -9.99260843e-01 -9.99668717e-01 -1. -9.99753594e-01</_>
    <_>
      -9.91998255e-01 -9.93052006e-01 -9.91855502e-01 -9.88344252e-01
      -9.86626089e-01 -9.90949273e-01 -9.99913275e-01 -9.99887645e-01
      -9.99913275e-01 -9.99889672e-01 -9.99913275e-01 -9.99897122e-01
      -9.91998255e-01 -9.98322070e-01 -9.99334991e-01 -9.99379218e-01
      -9.99032736e-01 -9.99318242e-01 -9.91855502e-01 -9.98193443e-01
      -9.96989787e-01 -9.99147236e-01 -9.98417079e-01 -9.99345362e-01
      -9.99903202e-01 -9.99894500e-01 -9.99889314e-01 -9.99913096e-01
      -9.99908447e-01 -9.99911845e-01 -9.99906659e-01 -9.99907136e-01
      -9.99913275e-01 -9.99911487e-01 -9.99912024e-01 -9.99908507e-01
      -9.99910295e-01 -9.99913275e-01 -9.99908209e-01 -9.99911845e-01
      -9.99906898e-01 -9.99908149e-01 -9.99913275e-01 -9.99909401e-01
      -9.99911368e-01 -9.99905527e-01 -9.99908984e-01 -9.99913275e-01
      -9.99909997e-01 -9.99912381e-01 -9.99909341e-01 -9.99909997e-01
      -9.99913275e-01 -9.99913275e-01 -9.99913275e-01 -9.99913275e-01
      -9.99913275e-01 -9.99913275e-01 -9.99909282e-01 -9.99911785e-01
      -9.99906778e-01 -9.99909043e-01 -9.99913275e-01 -9.99908984e-01
      -9.99911726e-01 -9.99906182e-01 -9.99909163e-01 -9.99913275e-01
      -9.99908626e-01 -9.99911487e-01 -9.99907255e-01 -9.99908090e-01
      -9.99913275e-01 -9.99911010e-01 -9.99913275e-01 -9.99913096e-01
      -9.99913096e-01 -9.99913275e-01 -9.99909759e-01 -9.99912679e-01
      -9.99909341e-01 -9.99909937e-01 -9.99913275e-01 -9.99908924e-01
      -9.99911189e-01 -9.99905288e-01 -9.99908507e-01 -9.99913275e-01
      -9.99908149e-01 -9.99911785e-01 -9.99906123e-01 -9.99908805e-01
      -9.99913275e-01 -9.99909580e-01 -9.99912500e-01 -9.99909341e-01
      -9.99911487e-01 -9.99913275e-01 -9.99909997e-01 -9.99912262e-01
      -9.99910235e-01 -9.99909520e-01 -9.99913275e-01 -9.99906898e-01
      -9.99912500e-01 -9.99908745e-01 -9.99909282e-01 -9.99913275e-01
      -9.99910057e-01 -9.98490274e-01 -9.98985410e-01 -4.99579251e-01
      -9.99757767e-01 -9.99825180e-01 -9.74116802e-01 1. -9.99175787e-01
      -9.98867154e-01 -9.99653816e-01 -1. -9.99758303e-01</_>
    <_>
      -9.91998255e-01 -9.93052006e-01 -9.91855502e-01 -9.88344252e-01
      -9.86626089e-01 -9.90949273e-01 -9.99913275e-01 -9.99887645e-01
      -9.99913275e-01 -9.99889672e-01 -9.99913275e-01 -9.99897122e-01
      -9.91998255e-01 -9.98322070e-01 -9.99334991e-01 -9.99379218e-01
      -9.99032736e-01 -9.99318242e-01 -9.91855502e-01 -9.98193443e-01
      -9.96989787e-01 -9.99147236e-01 -9.98417079e-01 -9.99345362e-01
      -9.99903202e-01 -9.99894500e-01 -9.99889314e-01 -9.99913096e-01
      -9.99908447e-01 -9.99911845e-01 -9.99906659e-01 -9.99907136e-01
      -9.99913275e-01 -9.99911487e-01 -9.99912024e-01 -9.99908507e-01
      -9.99910295e-01 -9.99913275e-01 -9.99908209e-01 -9.99911845e-01
      -9.99906898e-01 -9.99908149e-01 -9.99913275e-01 -9.99909401e-01
      -9.99911368e-01 -9.99905527e-01 -9.99908984e-01 -9.99913275e-01
      -9.99909997e-01 -9.99912381e-01 -9.99909341e-01 -9.99909997e-01
      -9.99913275e-01 -9.99913275e-01 -9.99913275e-01 -9.99913275e-01
      -9.99913275e-01 -9.99913275e-01 -9.99909282e-01 -9.99911785e-01
      -9.99906778e-01 -9.99909043e-01 -9.99913275e-01 -9.99908984e-01
      -9.99911726e-01 -9.99906182e-01 -9.99909163e-01 -9.99913275e-01
      -9.99908626e-01 -9.99911487e-01 -9.99907255e-01 -9.99908090e-01
      -9.99913275e-01 -9.99911010e-01 -9.99913275e-01 -9.99913096e-01
      -9.99913096e-01 -9.99913275e-01 -9.99909759e-01 -9.99912679e-01
      -9.99909341e-01 -9.99909937e-01 -9.99913275e-01 -9.99908924e-01
      -9.99911189e-01 -9.99905288e-01 -9.99908507e-01 -9.99913275e-01
      -9.99908149e-01 -9.99911785e-01 -9.99906123e-01 -9.99908805e-01
      -9.99913275e-01 -9.99909580e-01 -9.99912500e-01 -9.99909341e-01
      -9.99911487e-01 -9.99913275e-01 -9.99909997e-01 -9.99912262e-01
      -9.99910235e-01 -9.99909520e-01 -9.99913275e-01 -9.99906898e-01
      -9.99912500e-01 -9.99908745e-01 -9.99909282e-01 -9.99913275e-01
      -9.99910057e-01 -9.98490274e-01 -9.98985410e-01 -4.99579251e-01
      -9.99757767e-01 -9.99825180e-01 -9.74116802e-01 1. -9.99175787e-01
      -9.98867154e-01 -9.99653816e-01 -1. -9.99758303e-01</_>
    <_>
      -9.92091179e-01 -9.93125141e-01 -9.92097676e-01 -9.88600969e-01
      -9.86627162e-01 -9.90943849e-01 -9.99908745e-01 -9.99882519e-01
      -9.99908745e-01 -9.99884188e-01 -9.99908745e-01 -9.99892175e-01
      -9.92091179e-01 -9.99335647e-01 -9.98355746e-01 -9.99314487e-01
      -9.99709070e-01 -9.99360383e-01 -9.92097676e-01 -9.97175813e-01
      -9.98279393e-01 -9.99426007e-01 -9.97947872e-01 -9.99086976e-01
      -9.99898672e-01 -9.99889970e-01 -9.99884725e-01 -9.99908566e-01
      -9.99904037e-01 -9.99906838e-01 -9.99903917e-01 -9.99901175e-01
      -9.99908745e-01 -9.99905288e-01 -9.99906778e-01 -9.99904037e-01
      -9.99900937e-01 -9.99908745e-01 -9.99904871e-01 -9.99907076e-01
      -9.99903977e-01 -9.99901354e-01 -9.99908745e-01 -9.99906719e-01
      -9.99905467e-01 -9.99903917e-01 -9.99903083e-01 -9.99908745e-01
      -9.99905467e-01 -9.99906480e-01 -9.99903619e-01 -9.99902010e-01
      -9.99908745e-01 -9.99905705e-01 -9.99906659e-01 -9.99904633e-01
      -9.99901652e-01 -9.99908745e-01 -9.99907076e-01 -9.99906898e-01
      -9.99905169e-01 -9.99903738e-01 -9.99908745e-01 -9.99906600e-01
      -9.99907136e-01 -9.99904811e-01 -9.99905705e-01 -9.99908745e-01
      -9.99905944e-01 -9.99907911e-01 -9.99906242e-01 -9.99904335e-01
      -9.99908745e-01 -9.99908745e-01 -9.99908745e-01 -9.99908745e-01
      -9.99908745e-01 -9.99908745e-01 -9.99908626e-01 -9.99907136e-01
      -9.99908268e-01 -9.99908268e-01 -9.99908745e-01 -9.99907494e-01
      -9.99906957e-01 -9.99906659e-01 -9.99904394e-01 -9.99908745e-01
      -9.99905467e-01 -9.99906540e-01 -9.99902427e-01 -9.99902070e-01
      -9.99908745e-01 -9.99906540e-01 -9.99907076e-01 -9.99904454e-01
      -9.99904096e-01 -9.99908745e-01 -9.99905109e-01 -9.99906540e-01
      -9.99903560e-01 -9.99902844e-01 -9.99908745e-01 -9.99905288e-01
      -9.99906123e-01 -9.99903560e-01 -9.99901175e-01 -9.99908745e-01
      -9.99905348e-01 -9.99002337e-01 -9.99000013e-01 -4.99705106e-01
      -9.99753118e-01 -9.99815285e-01 -9.74122405e-01 1. -9.99172926e-01
      -9.99260843e-01 -9.99668717e-01 -1. -9.99753594e-01</_>
    <_>
      -9.91998255e-01 -9.93052006e-01 -9.91855502e-01 -9.88344252e-01
      -9.86626089e-01 -9.90949273e-01 -9.99913275e-01 -9.99887645e-01
      -9.99913275e-01 -9.99889672e-01 -9.99913275e-01 -9.99897122e-01
      -9.91998255e-01 -9.98322070e-01 -9.99334991e-01 -9.99379218e-01
      -9.99032736e-01 -9.99318242e-01 -9.91855502e-01 -9.98193443e-01
      -9.96989787e-01 -9.99147236e-01 -9.98417079e-01 -9.99345362e-01
      -9.99903202e-01 -9.99894500e-01 -9.99889314e-01 -9.99913096e-01
      -9.99908447e-01 -9.99911845e-01 -9.99906659e-01 -9.99907136e-01
      -9.99913275e-01 -9.99911487e-01 -9.99912024e-01 -9.99908507e-01
      -9.99910295e-01 -9.99913275e-01 -9.99908209e-01 -9.99911845e-01
      -9.99906898e-01 -9.99908149e-01 -9.99913275e-01 -9.99909401e-01
      -9.99911368e-01 -9.99905527e-01 -9.99908984e-01 -9.99913275e-01
      -9.99909997e-01 -9.99912381e-01 -9.99909341e-01 -9.99909997e-01
      -9.99913275e-01 -9.99913275e-01 -9.99913275e-01 -9.99913275e-01
      -9.99913275e-01 -9.99913275e-01 -9.99909282e-01 -9.99911785e-01
      -9.99906778e-01 -9.99909043e-01 -9.99913275e-01 -9.99908984e-01
      -9.99911726e-01 -9.99906182e-01 -9.99909163e-01 -9.99913275e-01
      -9.99908626e-01 -9.99911487e-01 -9.99907255e-01 -9.99908090e-01
      -9.99913275e-01 -9.99911010e-01 -9.99913275e-01 -9.99913096e-01
      -9.99913096e-01 -9.99913275e-01 -9.99909759e-01 -9.99912679e-01
      -9.99909341e-01 -9.99909937e-01 -9.99913275e-01 -9.99908924e-01
      -9.99911189e-01 -9.99905288e-01 -9.99908507e-01 -9.99913275e-01
      -9.99908149e-01 -9.99911785e-01 -9.99906123e-01 -9.99908805e-01
      -9.99913275e-01 -9.99909580e-01 -9.99912500e-01 -9.99909341e-01
      -9.99911487e-01 -9.99913275e-01 -9.99909997e-01 -9.99912262e-01
      -9.99910235e-01 -9.99909520e-01 -9.99913275e-01 -9.99906898e-01
      -9.99912500e-01 -9.99908745e-01 -9.99909282e-01 -9.99913275e-01
      -9.99910057e-01 -9.98490274e-01 -9.98985410e-01 -4.99579251e-01
      -9.99757767e-01 -9.99825180e-01 -9.74116802e-01 1. -9.99175787e-01
      -9.98867154e-01 -9.99653816e-01 -1. -9.99758303e-01</_>
    <_>
      -9.83228624e-01 -9.92096961e-01 -9.93464768e-01 -9.94221509e-01
      -9.67408657e-01 -9.87659574e-01 -9.75927114e-01 -9.99842227e-01
      -9.97397661e-01 -9.99846876e-01 -9.69888508e-01 -9.99851525e-01
      -9.83228624e-01 -9.97907698e-01 -9.98380065e-01 -9.98424888e-01
      -9.99360263e-01 -9.99282420e-01 -9.93464768e-01 -9.98692274e-01
      -9.99381959e-01 -9.99236941e-01 -9.99204338e-01 -9.99247491e-01
      -9.99826968e-01 -9.99807298e-01 -9.99783754e-01 -9.99857664e-01
      -9.99857426e-01 -9.99857426e-01 -9.99857545e-01 -9.99857247e-01
      -9.99857843e-01 -9.99855459e-01 -9.99856412e-01 -9.99855697e-01
      -9.99854207e-01 -9.99857843e-01 -9.99857068e-01 -9.99856412e-01
      -9.99854386e-01 -9.99856234e-01 -9.99857843e-01 -9.99857306e-01
      -9.99857485e-01 -9.99857128e-01 -9.99857068e-01 -9.99857843e-01
      -9.99854326e-01 -9.99856889e-01 -9.99854803e-01 -9.99855578e-01
      -9.99857843e-01 -9.99847829e-01 -9.99857187e-01 -9.99851525e-01
      -9.99855399e-01 -9.99857843e-01 -9.99857008e-01 -9.99857247e-01
      -9.99856591e-01 -9.99857366e-01 -9.99857843e-01 -9.99854565e-01
      -9.99856830e-01 -9.99854922e-01 -9.99856114e-01 -9.99857843e-01
      -9.99854863e-01 -9.99855518e-01 -9.99853432e-01 -9.99851465e-01
      -9.99857843e-01 -9.99851525e-01 -9.99855816e-01 -9.99845922e-01
      -9.99854624e-01 -9.99857843e-01 -9.99855280e-01 -9.99851584e-01
      -9.99850452e-01 -9.99854863e-01 -9.99857843e-01 -9.99856591e-01
      -9.99856949e-01 -9.99857068e-01 -9.99855638e-01 -9.99857843e-01
      -9.99857247e-01 -9.99857426e-01 -9.99857128e-01 -9.99856770e-01
      -9.99857843e-01 -9.99857247e-01 -9.99857306e-01 -9.99857187e-01
      -9.99857485e-01 -9.99857843e-01 -9.99857187e-01 -9.99854982e-01
      -9.99855697e-01 -9.99856234e-01 -9.99857843e-01 -9.99857068e-01
      -9.99857426e-01 -9.99857068e-01 -9.99857366e-01 -9.99857843e-01
      -9.99856710e-01 -9.99003470e-01 -9.98493195e-01 -4.99679565e-01
      -9.99634385e-01 -9.99715090e-01 -9.39072251e-01 1. -9.98704255e-01
      -9.99247491e-01 -9.99557793e-01 -1. -9.99634564e-01</_>
    <_>
      -9.85489428e-01 -9.88394976e-01 -9.87941921e-01 -9.83836770e-01
      -9.79055166e-01 -9.88484561e-01 -9.99864399e-01 -9.99838591e-01
      -9.99864399e-01 -9.99839485e-01 -9.99864399e-01 -9.99851227e-01
      -9.85489428e-01 -9.97615397e-01 -9.98239636e-01 -9.98890638e-01
      -9.99271989e-01 -9.99184906e-01 -9.87941921e-01 -9.98043060e-01
      -9.94963825e-01 -9.99160767e-01 -9.98347998e-01 -9.98129904e-01
      -9.99837756e-01 -9.99817312e-01 -9.99797940e-01 -9.99864161e-01
      -9.99857306e-01 -9.99862790e-01 -9.99853194e-01 -9.99859273e-01
      -9.99864399e-01 -9.99859154e-01 -9.99862373e-01 -9.99859929e-01
      -9.99854684e-01 -9.99864399e-01 -9.99855876e-01 -9.99862790e-01
      -9.99852419e-01 -9.99859154e-01 -9.99864399e-01 -9.99853432e-01
      -9.99862671e-01 -9.99856293e-01 -9.99857128e-01 -9.99864399e-01
      -9.99855280e-01 -9.99862731e-01 -9.99854267e-01 -9.99858499e-01
      -9.99864399e-01 -9.99857426e-01 -9.99862850e-01 -9.99858975e-01
      -9.99858201e-01 -9.99864399e-01 -9.99855042e-01 -9.99863446e-01
      -9.99856353e-01 -9.99860048e-01 -9.99864399e-01 -9.99855280e-01
      -9.99862790e-01 -9.99848843e-01 -9.99858260e-01 -9.99864399e-01
      -9.99852598e-01 -9.99862313e-01 -9.99854803e-01 -9.99856234e-01
      -9.99864399e-01 -9.99859095e-01 -9.99863148e-01 -9.99857605e-01
      -9.99860644e-01 -9.99864399e-01 -9.99859571e-01 -9.99863148e-01
      -9.99859393e-01 -9.99858558e-01 -9.99864399e-01 -9.99851406e-01
      -9.99862552e-01 -9.99852300e-01 -9.99857128e-01 -9.99864399e-01
      -9.99854088e-01 -9.99862373e-01 -9.99851406e-01 -9.99855757e-01
      -9.99864399e-01 -9.99855518e-01 -9.99862611e-01 -9.99853313e-01
      -9.99857008e-01 -9.99864399e-01 -9.99856710e-01 -9.99862432e-01
      -9.99857426e-01 -9.99855399e-01 -9.99864399e-01 -9.99849737e-01
      -9.99862850e-01 -9.99852180e-01 -9.99853969e-01 -9.99864399e-01
      -9.99862671e-01 -9.97489631e-01 -9.98177826e-01 -4.99304384e-01
      -9.99611676e-01 -9.99738097e-01 -9.60164964e-01 1. -9.98548210e-01
      -9.98301208e-01 -9.99412060e-01 -1. -9.99612033e-01</_>
    <_>
      -9.91998255e-01 -9.93052006e-01 -9.91855502e-01 -9.88344252e-01
      -9.86626089e-01 -9.90949273e-01 -9.99913275e-01 -9.99887645e-01
      -9.99913275e-01 -9.99889672e-01 -9.99913275e-01 -9.99897122e-01
      -9.91998255e-01 -9.98322070e-01 -9.99334991e-01 -9.99379218e-01
      -9.99032736e-01 -9.99318242e-01 -9.91855502e-01 -9.98193443e-01
      -9.96989787e-01 -9.99147236e-01 -9.98417079e-01 -9.99345362e-01
      -9.99903202e-01 -9.99894500e-01 -9.99889314e-01 -9.99913096e-01
      -9.99908447e-01 -9.99911845e-01 -9.99906659e-01 -9.99907136e-01
      -9.99913275e-01 -9.99911487e-01 -9.99912024e-01 -9.99908507e-01
      -9.99910295e-01 -9.99913275e-01 -9.99908209e-01 -9.99911845e-01
      -9.99906898e-01 -9.99908149e-01 -9.99913275e-01 -9.99909401e-01
      -9.99911368e-01 -9.99905527e-01 -9.99908984e-01 -9.99913275e-01
      -9.99909997e-01 -9.99912381e-01 -9.99909341e-01 -9.99909997e-01
      -9.99913275e-01 -9.99913275e-01 -9.99913275e-01 -9.99913275e-01
      -9.99913275e-01 -9.99913275e-01 -9.99909282e-01 -9.99911785e-01
      -9.99906778e-01 -9.99909043e-01 -9.99913275e-01 -9.99908984e-01
      -9.99911726e-01 -9.99906182e-01 -9.99909163e-01 -9.99913275e-01
      -9.99908626e-01 -9.99911487e-01 -9.99907255e-01 -9.99908090e-01
      -9.99913275e-01 -9.99911010e-01 -9.99913275e-01 -9.99913096e-01
      -9.99913096e-01 -9.99913275e-01 -9.99909759e-01 -9.99912679e-01
      -9.99909341e-01 -9.99909937e-01 -9.99913275e-01 -9.99908924e-01
      -9.99911189e-01 -9.99905288e-01 -9.99908507e-01 -9.99913275e-01
      -9.99908149e-01 -9.99911785e-01 -9.99906123e-01 -9.99908805e-01
      -9.99913275e-01 -9.99909580e-01 -9.99912500e-01 -9.99909341e-01
      -9.99911487e-01 -9.99913275e-01 -9.99909997e-01 -9.99912262e-01
      -9.99910235e-01 -9.99909520e-01 -9.99913275e-01 -9.99906898e-01
      -9.99912500e-01 -9.99908745e-01 -9.99909282e-01 -9.99913275e-01
      -9.99910057e-01 -9.98490274e-01 -9.98985410e-01 -4.99579251e-01
      -9.99757767e-01 -9.99825180e-01 -9.74116802e-01 1. -9.99175787e-01
      -9.98867154e-01 -9.99653816e-01 -1. -9.99758303e-01</_>
    <_>
      -9.90254700e-01 -9.92902160e-01 -9.91813362e-01 -9.88189638e-01
      -9.82555866e-01 -9.89829659e-01 -9.99897003e-01 -9.99871135e-01
      -9.99897003e-01 -9.99871612e-01 -9.99897003e-01 -9.99877572e-01
      -9.90254700e-01 -9.98637378e-01 -9.98730719e-01 -9.99617219e-01
      -9.99347985e-01 -9.99354243e-01 -9.91813362e-01 -9.98151183e-01
      -9.98260319e-01 -9.98834670e-01 -9.98473763e-01 -9.98948276e-01
      -9.99881327e-01 -9.99874234e-01 -9.99865770e-01 -9.99896824e-01
      -9.99885976e-01 -9.99896109e-01 -9.99893248e-01 -9.99892354e-01
      -9.99897003e-01 -9.99884784e-01 -9.99896049e-01 -9.99892831e-01
      -9.99891818e-01 -9.99897003e-01 -9.99888420e-01 -9.99895692e-01
      -9.99893725e-01 -9.99891043e-01 -9.99897003e-01 -9.99887466e-01
      -9.99896049e-01 -9.99892354e-01 -9.99893129e-01 -9.99897003e-01
      -9.99885201e-01 -9.99895871e-01 -9.99892533e-01 -9.99891520e-01
      -9.99897003e-01 -9.99894917e-01 -9.99896526e-01 -9.99896467e-01
      -9.99895573e-01 -9.99897003e-01 -9.99895215e-01 -9.99896646e-01
      -9.99895632e-01 -9.99895990e-01 -9.99897003e-01 -9.99886870e-01
      -9.99896228e-01 -9.99893188e-01 -9.99892652e-01 -9.99897003e-01
      -9.99884486e-01 -9.99896169e-01 -9.99893129e-01 -9.99893546e-01
      -9.99897003e-01 -9.99895573e-01 -9.99896824e-01 -9.99895990e-01
      -9.99896407e-01 -9.99897003e-01 -9.99895573e-01 -9.99896944e-01
      -9.99896646e-01 -9.99896169e-01 -9.99897003e-01 -9.99887705e-01
      -9.99896109e-01 -9.99893665e-01 -9.99892533e-01 -9.99897003e-01
      -9.99886453e-01 -9.99896228e-01 -9.99893844e-01 -9.99892473e-01
      -9.99897003e-01 -9.99888062e-01 -9.99895513e-01 -9.99892831e-01
      -9.99892116e-01 -9.99897003e-01 -9.99889910e-01 -9.99895871e-01
      -9.99892533e-01 -9.99892771e-01 -9.99897003e-01 -9.99886453e-01
      -9.99896646e-01 -9.99894142e-01 -9.99893546e-01 -9.99897003e-01
      -9.99893904e-01 -9.98380065e-01 -9.98685479e-01 -4.99543607e-01
      -9.99700725e-01 -9.99796271e-01 -9.66165185e-01 1. -9.98956084e-01
      -9.98956084e-01 -9.99548197e-01 -1. -9.99701679e-01</_>
    <_>
      -9.85489428e-01 -9.88394976e-01 -9.87941921e-01 -9.83836770e-01
      -9.79055166e-01 -9.88484561e-01 -9.99864399e-01 -9.99838591e-01
      -9.99864399e-01 -9.99839485e-01 -9.99864399e-01 -9.99851227e-01
      -9.85489428e-01 -9.97615397e-01 -9.98239636e-01 -9.98890638e-01
      -9.99271989e-01 -9.99184906e-01 -9.87941921e-01 -9.98043060e-01
      -9.94963825e-01 -9.99160767e-01 -9.98347998e-01 -9.98129904e-01
      -9.99837756e-01 -9.99817312e-01 -9.99797940e-01 -9.99864161e-01
      -9.99857306e-01 -9.99862790e-01 -9.99853194e-01 -9.99859273e-01
      -9.99864399e-01 -9.99859154e-01 -9.99862373e-01 -9.99859929e-01
      -9.99854684e-01 -9.99864399e-01 -9.99855876e-01 -9.99862790e-01
      -9.99852419e-01 -9.99859154e-01 -9.99864399e-01 -9.99853432e-01
      -9.99862671e-01 -9.99856293e-01 -9.99857128e-01 -9.99864399e-01
      -9.99855280e-01 -9.99862731e-01 -9.99854267e-01 -9.99858499e-01
      -9.99864399e-01 -9.99857426e-01 -9.99862850e-01 -9.99858975e-01
      -9.99858201e-01 -9.99864399e-01 -9.99855042e-01 -9.99863446e-01
      -9.99856353e-01 -9.99860048e-01 -9.99864399e-01 -9.99855280e-01
      -9.99862790e-01 -9.99848843e-01 -9.99858260e-01 -9.99864399e-01
      -9.99852598e-01 -9.99862313e-01 -9.99854803e-01 -9.99856234e-01
      -9.99864399e-01 -9.99859095e-01 -9.99863148e-01 -9.99857605e-01
      -9.99860644e-01 -9.99864399e-01 -9.99859571e-01 -9.99863148e-01
      -9.99859393e-01 -9.99858558e-01 -9.99864399e-01 -9.99851406e-01
      -9.99862552e-01 -9.99852300e-01 -9.99857128e-01 -9.99864399e-01
      -9.99854088e-01 -9.99862373e-01 -9.99851406e-01 -9.99855757e-01
      -9.99864399e-01 -9.99855518e-01 -9.99862611e-01 -9.99853313e-01
      -9.99857008e-01 -9.99864399e-01 -9.99856710e-01 -9.99862432e-01
      -9.99857426e-01 -9.99855399e-01 -9.99864399e-01 -9.99849737e-01
      -9.99862850e-01 -9.99852180e-01 -9.99853969e-01 -9.99864399e-01
      -9.99862671e-01 -9.97489631e-01 -9.98177826e-01 -4.99304384e-01
      -9.99611676e-01 -9.99738097e-01 -9.60164964e-01 1. -9.98548210e-01
      -9.98301208e-01 -9.99412060e-01 -1. -9.99612033e-01</_>
    <_>
      -9.83266056e-01 -9.92097676e-01 -9.93489861e-01 -9.94222999e-01
      -9.67441559e-01 -9.87671614e-01 -9.75950778e-01 -9.99845266e-01
      -9.97402966e-01 -9.99849856e-01 -9.69917357e-01 -9.99854743e-01
      -9.83266056e-01 -9.98381615e-01 -9.97901857e-01 -9.99260783e-01
      -9.97964025e-01 -9.98413742e-01 -9.93489861e-01 -9.99385834e-01
      -9.98696446e-01 -9.99247432e-01 -9.99068618e-01 -9.99242663e-01
      -9.99830186e-01 -9.99810576e-01 -9.99787033e-01 -9.99860883e-01
      -9.99859810e-01 -9.99860764e-01 -9.99860048e-01 -9.99860287e-01
      -9.99861002e-01 -9.99856353e-01 -9.99859810e-01 -9.99854624e-01
      -9.99856412e-01 -9.99861002e-01 -9.99858439e-01 -9.99859333e-01
      -9.99858260e-01 -9.99858379e-01 -9.99861002e-01 -9.99859691e-01
      -9.99860704e-01 -9.99860287e-01 -9.99860048e-01 -9.99861002e-01
      -9.99859869e-01 -9.99860704e-01 -9.99860585e-01 -9.99860525e-01
      -9.99861002e-01 -9.99856174e-01 -9.99858975e-01 -9.99858320e-01
      -9.99848723e-01 -9.99861002e-01 -9.99858975e-01 -9.99856114e-01
      -9.99857664e-01 -9.99853253e-01 -9.99861002e-01 -9.99858439e-01
      -9.99860168e-01 -9.99858022e-01 -9.99859393e-01 -9.99861002e-01
      -9.99855936e-01 -9.99860525e-01 -9.99859214e-01 -9.99859452e-01
      -9.99861002e-01 -9.99849021e-01 -9.99859810e-01 -9.99858558e-01
      -9.99855340e-01 -9.99861002e-01 -9.99860168e-01 -9.99860287e-01
      -9.99860525e-01 -9.99859631e-01 -9.99861002e-01 -9.99857366e-01
      -9.99860585e-01 -9.99859333e-01 -9.99857545e-01 -9.99861002e-01
      -9.99860048e-01 -9.99860585e-01 -9.99860406e-01 -9.99860346e-01
      -9.99861002e-01 -9.99858856e-01 -9.99859869e-01 -9.99858677e-01
      -9.99860108e-01 -9.99861002e-01 -9.99860048e-01 -9.99859750e-01
      -9.99859452e-01 -9.99858320e-01 -9.99861002e-01 -9.99859571e-01
      -9.99860764e-01 -9.99860287e-01 -9.99860287e-01 -9.99861002e-01
      -9.99859989e-01 -9.98844326e-01 -9.98483717e-01 -4.99641597e-01
      -9.99637783e-01 -9.99722898e-01 -9.39136028e-01 1. -9.98707771e-01
      -9.99124229e-01 -9.99555230e-01 -1. -9.99638021e-01</_>
    <_>
      -9.92091179e-01 -9.93125141e-01 -9.92097676e-01 -9.88600969e-01
      -9.86627162e-01 -9.90943849e-01 -9.99908745e-01 -9.99882519e-01
      -9.99908745e-01 -9.99884188e-01 -9.99908745e-01 -9.99892175e-01
      -9.92091179e-01 -9.99335647e-01 -9.98355746e-01 -9.99314487e-01
      -9.99709070e-01 -9.99360383e-01 -9.92097676e-01 -9.97175813e-01
      -9.98279393e-01 -9.99426007e-01 -9.97947872e-01 -9.99086976e-01
      -9.99898672e-01 -9.99889970e-01 -9.99884725e-01 -9.99908566e-01
      -9.99904037e-01 -9.99906838e-01 -9.99903917e-01 -9.99901175e-01
      -9.99908745e-01 -9.99905288e-01 -9.99906778e-01 -9.99904037e-01
      -9.99900937e-01 -9.99908745e-01 -9.99904871e-01 -9.99907076e-01
      -9.99903977e-01 -9.99901354e-01 -9.99908745e-01 -9.99906719e-01
      -9.99905467e-01 -9.99903917e-01 -9.99903083e-01 -9.99908745e-01
      -9.99905467e-01 -9.99906480e-01 -9.99903619e-01 -9.99902010e-01
      -9.99908745e-01 -9.99905705e-01 -9.99906659e-01 -9.99904633e-01
      -9.99901652e-01 -9.99908745e-01 -9.99907076e-01 -9.99906898e-01
      -9.99905169e-01 -9.99903738e-01 -9.99908745e-01 -9.99906600e-01
      -9.99907136e-01 -9.99904811e-01 -9.99905705e-01 -9.99908745e-01
      -9.99905944e-01 -9.99907911e-01 -9.99906242e-01 -9.99904335e-01
      -9.99908745e-01 -9.99908745e-01 -9.99908745e-01 -9.99908745e-01
      -9.99908745e-01 -9.99908745e-01 -9.99908626e-01 -9.99907136e-01
      -9.99908268e-01 -9.99908268e-01 -9.99908745e-01 -9.99907494e-01
      -9.99906957e-01 -9.99906659e-01 -9.99904394e-01 -9.99908745e-01
      -9.99905467e-01 -9.99906540e-01 -9.99902427e-01 -9.99902070e-01
      -9.99908745e-01 -9.99906540e-01 -9.99907076e-01 -9.99904454e-01
      -9.99904096e-01 -9.99908745e-01 -9.99905109e-01 -9.99906540e-01
      -9.99903560e-01 -9.99902844e-01 -9.99908745e-01 -9.99905288e-01
      -9.99906123e-01 -9.99903560e-01 -9.99901175e-01 -9.99908745e-01
      -9.99905348e-01 -9.99002337e-01 -9.99000013e-01 -4.99705106e-01
      -9.99753118e-01 -9.99815285e-01 -9.74122405e-01 1. -9.99172926e-01
      -9.99260843e-01 -9.99668717e-01 -1. -9.99753594e-01</_>
    <_>
      -9.75103736e-01 -9.83831167e-01 -9.88590956e-01 -9.89228845e-01
      -9.62510705e-01 -9.84084845e-01 -9.89996135e-01 -9.99782145e-01
      -9.95554149e-01 -9.99777198e-01 -9.67764020e-01 -9.99782085e-01
      -9.75103736e-01 -9.97010350e-01 -9.96681750e-01 -9.98872995e-01
      -9.97727513e-01 -9.98663127e-01 -9.88590956e-01 -9.98992383e-01
      -9.96674478e-01 -9.98945236e-01 -9.98143733e-01 -9.98618603e-01
      -9.99745190e-01 -9.99718785e-01 -9.99674797e-01 -9.99804199e-01
      -9.99803245e-01 -9.99804199e-01 -9.99802232e-01 -9.99804139e-01
      -9.99804378e-01 -9.99799609e-01 -9.99803364e-01 -9.99801219e-01
      -9.99798954e-01 -9.99804378e-01 -9.99803483e-01 -9.99803543e-01
      -9.99803424e-01 -9.99802947e-01 -9.99804378e-01 -9.99802768e-01
      -9.99804080e-01 -9.99803722e-01 -9.99803901e-01 -9.99804378e-01
      -9.99801517e-01 -9.99804139e-01 -9.99803662e-01 -9.99803126e-01
      -9.99804378e-01 -9.99797821e-01 -9.99803007e-01 -9.99803185e-01
      -9.99791384e-01 -9.99804378e-01 -9.99799430e-01 -9.99800801e-01
      -9.99801755e-01 -9.99795675e-01 -9.99804378e-01 -9.99801278e-01
      -9.99804318e-01 -9.99803662e-01 -9.99803960e-01 -9.99804378e-01
      -9.99798656e-01 -9.99804258e-01 -9.99803960e-01 -9.99803364e-01
      -9.99804378e-01 -9.99794900e-01 -9.99804080e-01 -9.99804199e-01
      -9.99798059e-01 -9.99804378e-01 -9.99801338e-01 -9.99804318e-01
      -9.99804318e-01 -9.99801755e-01 -9.99804378e-01 -9.99800920e-01
      -9.99804378e-01 -9.99804020e-01 -9.99804080e-01 -9.99804378e-01
      -9.99802053e-01 -9.99804318e-01 -9.99803126e-01 -9.99804080e-01
      -9.99804378e-01 -9.99798656e-01 -9.99801815e-01 -9.99802113e-01
      -9.99802470e-01 -9.99804378e-01 -9.99801934e-01 -9.99803841e-01
      -9.99803424e-01 -9.99800622e-01 -9.99804378e-01 -9.99803424e-01
      -9.99804318e-01 -9.99803960e-01 -9.99803960e-01 -9.99804378e-01
      -9.99800146e-01 -9.98939216e-01 -9.98003423e-01 -4.99636948e-01
      -9.99477744e-01 -9.99596834e-01 -9.31478500e-01 1. -9.98296559e-01
      -9.99247968e-01 -9.99378681e-01 -1. -9.99478936e-01</_>
    <_>
      -9.89020884e-01 -9.91809905e-01 -9.88253713e-01 -9.86527801e-01
      -9.83680546e-01 -9.90405023e-01 -9.99905765e-01 -9.99898791e-01
      -9.54562783e-01 -9.99894619e-01 -9.77856636e-01 -9.99902368e-01
      -9.89020884e-01 -9.98637497e-01 -9.98784781e-01 -9.98490214e-01
      -9.99648690e-01 -9.99008477e-01 -9.88253713e-01 -9.94651675e-01
      -9.96540546e-01 -9.98426557e-01 -9.96225417e-01 -9.98539209e-01
      -9.99882877e-01 -9.99884725e-01 -9.99868214e-01 -9.99905586e-01
      -9.99893963e-01 -9.99905050e-01 -9.99902129e-01 -9.99901056e-01
      -9.99905765e-01 -9.99894798e-01 -9.99904156e-01 -9.99899626e-01
      -9.99899209e-01 -9.99905765e-01 -9.99897420e-01 -9.99903858e-01
      -9.99902487e-01 -9.99900401e-01 -9.99905765e-01 -9.99895632e-01
      -9.99904633e-01 -9.99899805e-01 -9.99901831e-01 -9.99905765e-01
      -9.99894023e-01 -9.99904633e-01 -9.99901414e-01 -9.99899626e-01
      -9.99905765e-01 -9.99901652e-01 -9.99904990e-01 -9.99903917e-01
      -9.99902368e-01 -9.99905765e-01 -9.99904275e-01 -9.99905109e-01
      -9.99905109e-01 -9.99904931e-01 -9.99905765e-01 -9.99896705e-01
      -9.99905229e-01 -9.99902964e-01 -9.99903619e-01 -9.99905765e-01
      -9.99894083e-01 -9.99905109e-01 -9.99901891e-01 -9.99902487e-01
      -9.99905765e-01 -9.99900937e-01 -9.99904811e-01 -9.99903202e-01
      -9.99902606e-01 -9.99905765e-01 -9.99901056e-01 -9.99904513e-01
      -9.99901295e-01 -9.99901175e-01 -9.99905765e-01 -9.99893129e-01
      -9.99904990e-01 -9.99900877e-01 -9.99899268e-01 -9.99905765e-01
      -9.99895275e-01 -9.99904633e-01 -9.99901533e-01 -9.99901414e-01
      -9.99905765e-01 -9.99895036e-01 -9.99904037e-01 -9.99901652e-01
      -9.99900103e-01 -9.99905765e-01 -9.99892890e-01 -9.99904752e-01
      -9.99900043e-01 -9.99900043e-01 -9.99905765e-01 -9.99890804e-01
      -9.99904990e-01 -9.99900401e-01 -9.99901175e-01 -9.99905765e-01
      -9.99905348e-01 -9.98426318e-01 -9.98688579e-01 -4.99559551e-01
      -9.99728203e-01 -9.99822795e-01 -9.68930900e-01 1. -9.98956680e-01
      -9.99013543e-01 -9.99588847e-01 -1. -9.99728620e-01</_>
    <_>
      -9.83266056e-01 -9.92097676e-01 -9.93489861e-01 -9.94222999e-01
      -9.67441559e-01 -9.87671614e-01 -9.75950778e-01 -9.99845266e-01
      -9.97402966e-01 -9.99849856e-01 -9.69917357e-01 -9.99854743e-01
      -9.83266056e-01 -9.98381615e-01 -9.97901857e-01 -9.99260783e-01
      -9.97964025e-01 -9.98413742e-01 -9.93489861e-01 -9.99385834e-01
      -9.98696446e-01 -9.99247432e-01 -9.99068618e-01 -9.99242663e-01
      -9.99830186e-01 -9.99810576e-01 -9.99787033e-01 -9.99860883e-01
      -9.99859810e-01 -9.99860764e-01 -9.99860048e-01 -9.99860287e-01
      -9.99861002e-01 -9.99856353e-01 -9.99859810e-01 -9.99854624e-01
      -9.99856412e-01 -9.99861002e-01 -9.99858439e-01 -9.99859333e-01
      -9.99858260e-01 -9.99858379e-01 -9.99861002e-01 -9.99859691e-01
      -9.99860704e-01 -9.99860287e-01 -9.99860048e-01 -9.99861002e-01
      -9.99859869e-01 -9.99860704e-01 -9.99860585e-01 -9.99860525e-01
      -9.99861002e-01 -9.99856174e-01 -9.99858975e-01 -9.99858320e-01
      -9.99848723e-01 -9.99861002e-01 -9.99858975e-01 -9.99856114e-01
      -9.99857664e-01 -9.99853253e-01 -9.99861002e-01 -9.99858439e-01
      -9.99860168e-01 -9.99858022e-01 -9.99859393e-01 -9.99861002e-01
      -9.99855936e-01 -9.99860525e-01 -9.99859214e-01 -9.99859452e-01
      -9.99861002e-01 -9.99849021e-01 -9.99859810e-01 -9.99858558e-01
      -9.99855340e-01 -9.99861002e-01 -9.99860168e-01 -9.99860287e-01
      -9.99860525e-01 -9.99859631e-01 -9.99861002e-01 -9.99857366e-01
      -9.99860585e-01 -9.99859333e-01 -9.99857545e-01 -9.99861002e-01
      -9.99860048e-01 -9.99860585e-01 -9.99860406e-01 -9.99860346e-01
      -9.99861002e-01 -9.99858856e-01 -9.99859869e-01 -9.99858677e-01
      -9.99860108e-01 -9.99861002e-01 -9.99860048e-01 -9.99859750e-01
      -9.99859452e-01 -9.99858320e-01 -9.99861002e-01 -9.99859571e-01
      -9.99860764e-01 -9.99860287e-01 -9.99860287e-01 -9.99861002e-01
      -9.99859989e-01 -9.98844326e-01 -9.98483717e-01 -4.99641597e-01
      -9.99637783e-01 -9.99722898e-01 -9.39136028e-01 1. -9.98707771e-01
      -9.99124229e-01 -9.99555230e-01 -1. -9.99638021e-01</_>
    <_>
      -9.88965213e-01 -9.91772115e-01 -9.88217950e-01 -9.86493051e-01
      -9.83674824e-01 -9.90394950e-01 -9.94554698e-01 -9.99876916e-01
      -9.54586327e-01 -9.99872446e-01 -9.78034437e-01 -9.99880433e-01
      -9.88965213e-01 -9.98773217e-01 -9.98633802e-01 -9.98990476e-01
      -9.99581456e-01 -9.98452067e-01 -9.88217950e-01 -9.96516347e-01
      -9.94604230e-01 -9.98496890e-01 -9.98414278e-01 -9.98382449e-01
      -9.99860883e-01 -9.99862790e-01 -9.99846339e-01 -9.99883592e-01
      -9.99881923e-01 -9.99877632e-01 -9.99879062e-01 -9.99879241e-01
      -9.99883771e-01 -9.99882221e-01 -9.99877572e-01 -9.99879777e-01
      -9.99879599e-01 -9.99883771e-01 -9.99882221e-01 -9.99877751e-01
      -9.99877393e-01 -9.99878883e-01 -9.99883771e-01 -9.99882638e-01
      -9.99877334e-01 -9.99878168e-01 -9.99878883e-01 -9.99883771e-01
      -9.99881387e-01 -9.99877870e-01 -9.99878347e-01 -9.99879122e-01
      -9.99883771e-01 -9.99882281e-01 -9.99881923e-01 -9.99881208e-01
      -9.99881446e-01 -9.99883771e-01 -9.99882519e-01 -9.99882400e-01
      -9.99881208e-01 -9.99882519e-01 -9.99883771e-01 -9.99880791e-01
      -9.99878526e-01 -9.99878705e-01 -9.99878466e-01 -9.99883771e-01
      -9.99882221e-01 -9.99876976e-01 -9.99877751e-01 -9.99877334e-01
      -9.99883771e-01 -9.99881148e-01 -9.99881506e-01 -9.99879658e-01
      -9.99880254e-01 -9.99883771e-01 -9.99882638e-01 -9.99882638e-01
      -9.99882817e-01 -9.99882877e-01 -9.99883771e-01 -9.99880373e-01
      -9.99879718e-01 -9.99878347e-01 -9.99881148e-01 -9.99883771e-01
      -9.99882400e-01 -9.99875367e-01 -9.99877870e-01 -9.99878109e-01
      -9.99883771e-01 -9.99882400e-01 -9.99877572e-01 -9.99877036e-01
      -9.99878049e-01 -9.99883771e-01 -9.99882877e-01 -9.99879301e-01
      -9.99880552e-01 -9.99879956e-01 -9.99883771e-01 -9.99881864e-01
      -9.99878287e-01 -9.99879420e-01 -9.99877393e-01 -9.99883771e-01
      -9.99883115e-01 -9.99398768e-01 -9.98770177e-01 -4.99791443e-01
      -9.99706268e-01 -9.99771416e-01 -9.68941212e-01 1. -9.98936474e-01
      -9.99572337e-01 -9.99649584e-01 -1. -9.99706328e-01</_>
    <_>
      -9.91998255e-01 -9.93052006e-01 -9.91855502e-01 -9.88344252e-01
      -9.86626089e-01 -9.90949273e-01 -9.99913275e-01 -9.99887645e-01
      -9.99913275e-01 -9.99889672e-01 -9.99913275e-01 -9.99897122e-01
      -9.91998255e-01 -9.98322070e-01 -9.99334991e-01 -9.99379218e-01
      -9.99032736e-01 -9.99318242e-01 -9.91855502e-01 -9.98193443e-01
      -9.96989787e-01 -9.99147236e-01 -9.98417079e-01 -9.99345362e-01
      -9.99903202e-01 -9.99894500e-01 -9.99889314e-01 -9.99913096e-01
      -9.99908447e-01 -9.99911845e-01 -9.99906659e-01 -9.99907136e-01
      -9.99913275e-01 -9.99911487e-01 -9.99912024e-01 -9.99908507e-01
      -9.99910295e-01 -9.99913275e-01 -9.99908209e-01 -9.99911845e-01
      -9.99906898e-01 -9.99908149e-01 -9.99913275e-01 -9.99909401e-01
      -9.99911368e-01 -9.99905527e-01 -9.99908984e-01 -9.99913275e-01
      -9.99909997e-01 -9.99912381e-01 -9.99909341e-01 -9.99909997e-01
      -9.99913275e-01 -9.99913275e-01 -9.99913275e-01 -9.99913275e-01
      -9.99913275e-01 -9.99913275e-01 -9.99909282e-01 -9.99911785e-01
      -9.99906778e-01 -9.99909043e-01 -9.99913275e-01 -9.99908984e-01
      -9.99911726e-01 -9.99906182e-01 -9.99909163e-01 -9.99913275e-01
      -9.99908626e-01 -9.99911487e-01 -9.99907255e-01 -9.99908090e-01
      -9.99913275e-01 -9.99911010e-01 -9.99913275e-01 -9.99913096e-01
      -9.99913096e-01 -9.99913275e-01 -9.99909759e-01 -9.99912679e-01
      -9.99909341e-01 -9.99909937e-01 -9.99913275e-01 -9.99908924e-01
      -9.99911189e-01 -9.99905288e-01 -9.99908507e-01 -9.99913275e-01
      -9.99908149e-01 -9.99911785e-01 -9.99906123e-01 -9.99908805e-01
      -9.99913275e-01 -9.99909580e-01 -9.99912500e-01 -9.99909341e-01
      -9.99911487e-01 -9.99913275e-01 -9.99909997e-01 -9.99912262e-01
      -9.99910235e-01 -9.99909520e-01 -9.99913275e-01 -9.99906898e-01
      -9.99912500e-01 -9.99908745e-01 -9.99909282e-01 -9.99913275e-01
      -9.99910057e-01 -9.98490274e-01 -9.98985410e-01 -4.99579251e-01
      -9.99757767e-01 -9.99825180e-01 -9.74116802e-01 1. -9.99175787e-01
      -9.98867154e-01 -9.99653816e-01 -1. -9.99758303e-01</_>
    <_>
      -9.90254700e-01 -9.92902160e-01 -9.91813362e-01 -9.88189638e-01
      -9.82555866e-01 -9.89829659e-01 -9.99897003e-01 -9.99871135e-01
      -9.99897003e-01 -9.99871612e-01 -9.99897003e-01 -9.99877572e-01
      -9.90254700e-01 -9.98637378e-01 -9.98730719e-01 -9.99617219e-01
      -9.99347985e-01 -9.99354243e-01 -9.91813362e-01 -9.98151183e-01
      -9.98260319e-01 -9.98834670e-01 -9.98473763e-01 -9.98948276e-01
      -9.99881327e-01 -9.99874234e-01 -9.99865770e-01 -9.99896824e-01
      -9.99885976e-01 -9.99896109e-01 -9.99893248e-01 -9.99892354e-01
      -9.99897003e-01 -9.99884784e-01 -9.99896049e-01 -9.99892831e-01
      -9.99891818e-01 -9.99897003e-01 -9.99888420e-01 -9.99895692e-01
      -9.99893725e-01 -9.99891043e-01 -9.99897003e-01 -9.99887466e-01
      -9.99896049e-01 -9.99892354e-01 -9.99893129e-01 -9.99897003e-01
      -9.99885201e-01 -9.99895871e-01 -9.99892533e-01 -9.99891520e-01
      -9.99897003e-01 -9.99894917e-01 -9.99896526e-01 -9.99896467e-01
      -9.99895573e-01 -9.99897003e-01 -9.99895215e-01 -9.99896646e-01
      -9.99895632e-01 -9.99895990e-01 -9.99897003e-01 -9.99886870e-01
      -9.99896228e-01 -9.99893188e-01 -9.99892652e-01 -9.99897003e-01
      -9.99884486e-01 -9.99896169e-01 -9.99893129e-01 -9.99893546e-01
      -9.99897003e-01 -9.99895573e-01 -9.99896824e-01 -9.99895990e-01
      -9.99896407e-01 -9.99897003e-01 -9.99895573e-01 -9.99896944e-01
      -9.99896646e-01 -9.99896169e-01 -9.99897003e-01 -9.99887705e-01
      -9.99896109e-01 -9.99893665e-01 -9.99892533e-01 -9.99897003e-01
      -9.99886453e-01 -9.99896228e-01 -9.99893844e-01 -9.99892473e-01
      -9.99897003e-01 -9.99888062e-01 -9.99895513e-01 -9.99892831e-01
      -9.99892116e-01 -9.99897003e-01 -9.99889910e-01 -9.99895871e-01
      -9.99892533e-01 -9.99892771e-01 -9.99897003e-01 -9.99886453e-01
      -9.99896646e-01 -9.99894142e-01 -9.99893546e-01 -9.99897003e-01
      -9.99893904e-01 -9.98380065e-01 -9.98685479e-01 -4.99543607e-01
      -9.99700725e-01 -9.99796271e-01 -9.66165185e-01 1. -9.98956084e-01
      -9.98956084e-01 -9.99548197e-01 -1. -9.99701679e-01</_>
    <_>
      -9.94042993e-01 -9.96528924e-01 -9.96847689e-01 -9.94633317e-01
      -9.88499105e-01 -9.93316114e-01 -9.99945998e-01 -9.99934554e-01
      -9.99945998e-01 -9.99934793e-01 -9.99945998e-01 -9.99937177e-01
      -9.94042993e-01 -9.98958230e-01 -9.99208331e-01 -9.99687433e-01
      -9.99295771e-01 -9.99506056e-01 -9.96847689e-01 -9.99343991e-01
      -9.98850167e-01 -9.99331415e-01 -9.99291956e-01 -9.99693334e-01
      -9.99938190e-01 -9.99939978e-01 -9.99935210e-01 -9.99945879e-01
      -9.99944687e-01 -9.99945939e-01 -9.99945462e-01 -9.99945581e-01
      -9.99945998e-01 -9.99944866e-01 -9.99945164e-01 -9.99944627e-01
      -9.99943733e-01 -9.99945998e-01 -9.99943852e-01 -9.99945581e-01
      -9.99944508e-01 -9.99944448e-01 -9.99945998e-01 -9.99945223e-01
      -9.99945939e-01 -9.99945700e-01 -9.99945819e-01 -9.99945998e-01
      -9.99943674e-01 -9.99945760e-01 -9.99945283e-01 -9.99945283e-01
      -9.99945998e-01 -9.99943733e-01 -9.99945521e-01 -9.99945283e-01
      -9.99944806e-01 -9.99945998e-01 -9.99945521e-01 -9.99945879e-01
      -9.99945760e-01 -9.99945819e-01 -9.99945998e-01 -9.99944746e-01
      -9.99945998e-01 -9.99945819e-01 -9.99945879e-01 -9.99945998e-01
      -9.99943435e-01 -9.99945819e-01 -9.99945223e-01 -9.99945402e-01
      -9.99945998e-01 -9.99942780e-01 -9.99945641e-01 -9.99944985e-01
      -9.99944925e-01 -9.99945998e-01 -9.99945521e-01 -9.99945760e-01
      -9.99945521e-01 -9.99945104e-01 -9.99945998e-01 -9.99945462e-01
      -9.99945939e-01 -9.99945819e-01 -9.99945760e-01 -9.99945998e-01
      -9.99943793e-01 -9.99945760e-01 -9.99944866e-01 -9.99944866e-01
      -9.99945998e-01 -9.99943674e-01 -9.99945581e-01 -9.99944746e-01
      -9.99944329e-01 -9.99945998e-01 -9.99944806e-01 -9.99945641e-01
      -9.99945164e-01 -9.99945283e-01 -9.99945998e-01 -9.99945998e-01
      -9.99945998e-01 -9.99945998e-01 -9.99945998e-01 -9.99945998e-01
      -9.99944568e-01 -9.99200881e-01 -9.99425709e-01 -4.99773026e-01
      -9.99859333e-01 -9.99892175e-01 -9.77656007e-01 1. -9.99514878e-01
      -9.99355972e-01 -9.99817073e-01 -1. -9.99859452e-01</_>
    <_>
      -9.91998255e-01 -9.93052006e-01 -9.91855502e-01 -9.88344252e-01
      -9.86626089e-01 -9.90949273e-01 -9.99913275e-01 -9.99887645e-01
      -9.99913275e-01 -9.99889672e-01 -9.99913275e-01 -9.99897122e-01
      -9.91998255e-01 -9.98322070e-01 -9.99334991e-01 -9.99379218e-01
      -9.99032736e-01 -9.99318242e-01 -9.91855502e-01 -9.98193443e-01
      -9.96989787e-01 -9.99147236e-01 -9.98417079e-01 -9.99345362e-01
      -9.99903202e-01 -9.99894500e-01 -9.99889314e-01 -9.99913096e-01
      -9.99908447e-01 -9.99911845e-01 -9.99906659e-01 -9.99907136e-01
      -9.99913275e-01 -9.99911487e-01 -9.99912024e-01 -9.99908507e-01
      -9.99910295e-01 -9.99913275e-01 -9.99908209e-01 -9.99911845e-01
      -9.99906898e-01 -9.99908149e-01 -9.99913275e-01 -9.99909401e-01
      -9.99911368e-01 -9.99905527e-01 -9.99908984e-01 -9.99913275e-01
      -9.99909997e-01 -9.99912381e-01 -9.99909341e-01 -9.99909997e-01
      -9.99913275e-01 -9.99913275e-01 -9.99913275e-01 -9.99913275e-01
      -9.99913275e-01 -9.99913275e-01 -9.99909282e-01 -9.99911785e-01
      -9.99906778e-01 -9.99909043e-01 -9.99913275e-01 -9.99908984e-01
      -9.99911726e-01 -9.99906182e-01 -9.99909163e-01 -9.99913275e-01
      -9.99908626e-01 -9.99911487e-01 -9.99907255e-01 -9.99908090e-01
      -9.99913275e-01 -9.99911010e-01 -9.99913275e-01 -9.99913096e-01
      -9.99913096e-01 -9.99913275e-01 -9.99909759e-01 -9.99912679e-01
      -9.99909341e-01 -9.99909937e-01 -9.99913275e-01 -9.99908924e-01
      -9.99911189e-01 -9.99905288e-01 -9.99908507e-01 -9.99913275e-01
      -9.99908149e-01 -9.99911785e-01 -9.99906123e-01 -9.99908805e-01
      -9.99913275e-01 -9.99909580e-01 -9.99912500e-01 -9.99909341e-01
      -9.99911487e-01 -9.99913275e-01 -9.99909997e-01 -9.99912262e-01
      -9.99910235e-01 -9.99909520e-01 -9.99913275e-01 -9.99906898e-01
      -9.99912500e-01 -9.99908745e-01 -9.99909282e-01 -9.99913275e-01
      -9.99910057e-01 -9.98490274e-01 -9.98985410e-01 -4.99579251e-01
      -9.99757767e-01 -9.99825180e-01 -9.74116802e-01 1. -9.99175787e-01
      -9.98867154e-01 -9.99653816e-01 -1. -9.99758303e-01</_>
    <_>
      -9.85489428e-01 -9.88394976e-01 -9.87941921e-01 -9.83836770e-01
      -9.79055166e-01 -9.88484561e-01 -9.99864399e-01 -9.99838591e-01
      -9.99864399e-01 -9.99839485e-01 -9.99864399e-01 -9.99851227e-01
      -9.85489428e-01 -9.97615397e-01 -9.98239636e-01 -9.98890638e-01
      -9.99271989e-01 -9.99184906e-01 -9.87941921e-01 -9.98043060e-01
      -9.94963825e-01 -9.99160767e-01 -9.98347998e-01 -9.98129904e-01
      -9.99837756e-01 -9.99817312e-01 -9.99797940e-01 -9.99864161e-01
      -9.99857306e-01 -9.99862790e-01 -9.99853194e-01 -9.99859273e-01
