<?xml version="1.0"?>
<opencv_storage>
<my_svm type_id="opencv-ml-svm">
  <svm_type>C_SVC</svm_type>
  <kernel><type>RBF</type>
    <gamma>5.0625000000000009e-01</gamma></kernel>
  <C>3.1250000000000000e+02</C>
  <term_criteria><epsilon>9.9999999747524271e-07</epsilon>
    <iterations>10000</iterations></term_criteria>
  <var_all>121</var_all>
  <var_count>121</var_count>
  <class_count>2</class_count>
  <class_labels type_id="opencv-matrix">
    <rows>1</rows>
    <cols>2</cols>
    <dt>i</dt>
    <data>
      -1 1</data></class_labels>
  <sv_total>356</sv_total>
  <support_vectors>
    <_>
      -9.86911893e-01 -9.90755379e-01 -9.94257510e-01 -9.95584488e-01
      -9.74277258e-01 -9.89403248e-01 -9.99898374e-01 -9.99886215e-01
      -9.99898374e-01 -9.99888241e-01 -9.51400936e-01 -9.99881923e-01
      -9.86911893e-01 -9.97882009e-01 -9.97381210e-01 -9.99217987e-01
      -9.99160588e-01 -9.99226093e-01 -9.94257510e-01 -9.99289334e-01
      -9.99313056e-01 -9.99689877e-01 -9.98792827e-01 -9.99255419e-01
      -9.99858499e-01 -9.99859393e-01 -9.99829412e-01 -9.99898255e-01
      -9.99890506e-01 -9.99893129e-01 -9.99882579e-01 -9.99888361e-01
      -9.99898374e-01 -9.99885321e-01 -9.99892116e-01 -9.99877453e-01
      -9.99885261e-01 -9.99898374e-01 -9.99885321e-01 -9.99891520e-01
      -9.99882460e-01 -9.99883354e-01 -9.99898374e-01 -9.99884188e-01
      -9.99892175e-01 -9.99885798e-01 -9.99878764e-01 -9.99898374e-01
      -9.99895930e-01 -9.99892235e-01 -9.99895990e-01 -9.99897063e-01
      -9.99898374e-01 -9.99889314e-01 -9.99886572e-01 -9.99883056e-01
      -9.99883115e-01 -9.99898374e-01 -9.99888837e-01 -9.99887526e-01
      -9.99882400e-01 -9.99881983e-01 -9.99898374e-01 -9.99885321e-01
      -9.99891281e-01 -9.99882936e-01 -9.99880910e-01 -9.99898374e-01
      -9.99894381e-01 -9.99888659e-01 -9.99891520e-01 -9.99891937e-01
      -9.99898374e-01 -9.99890208e-01 -9.99887943e-01 -9.99885499e-01
      -9.99884784e-01 -9.99898374e-01 -9.99889016e-01 -9.99889314e-01
      -9.99884307e-01 -9.99882758e-01 -9.99898374e-01 -9.99886513e-01
      -9.99889433e-01 -9.99878526e-01 -9.99884248e-01 -9.99898374e-01
      -9.99890566e-01 -9.99889135e-01 -9.99888241e-01 -9.99883235e-01
      -9.99898374e-01 -9.99888837e-01 -9.99889314e-01 -9.99881327e-01
      -9.99882579e-01 -9.99898374e-01 -9.99889791e-01 -9.99890029e-01
      -9.99882936e-01 -9.99884129e-01 -9.99898374e-01 -9.99889851e-01
      -9.99891520e-01 -9.99882758e-01 -9.99885917e-01 -9.99898374e-01
      -9.99897778e-01 -9.97139573e-01 -9.98546600e-01 -4.99234021e-01
      -9.99708712e-01 -9.99808788e-01 -9.51696157e-01 1. -9.98850048e-01
      -9.97935951e-01 -9.99543309e-01 -1. -9.99708712e-01</_>
    <_>
      -9.84963894e-01 -9.90361154e-01 -9.84568298e-01 -9.90585506e-01
      -9.72389460e-01 -9.85623360e-01 -9.73776579e-01 -9.99860287e-01
      -9.84550476e-01 -9.99870658e-01 -9.38821256e-01 -9.99868155e-01
      -9.84963894e-01 -9.98713076e-01 -9.95055556e-01 -9.99577045e-01
      -9.98608530e-01 -9.98705745e-01 -9.84568298e-01 -9.98209059e-01
      -9.97385681e-01 -9.98527646e-01 -9.99102294e-01 -9.98585165e-01
      -9.99801040e-01 -9.99800920e-01 -9.99738574e-01 -9.99873221e-01
      -9.99863088e-01 -9.99863267e-01 -9.99854386e-01 -9.99859273e-01
      -9.99873400e-01 -9.99861777e-01 -9.99864519e-01 -9.99862313e-01
      -9.99860704e-01 -9.99873400e-01 -9.99865413e-01 -9.99869525e-01
      -9.99864519e-01 -9.99864221e-01 -9.99873400e-01 -9.99864280e-01
      -9.99870300e-01 -9.99865413e-01 -9.99862015e-01 -9.99873400e-01
      -9.99867558e-01 -9.99862969e-01 -9.99864995e-01 -9.99864519e-01
      -9.99873400e-01 -9.99866307e-01 -9.99866426e-01 -9.99864995e-01
      -9.99863803e-01 -9.99873400e-01 -9.99863982e-01 -9.99867320e-01
      -9.99859631e-01 -9.99860823e-01 -9.99873400e-01 -9.99861300e-01
      -9.99870181e-01 -9.99860048e-01 -9.99865055e-01 -9.99873400e-01
      -9.99870837e-01 -9.99867916e-01 -9.99870837e-01 -9.99868333e-01
      -9.99873400e-01 -9.99857306e-01 -9.99868095e-01 -9.99858499e-01
      -9.99853134e-01 -9.99873400e-01 -9.99856770e-01 -9.99867618e-01
      -9.99852359e-01 -9.99856114e-01 -9.99873400e-01 -9.99859571e-01
      -9.99867916e-01 -9.99853551e-01 -9.99860287e-01 -9.99873400e-01
      -9.99864280e-01 -9.99868393e-01 -9.99869108e-01 -9.99863803e-01
      -9.99873400e-01 -9.99858141e-01 -9.99869049e-01 -9.99857187e-01
      -9.99855101e-01 -9.99873400e-01 -9.99856889e-01 -9.99868929e-01
      -9.99852121e-01 -9.99858379e-01 -9.99873400e-01 -9.99860585e-01
      -9.99868274e-01 -9.99848723e-01 -9.99859035e-01 -9.99873400e-01
      -9.99873161e-01 -9.95685756e-01 -9.98072326e-01 -4.98858184e-01
      -9.99634981e-01 -9.99766469e-01 -9.52074289e-01 1. -9.98484194e-01
      -9.96956050e-01 -9.99404967e-01 -1. -9.99634504e-01</_>
    <_>
      -9.77672577e-01 -9.87480521e-01 -9.81826603e-01 -9.88811433e-01
      -9.77477372e-01 -9.84070659e-01 -9.69245970e-01 -9.99799907e-01
      -9.89718318e-01 -9.99810576e-01 -9.90279198e-01 -9.99809444e-01
      -9.77672577e-01 -9.96743619e-01 -9.95478392e-01 -9.98558581e-01
      -9.98138607e-01 -9.99313235e-01 -9.81826603e-01 -9.97762263e-01
      -9.96344388e-01 -9.98383403e-01 -9.98481393e-01 -9.97580290e-01
      -9.99742270e-01 -9.99761701e-01 -9.99704719e-01 -9.99814093e-01
      -9.99807715e-01 -9.99805689e-01 -9.99802351e-01 -9.99802768e-01
      -9.99814272e-01 -9.99807298e-01 -9.99806821e-01 -9.99803483e-01
      -9.99800980e-01 -9.99814272e-01 -9.99809802e-01 -9.99809444e-01
      -9.99807060e-01 -9.99806523e-01 -9.99814272e-01 -9.99812603e-01
      -9.99810398e-01 -9.99810696e-01 -9.99809384e-01 -9.99814272e-01
      -9.99807179e-01 -9.99808788e-01 -9.99797642e-01 -9.99804676e-01
      -9.99814272e-01 -9.99814034e-01 -9.99813914e-01 -9.99813676e-01
      -9.99813855e-01 -9.99814272e-01 -9.99809623e-01 -9.99811769e-01
      -9.99808073e-01 -9.99809682e-01 -9.99814272e-01 -9.99810100e-01
      -9.99812305e-01 -9.99810398e-01 -9.99809206e-01 -9.99814272e-01
      -9.99811769e-01 -9.99802470e-01 -9.99809563e-01 -9.99807179e-01
      -9.99814272e-01 -9.99810994e-01 -9.99810100e-01 -9.99808669e-01
      -9.99808550e-01 -9.99814272e-01 -9.99811053e-01 -9.99810338e-01
      -9.99809980e-01 -9.99808371e-01 -9.99814272e-01 -9.99809921e-01
      -9.99809444e-01 -9.99808788e-01 -9.99808967e-01 -9.99814272e-01
      -9.99812543e-01 -9.99810994e-01 -9.99812484e-01 -9.99810517e-01
      -9.99814272e-01 -9.99813318e-01 -9.99813080e-01 -9.99812424e-01
      -9.99812424e-01 -9.99814272e-01 -9.99812305e-01 -9.99812603e-01
      -9.99810696e-01 -9.99810815e-01 -9.99814212e-01 -9.99813855e-01
      -9.99813855e-01 -9.99813735e-01 -9.99813735e-01 -9.99814272e-01
      -9.99813437e-01 -9.97508407e-01 -9.98012662e-01 -4.99284148e-01
      -9.99534428e-01 -9.99635339e-01 -9.62301791e-01 1. -9.98273909e-01
      -9.97824311e-01 -9.99462783e-01 -1. -9.99534070e-01</_>
    <_>
      -9.76048172e-01 -9.83447134e-01 -9.87495482e-01 -9.89235222e-01
      -9.49374139e-01 -9.84846175e-01 -9.61095989e-01 -9.99814570e-01
      -9.94844437e-01 -9.99819517e-01 -9.48440373e-01 -9.99825478e-01
      -9.76048172e-01 -9.98540163e-01 -9.93583262e-01 -9.98286486e-01
      -9.96246159e-01 -9.98920679e-01 -9.87495482e-01 -9.99471843e-01
      -9.98989761e-01 -9.98519599e-01 -9.99096870e-01 -9.98667598e-01
      -9.99724865e-01 -9.99739766e-01 -9.99654591e-01 -9.99829829e-01
      -9.99807596e-01 -9.99811351e-01 -9.99798954e-01 -9.99799967e-01
      -9.99830008e-01 -9.99809265e-01 -9.99813437e-01 -9.99802053e-01
      -9.99799550e-01 -9.99830008e-01 -9.99806166e-01 -9.99817431e-01
      -9.99806225e-01 -9.99787688e-01 -9.99830008e-01 -9.99808013e-01
      -9.99818444e-01 -9.99804139e-01 -9.99777853e-01 -9.99830008e-01
      -9.99813914e-01 -9.99810100e-01 -9.99799728e-01 -9.99802649e-01
      -9.99830008e-01 -9.99812841e-01 -9.99809206e-01 -9.99800205e-01
      -9.99800444e-01 -9.99830008e-01 -9.99804199e-01 -9.99817669e-01
      -9.99801993e-01 -9.99800205e-01 -9.99830008e-01 -9.99807715e-01
      -9.99818563e-01 -9.99799073e-01 -9.99781430e-01 -9.99830008e-01
      -9.99808669e-01 -9.99816835e-01 -9.99802172e-01 -9.99792755e-01
      -9.99830008e-01 -9.99810576e-01 -9.99814630e-01 -9.99798059e-01
      -9.99789059e-01 -9.99830008e-01 -9.99801397e-01 -9.99817252e-01
      -9.99794483e-01 -9.99798298e-01 -9.99830008e-01 -9.99803424e-01
      -9.99820292e-01 -9.99792993e-01 -9.99791086e-01 -9.99830008e-01
      -9.99808788e-01 -9.99819160e-01 -9.99801338e-01 -9.99790788e-01
      -9.99830008e-01 -9.99808788e-01 -9.99818742e-01 -9.99801397e-01
      -9.99794006e-01 -9.99830008e-01 -9.99809444e-01 -9.99815464e-01
      -9.99796689e-01 -9.99801517e-01 -9.99830008e-01 -9.99802589e-01
      -9.99819160e-01 -9.99794662e-01 -9.99793768e-01 -9.99830008e-01
      -9.99829650e-01 -9.90608692e-01 -9.96902943e-01 -4.97567177e-01
      -9.99450028e-01 -9.99697626e-01 -9.04022634e-01 1. -9.97685492e-01
      -9.94219065e-01 -9.98978436e-01 -1. -9.99449015e-01</_>
    <_>
      -9.78879273e-01 -9.88407433e-01 -9.87630308e-01 -9.88006055e-01
      -9.47566628e-01 -9.85848546e-01 -9.90509927e-01 -9.99816597e-01
      -9.91586030e-01 -9.99826431e-01 -9.51411486e-01 -9.99831796e-01
      -9.78879273e-01 -9.97964442e-01 -9.93871033e-01 -9.99569297e-01
      -9.98969555e-01 -9.98175144e-01 -9.87630308e-01 -9.98109698e-01
      -9.98592794e-01 -9.99418914e-01 -9.99558330e-01 -9.98661578e-01
      -9.99754608e-01 -9.99745905e-01 -9.99678314e-01 -9.99835968e-01
      -9.99825776e-01 -9.99814987e-01 -9.99806464e-01 -9.99805391e-01
      -9.99836206e-01 -9.99826252e-01 -9.99812722e-01 -9.99802589e-01
      -9.99805331e-01 -9.99836206e-01 -9.99824226e-01 -9.99813974e-01
      -9.99806583e-01 -9.99799430e-01 -9.99836206e-01 -9.99821007e-01
      -9.99815643e-01 -9.99808967e-01 -9.99799669e-01 -9.99836206e-01
      -9.99826968e-01 -9.99811232e-01 -9.99802589e-01 -9.99801338e-01
      -9.99836206e-01 -9.99827385e-01 -9.99809802e-01 -9.99804974e-01
      -9.99800503e-01 -9.99836206e-01 -9.99824941e-01 -9.99810874e-01
      -9.99807477e-01 -9.99801159e-01 -9.99836206e-01 -9.99821246e-01
      -9.99817133e-01 -9.99803185e-01 -9.99805391e-01 -9.99836206e-01
      -9.99823332e-01 -9.99811351e-01 -9.99800563e-01 -9.99801159e-01
      -9.99836206e-01 -9.99823689e-01 -9.99810457e-01 -9.99802649e-01
      -9.99800861e-01 -9.99836206e-01 -9.99821484e-01 -9.99812722e-01
      -9.99803185e-01 -9.99803066e-01 -9.99836206e-01 -9.99822676e-01
      -9.99815345e-01 -9.99799371e-01 -9.99811292e-01 -9.99836206e-01
      -9.99820232e-01 -9.99823034e-01 -9.99800086e-01 -9.99803424e-01
      -9.99836147e-01 -9.99819219e-01 -9.99819160e-01 -9.99796689e-01
      -9.99798000e-01 -9.99836206e-01 -9.99818027e-01 -9.99819636e-01
      -9.99801695e-01 -9.99803483e-01 -9.99836206e-01 -9.99821305e-01
      -9.99819815e-01 -9.99792218e-01 -9.99813616e-01 -9.99836206e-01
      -9.99835908e-01 -9.94504690e-01 -9.97151971e-01 -4.98544306e-01
      -9.99479413e-01 -9.99716640e-01 -8.99022698e-01 1. -9.97849166e-01
      -9.97111499e-01 -9.99086618e-01 -1. -9.99479651e-01</_>
    <_>
      -9.71836746e-01 -9.83098209e-01 -9.73688841e-01 -9.83228207e-01
      -9.74133849e-01 -9.82298195e-01 -9.64465678e-01 -9.99819398e-01
      -9.20019448e-01 -9.99826550e-01 -9.81680810e-01 -9.99830961e-01
      -9.71836746e-01 -9.96404767e-01 -9.95314062e-01 -9.98380065e-01
      -9.96508718e-01 -9.98610079e-01 -9.73688841e-01 -9.98226047e-01
      -9.97329175e-01 -9.97303724e-01 -9.96558070e-01 -9.98226643e-01
      -9.99749184e-01 -9.99752223e-01 -9.99686599e-01 -9.99834716e-01
      -9.99823272e-01 -9.99825656e-01 -9.99809504e-01 -9.99813974e-01
      -9.99834895e-01 -9.99818265e-01 -9.99823213e-01 -9.99823272e-01
      -9.99824226e-01 -9.99834895e-01 -9.99816060e-01 -9.99823868e-01
      -9.99826193e-01 -9.99822736e-01 -9.99834895e-01 -9.99820173e-01
      -9.99827325e-01 -9.99819100e-01 -9.99803841e-01 -9.99834895e-01
      -9.99823868e-01 -9.99824345e-01 -9.99819160e-01 -9.99815583e-01
      -9.99834895e-01 -9.99822915e-01 -9.99825597e-01 -9.99819577e-01
      -9.99815404e-01 -9.99834895e-01 -9.99818742e-01 -9.99824643e-01
      -9.99818027e-01 -9.99817133e-01 -9.99834895e-01 -9.99822259e-01
      -9.99824762e-01 -9.99816537e-01 -9.99809206e-01 -9.99834895e-01
      -9.99833465e-01 -9.99823570e-01 -9.99831140e-01 -9.99831975e-01
      -9.99834895e-01 -9.99830246e-01 -9.99826789e-01 -9.99828339e-01
      -9.99827981e-01 -9.99834895e-01 -9.99829233e-01 -9.99830723e-01
      -9.99827921e-01 -9.99827445e-01 -9.99834895e-01 -9.99828339e-01
      -9.99832928e-01 -9.99827087e-01 -9.99829888e-01 -9.99834895e-01
      -9.99830961e-01 -9.99829590e-01 -9.99830306e-01 -9.99823749e-01
      -9.99834895e-01 -9.99821067e-01 -9.99827325e-01 -9.99816716e-01
      -9.99806941e-01 -9.99834895e-01 -9.99823749e-01 -9.99828696e-01
      -9.99816000e-01 -9.99816716e-01 -9.99834895e-01 -9.99825597e-01
      -9.99829292e-01 -9.99813557e-01 -9.99824464e-01 -9.99834836e-01
      -9.99834538e-01 -9.91164386e-01 -9.97547805e-01 -4.97708797e-01
      -9.99524593e-01 -9.99683976e-01 -9.59146500e-01 1. -9.98065889e-01
      -9.92874026e-01 -9.99243081e-01 -1. -9.99522746e-01</_>
    <_>
      -9.91025805e-01 -9.91316199e-01 -9.87766147e-01 -9.92131948e-01
      -9.72212315e-01 -9.88627017e-01 -9.96243238e-01 -9.99849260e-01
      -9.96967316e-01 -9.99858677e-01 -9.79831696e-01 -9.99859095e-01
      -9.91025805e-01 -9.96782422e-01 -9.99139190e-01 -9.97453868e-01
      -9.99583602e-01 -9.99437690e-01 -9.87766147e-01 -9.97957945e-01
      -9.97539401e-01 -9.98331785e-01 -9.98946309e-01 -9.98983264e-01
      -9.99822140e-01 -9.99828219e-01 -9.99800146e-01 -9.99863327e-01
      -9.99852300e-01 -9.99847233e-01 -9.99845982e-01 -9.99845803e-01
      -9.99863446e-01 -9.99855936e-01 -9.99850333e-01 -9.99850273e-01
      -9.99852180e-01 -9.99863446e-01 -9.99855757e-01 -9.99849677e-01
      -9.99849260e-01 -9.99850869e-01 -9.99863446e-01 -9.99852419e-01
      -9.99853134e-01 -9.99842048e-01 -9.99846935e-01 -9.99863446e-01
      -9.99853253e-01 -9.99846697e-01 -9.99849796e-01 -9.99848545e-01
      -9.99863446e-01 -9.99852061e-01 -9.99852061e-01 -9.99846339e-01
      -9.99846578e-01 -9.99863446e-01 -9.99852479e-01 -9.99851525e-01
      -9.99846518e-01 -9.99845088e-01 -9.99863446e-01 -9.99847829e-01
      -9.99855161e-01 -9.99846816e-01 -9.99849737e-01 -9.99863446e-01
      -9.99851763e-01 -9.99850333e-01 -9.99845266e-01 -9.99842525e-01
      -9.99863446e-01 -9.99850631e-01 -9.99851882e-01 -9.99846041e-01
      -9.99840915e-01 -9.99863446e-01 -9.99852538e-01 -9.99850035e-01
      -9.99844730e-01 -9.99841094e-01 -9.99863446e-01 -9.99843717e-01
      -9.99854803e-01 -9.99843359e-01 -9.99846637e-01 -9.99863446e-01
      -9.99853015e-01 -9.99852061e-01 -9.99847233e-01 -9.99844491e-01
      -9.99863446e-01 -9.99850988e-01 -9.99853373e-01 -9.99845922e-01
      -9.99845266e-01 -9.99863446e-01 -9.99855101e-01 -9.99852777e-01
      -9.99848783e-01 -9.99847472e-01 -9.99863446e-01 -9.99851465e-01
      -9.99850810e-01 -9.99842882e-01 -9.99844670e-01 -9.99863446e-01
      -9.99863029e-01 -9.98113394e-01 -9.98203337e-01 -4.99460012e-01
      -9.99622524e-01 -9.99743104e-01 -9.48014736e-01 1. -9.98539388e-01
      -9.98705626e-01 -9.99476373e-01 -1. -9.99622643e-01</_>
    <_>
      -9.87088501e-01 -9.91792500e-01 -9.94095027e-01 -9.95502412e-01
      -9.73900676e-01 -9.89277303e-01 -9.99897599e-01 -9.99886036e-01
      -9.99897599e-01 -9.99886930e-01 -9.50959682e-01 -9.99881029e-01
      -9.87088501e-01 -9.97930348e-01 -9.97540951e-01 -9.99348283e-01
      -9.99220550e-01 -9.99294937e-01 -9.94095027e-01 -9.99118865e-01
      -9.99131978e-01 -9.99790907e-01 -9.98883307e-01 -9.99263108e-01
      -9.99856114e-01 -9.99858320e-01 -9.99826133e-01 -9.99897420e-01
      -9.99889433e-01 -9.99892294e-01 -9.99882042e-01 -9.99888718e-01
      -9.99897599e-01 -9.99885619e-01 -9.99890804e-01 -9.99878526e-01
      -9.99885857e-01 -9.99897599e-01 -9.99884903e-01 -9.99890149e-01
      -9.99881208e-01 -9.99881864e-01 -9.99897599e-01 -9.99883592e-01
      -9.99891639e-01 -9.99883115e-01 -9.99877214e-01 -9.99897599e-01
      -9.99895036e-01 -9.99891341e-01 -9.99894917e-01 -9.99896109e-01
      -9.99897599e-01 -9.99887168e-01 -9.99886274e-01 -9.99881506e-01
      -9.99882162e-01 -9.99897599e-01 -9.99887824e-01 -9.99886870e-01
      -9.99882221e-01 -9.99881089e-01 -9.99897599e-01 -9.99885798e-01
      -9.99890447e-01 -9.99881804e-01 -9.99880195e-01 -9.99897599e-01
      -9.99893069e-01 -9.99888718e-01 -9.99890506e-01 -9.99891162e-01
      -9.99897599e-01 -9.99888599e-01 -9.99888241e-01 -9.99884367e-01
      -9.99882519e-01 -9.99897599e-01 -9.99887705e-01 -9.99886870e-01
      -9.99883533e-01 -9.99881566e-01 -9.99897599e-01 -9.99885559e-01
      -9.99889731e-01 -9.99878049e-01 -9.99884367e-01 -9.99897599e-01
      -9.99889195e-01 -9.99888659e-01 -9.99886096e-01 -9.99881208e-01
      -9.99897599e-01 -9.99886811e-01 -9.99888837e-01 -9.99881268e-01
      -9.99881923e-01 -9.99897599e-01 -9.99888301e-01 -9.99888539e-01
      -9.99881566e-01 -9.99881744e-01 -9.99897599e-01 -9.99888718e-01
      -9.99889553e-01 -9.99879837e-01 -9.99884486e-01 -9.99897599e-01
      -9.99897003e-01 -9.97119546e-01 -9.98529553e-01 -4.99228716e-01
      -9.99706209e-01 -9.99807775e-01 -9.50928807e-01 1. -9.98837471e-01
      -9.97932374e-01 -9.99538183e-01 -1. -9.99706209e-01</_>
    <_>
      -9.83380556e-01 -9.85138357e-01 -9.84860182e-01 -9.87033367e-01
      -9.50661123e-01 -9.85512435e-01 -9.93340135e-01 -9.99808729e-01
      -9.94485676e-01 -9.99822378e-01 -9.51719224e-01 -9.99827027e-01
      -9.83380556e-01 -9.97603059e-01 -9.95200574e-01 -9.99069512e-01
      -9.97094095e-01 -9.97859478e-01 -9.84860182e-01 -9.99061406e-01
      -9.95515943e-01 -9.97766197e-01 -9.98609424e-01 -9.98310506e-01
      -9.99730289e-01 -9.99738634e-01 -9.99652863e-01 -9.99831259e-01
      -9.99814332e-01 -9.99819458e-01 -9.99789059e-01 -9.99809980e-01
      -9.99831438e-01 -9.99801993e-01 -9.99821901e-01 -9.99791563e-01
      -9.99803960e-01 -9.99831438e-01 -9.99802709e-01 -9.99819994e-01
      -9.99800384e-01 -9.99799132e-01 -9.99831438e-01 -9.99799848e-01
      -9.99823093e-01 -9.99809206e-01 -9.99787867e-01 -9.99831438e-01
      -9.99809444e-01 -9.99819398e-01 -9.99784648e-01 -9.99805987e-01
      -9.99831438e-01 -9.99802887e-01 -9.99821663e-01 -9.99789000e-01
      -9.99802828e-01 -9.99831438e-01 -9.99795377e-01 -9.99823511e-01
      -9.99796927e-01 -9.99803245e-01 -9.99831438e-01 -9.99801159e-01
      -9.99822319e-01 -9.99800026e-01 -9.99800980e-01 -9.99831438e-01
      -9.99809921e-01 -9.99820232e-01 -9.99792099e-01 -9.99802649e-01
      -9.99831438e-01 -9.99805808e-01 -9.99817491e-01 -9.99794662e-01
      -9.99802113e-01 -9.99831438e-01 -9.99807656e-01 -9.99817550e-01
      -9.99798059e-01 -9.99800682e-01 -9.99831438e-01 -9.99799013e-01
      -9.99822497e-01 -9.99792576e-01 -9.99805987e-01 -9.99831438e-01
      -9.99810338e-01 -9.99817729e-01 -9.99799848e-01 -9.99801338e-01
      -9.99831438e-01 -9.99811292e-01 -9.99817491e-01 -9.99799848e-01
      -9.99802947e-01 -9.99831438e-01 -9.99811471e-01 -9.99817431e-01
      -9.99796152e-01 -9.99798417e-01 -9.99831438e-01 -9.99812782e-01
      -9.99817967e-01 -9.99794662e-01 -9.99800682e-01 -9.99831438e-01
      -9.99831200e-01 -9.91477609e-01 -9.96885538e-01 -4.97785121e-01
      -9.99452770e-01 -9.99707162e-01 -9.06557202e-01 1. -9.97678101e-01
      -9.95015562e-01 -9.98989582e-01 -1. -9.99452055e-01</_>
    <_>
      -9.92607892e-01 -9.91759062e-01 -9.87754524e-01 -9.92484510e-01
      -9.74180698e-01 -9.89452302e-01 -9.96560335e-01 -9.99857843e-01
      -9.98769403e-01 -9.99869823e-01 -9.80876207e-01 -9.99870062e-01
      -9.92607892e-01 -9.97422874e-01 -9.99203444e-01 -9.97601211e-01
      -9.99231398e-01 -9.99463737e-01 -9.87754524e-01 -9.98365819e-01
      -9.97616887e-01 -9.97793019e-01 -9.99016881e-01 -9.99136806e-01
      -9.99838293e-01 -9.99842167e-01 -9.99818861e-01 -9.99873757e-01
      -9.99862015e-01 -9.99858260e-01 -9.99855638e-01 -9.99857783e-01
      -9.99873936e-01 -9.99864459e-01 -9.99861002e-01 -9.99858797e-01
      -9.99860227e-01 -9.99873936e-01 -9.99863982e-01 -9.99861538e-01
      -9.99860287e-01 -9.99860108e-01 -9.99873936e-01 -9.99862373e-01
      -9.99865711e-01 -9.99853492e-01 -9.99857128e-01 -9.99873936e-01
      -9.99865532e-01 -9.99859393e-01 -9.99860346e-01 -9.99861956e-01
      -9.99873936e-01 -9.99862432e-01 -9.99860525e-01 -9.99856174e-01
      -9.99857366e-01 -9.99873936e-01 -9.99863505e-01 -9.99861538e-01
      -9.99856472e-01 -9.99857605e-01 -9.99873877e-01 -9.99860942e-01
      -9.99865651e-01 -9.99856770e-01 -9.99861121e-01 -9.99873936e-01
      -9.99862432e-01 -9.99862254e-01 -9.99855936e-01 -9.99856234e-01
      -9.99873936e-01 -9.99860764e-01 -9.99863386e-01 -9.99855161e-01
      -9.99853790e-01 -9.99873936e-01 -9.99862850e-01 -9.99861479e-01
      -9.99855995e-01 -9.99852598e-01 -9.99873936e-01 -9.99857008e-01
      -9.99866664e-01 -9.99857485e-01 -9.99858975e-01 -9.99873936e-01
      -9.99864399e-01 -9.99863505e-01 -9.99856949e-01 -9.99857247e-01
      -9.99873936e-01 -9.99863923e-01 -9.99864757e-01 -9.99858677e-01
      -9.99856472e-01 -9.99873936e-01 -9.99863565e-01 -9.99861598e-01
      -9.99857187e-01 -9.99855578e-01 -9.99873877e-01 -9.99862134e-01
      -9.99863565e-01 -9.99854088e-01 -9.99854684e-01 -9.99873936e-01
      -9.99873519e-01 -9.98334229e-01 -9.98342097e-01 -4.99520332e-01
      -9.99653339e-01 -9.99764085e-01 -9.52092469e-01 1. -9.98649538e-01
      -9.98864770e-01 -9.99521136e-01 -1. -9.99653459e-01</_>
    <_>
      -9.83998954e-01 -9.90515530e-01 -9.88047719e-01 -9.91905272e-01
      -9.78958249e-01 -9.86673653e-01 -9.77345288e-01 -9.99858677e-01
      -9.91995931e-01 -9.99864459e-01 -9.44107950e-01 -9.99860764e-01
      -9.83998954e-01 -9.97966111e-01 -9.96304870e-01 -9.99454081e-01
      -9.98385906e-01 -9.99296963e-01 -9.88047719e-01 -9.99288380e-01
      -9.98037636e-01 -9.98848438e-01 -9.98650670e-01 -9.98207390e-01
      -9.99812722e-01 -9.99824762e-01 -9.99781191e-01 -9.99867737e-01
      -9.99859929e-01 -9.99855638e-01 -9.99859750e-01 -9.99860168e-01
      -9.99867916e-01 -9.99862969e-01 -9.99862015e-01 -9.99863088e-01
      -9.99863327e-01 -9.99867916e-01 -9.99863982e-01 -9.99860823e-01
      -9.99861419e-01 -9.99859750e-01 -9.99867916e-01 -9.99859631e-01
      -9.99861598e-01 -9.99860704e-01 -9.99856174e-01 -9.99867916e-01
      -9.99859631e-01 -9.99858201e-01 -9.99858201e-01 -9.99859035e-01
      -9.99867916e-01 -9.99866486e-01 -9.99865770e-01 -9.99865532e-01
      -9.99865234e-01 -9.99867916e-01 -9.99862373e-01 -9.99861896e-01
      -9.99859750e-01 -9.99859750e-01 -9.99867916e-01 -9.99858558e-01
      -9.99862432e-01 -9.99854624e-01 -9.99853015e-01 -9.99867916e-01
      -9.99861956e-01 -9.99858499e-01 -9.99862254e-01 -9.99860048e-01
      -9.99867916e-01 -9.99864340e-01 -9.99863505e-01 -9.99862134e-01
      -9.99862611e-01 -9.99867916e-01 -9.99861360e-01 -9.99860823e-01
      -9.99859273e-01 -9.99857187e-01 -9.99867916e-01 -9.99862731e-01
      -9.99864042e-01 -9.99858737e-01 -9.99861717e-01 -9.99867916e-01
      -9.99862015e-01 -9.99862075e-01 -9.99858975e-01 -9.99854147e-01
      -9.99867916e-01 -9.99862373e-01 -9.99863088e-01 -9.99857306e-01
      -9.99858022e-01 -9.99867916e-01 -9.99862969e-01 -9.99862790e-01
      -9.99857605e-01 -9.99858558e-01 -9.99867916e-01 -9.99865353e-01
      -9.99863684e-01 -9.99858916e-01 -9.99862671e-01 -9.99867916e-01
      -9.99867439e-01 -9.97771859e-01 -9.98376191e-01 -4.99377102e-01
      -9.99649704e-01 -9.99744356e-01 -9.63301897e-01 1. -9.98648405e-01
      -9.98207092e-01 -9.99536335e-01 -1. -9.99649525e-01</_>
    <_>
      -9.90697443e-01 -9.91412342e-01 -9.87367213e-01 -9.91663396e-01
      -9.76661384e-01 -9.88807738e-01 -9.96568799e-01 -9.99845505e-01
      -9.96349454e-01 -9.99854922e-01 -9.83188987e-01 -9.99855816e-01
      -9.90697443e-01 -9.97543752e-01 -9.98046756e-01 -9.97808814e-01
      -9.98884559e-01 -9.98438954e-01 -9.87367213e-01 -9.97926056e-01
      -9.97151732e-01 -9.98279393e-01 -9.98907089e-01 -9.98883843e-01
      -9.99812365e-01 -9.99829531e-01 -9.99792695e-01 -9.99858737e-01
      -9.99852121e-01 -9.99850690e-01 -9.99851048e-01 -9.99849856e-01
      -9.99858916e-01 -9.99856889e-01 -9.99852002e-01 -9.99855220e-01
      -9.99852955e-01 -9.99858916e-01 -9.99853909e-01 -9.99850273e-01
      -9.99851048e-01 -9.99850333e-01 -9.99858916e-01 -9.99853432e-01
      -9.99850154e-01 -9.99850452e-01 -9.99850154e-01 -9.99858916e-01
      -9.99855161e-01 -9.99846220e-01 -9.99852419e-01 -9.99850273e-01
      -9.99858916e-01 -9.99854624e-01 -9.99852061e-01 -9.99854028e-01
      -9.99852479e-01 -9.99858916e-01 -9.99854386e-01 -9.99853432e-01
      -9.99851286e-01 -9.99851346e-01 -9.99858916e-01 -9.99852180e-01
      -9.99851286e-01 -9.99849081e-01 -9.99848306e-01 -9.99858916e-01
      -9.99850869e-01 -9.99853015e-01 -9.99850571e-01 -9.99850631e-01
      -9.99858916e-01 -9.99851823e-01 -9.99851584e-01 -9.99850214e-01
      -9.99847949e-01 -9.99858916e-01 -9.99851525e-01 -9.99852061e-01
      -9.99847829e-01 -9.99845207e-01 -9.99858916e-01 -9.99851346e-01
      -9.99849558e-01 -9.99847710e-01 -9.99845147e-01 -9.99858916e-01
      -9.99853730e-01 -9.99853671e-01 -9.99851048e-01 -9.99852538e-01
      -9.99858916e-01 -9.99856055e-01 -9.99854207e-01 -9.99854565e-01
      -9.99852061e-01 -9.99858916e-01 -9.99852359e-01 -9.99852002e-01
      -9.99849498e-01 -9.99848068e-01 -9.99858916e-01 -9.99851823e-01
      -9.99851525e-01 -9.99848723e-01 -9.99847472e-01 -9.99858916e-01
      -9.99858499e-01 -9.98678744e-01 -9.98367369e-01 -4.99599099e-01
      -9.99639809e-01 -9.99730945e-01 -9.56905544e-01 1. -9.98608172e-01
      -9.98987019e-01 -9.99558628e-01 -1. -9.99639750e-01</_>
    <_>
      -9.78137016e-01 -9.86779809e-01 -9.87812459e-01 -9.88854349e-01
      -9.44149256e-01 -9.85554636e-01 -9.90138948e-01 -9.99835432e-01
      -9.91259933e-01 -9.99844134e-01 -9.45300937e-01 -9.99849439e-01
      -9.78137016e-01 -9.97891188e-01 -9.92998779e-01 -9.99639750e-01
      -9.98617291e-01 -9.98435318e-01 -9.87812459e-01 -9.98385429e-01
      -9.98441935e-01 -9.99450445e-01 -9.99481142e-01 -9.99038935e-01
      -9.99765575e-01 -9.99755561e-01 -9.99680936e-01 -9.99853671e-01
      -9.99836743e-01 -9.99835968e-01 -9.99817491e-01 -9.99821782e-01
      -9.99853909e-01 -9.99835908e-01 -9.99837101e-01 -9.99811471e-01
      -9.99822319e-01 -9.99853909e-01 -9.99834716e-01 -9.99837637e-01
      -9.99815106e-01 -9.99819517e-01 -9.99853909e-01 -9.99832869e-01
      -9.99838889e-01 -9.99819577e-01 -9.99821723e-01 -9.99853909e-01
      -9.99837637e-01 -9.99832690e-01 -9.99814689e-01 -9.99814987e-01
      -9.99853909e-01 -9.99837220e-01 -9.99836862e-01 -9.99813199e-01
      -9.99817193e-01 -9.99853909e-01 -9.99834418e-01 -9.99838352e-01
      -9.99813437e-01 -9.99821424e-01 -9.99853909e-01 -9.99829650e-01
      -9.99841809e-01 -9.99809027e-01 -9.99830544e-01 -9.99853909e-01
      -9.99835908e-01 -9.99837458e-01 -9.99815166e-01 -9.99814928e-01
      -9.99853909e-01 -9.99830365e-01 -9.99838531e-01 -9.99814332e-01
      -9.99819517e-01 -9.99853849e-01 -9.99827087e-01 -9.99841392e-01
      -9.99813855e-01 -9.99823987e-01 -9.99853909e-01 -9.99830604e-01
      -9.99843597e-01 -9.99800086e-01 -9.99834061e-01 -9.99853909e-01
      -9.99833047e-01 -9.99841571e-01 -9.99818921e-01 -9.99818683e-01
      -9.99853849e-01 -9.99826312e-01 -9.99845088e-01 -9.99812424e-01
      -9.99820173e-01 -9.99853909e-01 -9.99823570e-01 -9.99843895e-01
      -9.99814630e-01 -9.99826908e-01 -9.99853909e-01 -9.99827921e-01
      -9.99845445e-01 -9.99799490e-01 -9.99837637e-01 -9.99853909e-01
      -9.99853671e-01 -9.89319026e-01 -9.96931314e-01 -4.97256875e-01
      -9.99484122e-01 -9.99754488e-01 -8.92649412e-01 1. -9.97780025e-01
      -9.94428098e-01 -9.98964965e-01 -1. -9.99484420e-01</_>
    <_>
      -9.89318848e-01 -9.89392281e-01 -9.87738550e-01 -9.91916120e-01
      -9.75740016e-01 -9.88320649e-01 -9.96880472e-01 -9.99838769e-01
      -9.96651709e-01 -9.99850631e-01 -9.81322229e-01 -9.99851584e-01
      -9.89318848e-01 -9.97354388e-01 -9.97475922e-01 -9.97588158e-01
      -9.98750448e-01 -9.98306096e-01 -9.87738550e-01 -9.97811973e-01
      -9.97283995e-01 -9.98651683e-01 -9.98976886e-01 -9.99024689e-01
      -9.99804914e-01 -9.99823511e-01 -9.99783576e-01 -9.99854684e-01
      -9.99849677e-01 -9.99846876e-01 -9.99847829e-01 -9.99846697e-01
      -9.99854863e-01 -9.99851584e-01 -9.99847710e-01 -9.99850273e-01
      -9.99848604e-01 -9.99854863e-01 -9.99852836e-01 -9.99849975e-01
      -9.99851286e-01 -9.99850631e-01 -9.99854863e-01 -9.99849200e-01
      -9.99845684e-01 -9.99846339e-01 -9.99844432e-01 -9.99854863e-01
      -9.99848425e-01 -9.99839306e-01 -9.99843597e-01 -9.99842584e-01
      -9.99854863e-01 -9.99848902e-01 -9.99848127e-01 -9.99848902e-01
      -9.99848604e-01 -9.99854863e-01 -9.99847710e-01 -9.99849081e-01
      -9.99845147e-01 -9.99844253e-01 -9.99854863e-01 -9.99844491e-01
      -9.99846756e-01 -9.99841928e-01 -9.99839783e-01 -9.99854863e-01
      -9.99845862e-01 -9.99847770e-01 -9.99845326e-01 -9.99845624e-01
      -9.99854863e-01 -9.99848247e-01 -9.99848187e-01 -9.99845266e-01
      -9.99844193e-01 -9.99854863e-01 -9.99845505e-01 -9.99848306e-01
      -9.99843061e-01 -9.99841571e-01 -9.99854863e-01 -9.99850869e-01
      -9.99849141e-01 -9.99847591e-01 -9.99845266e-01 -9.99854863e-01
      -9.99848723e-01 -9.99848664e-01 -9.99845028e-01 -9.99847472e-01
      -9.99854863e-01 -9.99852479e-01 -9.99851763e-01 -9.99850512e-01
      -9.99849439e-01 -9.99854863e-01 -9.99848306e-01 -9.99850273e-01
      -9.99845028e-01 -9.99846995e-01 -9.99854863e-01 -9.99849498e-01
      -9.99850512e-01 -9.99847531e-01 -9.99847949e-01 -9.99854863e-01
      -9.99854445e-01 -9.97863770e-01 -9.98294592e-01 -4.99393344e-01
      -9.99626517e-01 -9.99723256e-01 -9.55512464e-01 1. -9.98554289e-01
      -9.98232067e-01 -9.99535322e-01 -1. -9.99626279e-01</_>
    <_>
      -9.83743012e-01 -9.90797341e-01 -9.91645575e-01 -9.93918896e-01
      -9.74043846e-01 -9.87726629e-01 -9.76987123e-01 -9.99864280e-01
      -9.94097829e-01 -9.99869823e-01 -9.43210125e-01 -9.99866009e-01
      -9.83743012e-01 -9.97984946e-01 -9.96462464e-01 -9.99602377e-01
      -9.98392701e-01 -9.99519050e-01 -9.91645575e-01 -9.98992026e-01
      -9.98580396e-01 -9.99173760e-01 -9.98998106e-01 -9.98782992e-01
      -9.99822438e-01 -9.99832153e-01 -9.99789953e-01 -9.99875307e-01
      -9.99866545e-01 -9.99862313e-01 -9.99866307e-01 -9.99866724e-01
      -9.99875486e-01 -9.99864817e-01 -9.99864578e-01 -9.99863267e-01
      -9.99863505e-01 -9.99875486e-01 -9.99866307e-01 -9.99865353e-01
      -9.99861717e-01 -9.99861538e-01 -9.99875486e-01 -9.99864340e-01
      -9.99867082e-01 -9.99863267e-01 -9.99858558e-01 -9.99875486e-01
      -9.99866843e-01 -9.99865294e-01 -9.99864399e-01 -9.99865770e-01
      -9.99875486e-01 -9.99864340e-01 -9.99863625e-01 -9.99858618e-01
      -9.99858439e-01 -9.99875486e-01 -9.99865949e-01 -9.99867558e-01
      -9.99863684e-01 -9.99862969e-01 -9.99875486e-01 -9.99862432e-01
      -9.99867558e-01 -9.99858141e-01 -9.99854684e-01 -9.99875486e-01
      -9.99868274e-01 -9.99865353e-01 -9.99867618e-01 -9.99865294e-01
      -9.99875486e-01 -9.99868929e-01 -9.99867201e-01 -9.99863923e-01
      -9.99863744e-01 -9.99875486e-01 -9.99868870e-01 -9.99868989e-01
      -9.99867439e-01 -9.99865115e-01 -9.99875486e-01 -9.99864280e-01
      -9.99868989e-01 -9.99853909e-01 -9.99863088e-01 -9.99875486e-01
      -9.99866784e-01 -9.99866664e-01 -9.99861658e-01 -9.99856889e-01
      -9.99875486e-01 -9.99865890e-01 -9.99866605e-01 -9.99858379e-01
      -9.99859810e-01 -9.99875486e-01 -9.99866366e-01 -9.99869049e-01
      -9.99862373e-01 -9.99862731e-01 -9.99875486e-01 -9.99866605e-01
      -9.99867439e-01 -9.99855578e-01 -9.99862313e-01 -9.99875486e-01
      -9.99875128e-01 -9.97160554e-01 -9.98311341e-01 -4.99228001e-01
      -9.99653876e-01 -9.99764323e-01 -9.52287495e-01 1. -9.98635769e-01
      -9.97824907e-01 -9.99501169e-01 -1. -9.99653697e-01</_>
    <_>
      -9.92356241e-01 -9.95799065e-01 -9.84391332e-01 -9.91521180e-01
      -9.77184951e-01 -9.91604447e-01 -9.95073080e-01 -9.99890029e-01
      -9.98876154e-01 -9.99896407e-01 -9.65672731e-01 -9.99892652e-01
      -9.92356241e-01 -9.99136269e-01 -9.98089373e-01 -9.99559462e-01
      -9.99551177e-01 -9.99072552e-01 -9.84391332e-01 -9.97473240e-01
      -9.96817946e-01 -9.99261439e-01 -9.98925924e-01 -9.98708844e-01
      -9.99825537e-01 -9.99859750e-01 -9.99818742e-01 -9.99899924e-01
      -9.99899805e-01 -9.99898493e-01 -9.99899685e-01 -9.99899745e-01
      -9.99900043e-01 -9.99899268e-01 -9.99897182e-01 -9.99899864e-01
      -9.99899626e-01 -9.99900043e-01 -9.99897599e-01 -9.99896467e-01
      -9.99899328e-01 -9.99898255e-01 -9.99900043e-01 -9.99898434e-01
      -9.99898076e-01 -9.99899745e-01 -9.99898553e-01 -9.99900043e-01
      -9.99899328e-01 -9.99899447e-01 -9.99899685e-01 -9.99899030e-01
      -9.99900043e-01 -9.99897182e-01 -9.99898851e-01 -9.99898732e-01
      -9.99896824e-01 -9.99900043e-01 -9.99898434e-01 -9.99898851e-01
      -9.99898970e-01 -9.99897599e-01 -9.99900043e-01 -9.99899149e-01
      -9.99899328e-01 -9.99899387e-01 -9.99899328e-01 -9.99900043e-01
      -9.99899268e-01 -9.99892175e-01 -9.99898732e-01 -9.99897897e-01
      -9.99900043e-01 -9.99897480e-01 -9.99894857e-01 -9.99897122e-01
      -9.99894440e-01 -9.99900043e-01 -9.99896288e-01 -9.99898255e-01
      -9.99897480e-01 -9.99896705e-01 -9.99900043e-01 -9.99896049e-01
      -9.99897003e-01 -9.99898136e-01 -9.99898016e-01 -9.99900043e-01
      -9.99900043e-01 -9.99899149e-01 -9.99900043e-01 -9.99900043e-01
      -9.99900043e-01 -9.99898493e-01 -9.99899745e-01 -9.99899805e-01
      -9.99899387e-01 -9.99900043e-01 -9.99899745e-01 -9.99899387e-01
      -9.99899685e-01 -9.99899447e-01 -9.99900043e-01 -9.99899924e-01
      -9.99899924e-01 -9.99899864e-01 -9.99899805e-01 -9.99900043e-01
      -9.99899566e-01 -9.98246551e-01 -9.98923779e-01 -4.99511570e-01
      -9.99754012e-01 -9.99801338e-01 -9.58969355e-01 1. -9.99060512e-01
      -9.98458922e-01 -9.99709368e-01 -1. -9.99753833e-01</_>
    <_>
      -9.81395662e-01 -9.88266468e-01 -9.88056779e-01 -9.89129961e-01
      -9.57871079e-01 -9.85819519e-01 -9.90314066e-01 -9.99849379e-01
      -9.96044815e-01 -9.99858141e-01 -9.53382611e-01 -9.99861658e-01
      -9.81395662e-01 -9.96357560e-01 -9.95878518e-01 -9.99161601e-01
      -9.98487473e-01 -9.98401880e-01 -9.88056779e-01 -9.98966873e-01
      -9.98346269e-01 -9.97601330e-01 -9.98236299e-01 -9.99148905e-01
      -9.99779642e-01 -9.99764144e-01 -9.99691963e-01 -9.99865115e-01
      -9.99851763e-01 -9.99850631e-01 -9.99845743e-01 -9.99848068e-01
      -9.99865294e-01 -9.99850035e-01 -9.99847353e-01 -9.99837279e-01
      -9.99841571e-01 -9.99865294e-01 -9.99850988e-01 -9.99848068e-01
      -9.99839842e-01 -9.99841392e-01 -9.99865294e-01 -9.99844134e-01
      -9.99850333e-01 -9.99835134e-01 -9.99839425e-01 -9.99865294e-01
      -9.99848962e-01 -9.99850333e-01 -9.99844491e-01 -9.99836504e-01
      -9.99865294e-01 -9.99846518e-01 -9.99850452e-01 -9.99833763e-01
      -9.99832571e-01 -9.99865294e-01 -9.99849379e-01 -9.99850631e-01
      -9.99833941e-01 -9.99833465e-01 -9.99865294e-01 -9.99846458e-01
      -9.99852180e-01 -9.99832213e-01 -9.99841452e-01 -9.99865294e-01
      -9.99848127e-01 -9.99852836e-01 -9.99837995e-01 -9.99831915e-01
      -9.99865294e-01 -9.99845922e-01 -9.99852121e-01 -9.99833763e-01
      -9.99834299e-01 -9.99865294e-01 -9.99846518e-01 -9.99852717e-01
      -9.99836564e-01 -9.99837816e-01 -9.99865294e-01 -9.99851882e-01
      -9.99847889e-01 -9.99835014e-01 -9.99843121e-01 -9.99865294e-01
      -9.99844968e-01 -9.99855518e-01 -9.99836028e-01 -9.99831438e-01
      -9.99865294e-01 -9.99845743e-01 -9.99854088e-01 -9.99835730e-01
      -9.99830425e-01 -9.99865294e-01 -9.99844730e-01 -9.99855280e-01
      -9.99835670e-01 -9.99835849e-01 -9.99865294e-01 -9.99849737e-01
      -9.99853492e-01 -9.99831378e-01 -9.99836743e-01 -9.99865294e-01
      -9.99865055e-01 -9.89038825e-01 -9.97371435e-01 -4.97192323e-01
      -9.99550343e-01 -9.99761283e-01 -9.20307219e-01 1. -9.98064816e-01
      -9.93079603e-01 -9.99115348e-01 -1. -9.99549270e-01</_>
    <_>
      -9.87607837e-01 -9.92031276e-01 -9.94339228e-01 -9.95513558e-01
      -9.75583136e-01 -9.89570975e-01 -9.99901235e-01 -9.99889493e-01
      -9.99901235e-01 -9.99890566e-01 -9.54237759e-01 -9.99884665e-01
      -9.87607837e-01 -9.97933030e-01 -9.97827888e-01 -9.99336064e-01
      -9.99290049e-01 -9.99252975e-01 -9.94339228e-01 -9.99130130e-01
      -9.99054909e-01 -9.99703586e-01 -9.98846531e-01 -9.99334991e-01
      -9.99861002e-01 -9.99864340e-01 -9.99832571e-01 -9.99901116e-01
      -9.99893129e-01 -9.99894142e-01 -9.99888361e-01 -9.99892056e-01
      -9.99901235e-01 -9.99890685e-01 -9.99893725e-01 -9.99884486e-01
      -9.99888003e-01 -9.99901235e-01 -9.99890208e-01 -9.99893546e-01
      -9.99885559e-01 -9.99885857e-01 -9.99901235e-01 -9.99888361e-01
      -9.99894321e-01 -9.99889255e-01 -9.99884605e-01 -9.99901235e-01
      -9.99899566e-01 -9.99895394e-01 -9.99898970e-01 -9.99899983e-01
      -9.99901235e-01 -9.99892831e-01 -9.99891043e-01 -9.99888361e-01
      -9.99887645e-01 -9.99901235e-01 -9.99892890e-01 -9.99891400e-01
      -9.99887407e-01 -9.99885857e-01 -9.99901235e-01 -9.99889076e-01
      -9.99893486e-01 -9.99886394e-01 -9.99885440e-01 -9.99901235e-01
      -9.99898255e-01 -9.99892533e-01 -9.99896407e-01 -9.99895036e-01
      -9.99901235e-01 -9.99893665e-01 -9.99891758e-01 -9.99889195e-01
      -9.99888122e-01 -9.99901235e-01 -9.99892235e-01 -9.99890983e-01
      -9.99886930e-01 -9.99886155e-01 -9.99901235e-01 -9.99891937e-01
      -9.99893367e-01 -9.99884784e-01 -9.99888659e-01 -9.99901235e-01
      -9.99894500e-01 -9.99891520e-01 -9.99890149e-01 -9.99887109e-01
      -9.99901235e-01 -9.99892652e-01 -9.99892473e-01 -9.99886274e-01
      -9.99886274e-01 -9.99901235e-01 -9.99893427e-01 -9.99892890e-01
      -9.99886096e-01 -9.99886692e-01 -9.99901235e-01 -9.99894023e-01
      -9.99893069e-01 -9.99888003e-01 -9.99889672e-01 -9.99901235e-01
      -9.99900579e-01 -9.97562528e-01 -9.98633742e-01 -4.99341339e-01
      -9.99722600e-01 -9.99814153e-01 -9.54286695e-01 1. -9.98908043e-01
      -9.98220980e-01 -9.99577522e-01 -1. -9.99722600e-01</_>
    <_>
      -9.90156054e-01 -9.89889681e-01 -9.84502971e-01 -9.90127087e-01
      -9.71130371e-01 -9.87880170e-01 -9.96284664e-01 -9.99820232e-01
      -9.97378409e-01 -9.99835432e-01 -9.78785336e-01 -9.99833763e-01
      -9.90156054e-01 -9.96094525e-01 -9.99150276e-01 -9.97042596e-01
      -9.99558687e-01 -9.99332547e-01 -9.84502971e-01 -9.97164130e-01
      -9.96788561e-01 -9.97986436e-01 -9.98677850e-01 -9.98843253e-01
      -9.99788582e-01 -9.99797642e-01 -9.99763370e-01 -9.99839067e-01
      -9.99831080e-01 -9.99822378e-01 -9.99824762e-01 -9.99824464e-01
      -9.99839246e-01 -9.99831438e-01 -9.99824584e-01 -9.99826789e-01
      -9.99825776e-01 -9.99839246e-01 -9.99831021e-01 -9.99824941e-01
      -9.99825895e-01 -9.99827087e-01 -9.99839246e-01 -9.99828219e-01
      -9.99827802e-01 -9.99816120e-01 -9.99823034e-01 -9.99839246e-01
      -9.99828994e-01 -9.99822438e-01 -9.99823987e-01 -9.99824941e-01
      -9.99839246e-01 -9.99829829e-01 -9.99829054e-01 -9.99823630e-01
      -9.99826729e-01 -9.99839246e-01 -9.99827504e-01 -9.99824166e-01
      -9.99818981e-01 -9.99819338e-01 -9.99839246e-01 -9.99823809e-01
      -9.99830306e-01 -9.99822855e-01 -9.99826431e-01 -9.99839246e-01
      -9.99829233e-01 -9.99829292e-01 -9.99822736e-01 -9.99823987e-01
      -9.99839246e-01 -9.99827743e-01 -9.99828100e-01 -9.99820709e-01
      -9.99819398e-01 -9.99839246e-01 -9.99827504e-01 -9.99824107e-01
      -9.99817967e-01 -9.99817729e-01 -9.99839246e-01 -9.99820709e-01
      -9.99829531e-01 -9.99814868e-01 -9.99820232e-01 -9.99839246e-01
      -9.99832690e-01 -9.99830842e-01 -9.99828398e-01 -9.99827623e-01
      -9.99839246e-01 -9.99828756e-01 -9.99828637e-01 -9.99824047e-01
      -9.99823928e-01 -9.99839246e-01 -9.99830008e-01 -9.99827206e-01
      -9.99825358e-01 -9.99824405e-01 -9.99839246e-01 -9.99825895e-01
      -9.99823809e-01 -9.99816298e-01 -9.99817431e-01 -9.99839246e-01
      -9.99838650e-01 -9.98520672e-01 -9.98010814e-01 -4.99549747e-01
      -9.99566197e-01 -9.99692976e-01 -9.46613014e-01 1. -9.98355687e-01
      -9.99011517e-01 -9.99432147e-01 -1. -9.99566317e-01</_>
    <_>
      -9.79040682e-01 -9.87258673e-01 -9.87620234e-01 -9.87609267e-01
      -9.46094930e-01 -9.85684633e-01 -9.90316093e-01 -9.99822557e-01
      -9.92880523e-01 -9.99830842e-01 -9.49651837e-01 -9.99836504e-01
      -9.79040682e-01 -9.97815847e-01 -9.93375242e-01 -9.99603450e-01
      -9.98785377e-01 -9.98079717e-01 -9.87620234e-01 -9.97999728e-01
      -9.98480737e-01 -9.99248445e-01 -9.99584079e-01 -9.98892605e-01
      -9.99755323e-01 -9.99747872e-01 -9.99676466e-01 -9.99840856e-01
      -9.99825358e-01 -9.99823391e-01 -9.99802947e-01 -9.99813259e-01
      -9.99841094e-01 -9.99829888e-01 -9.99820352e-01 -9.99802232e-01
      -9.99816298e-01 -9.99841094e-01 -9.99829173e-01 -9.99820113e-01
      -9.99803066e-01 -9.99809444e-01 -9.99841094e-01 -9.99819875e-01
      -9.99827266e-01 -9.99813378e-01 -9.99805391e-01 -9.99841094e-01
      -9.99830127e-01 -9.99818206e-01 -9.99800622e-01 -9.99809980e-01
      -9.99841094e-01 -9.99832094e-01 -9.99814928e-01 -9.99807596e-01
      -9.99809027e-01 -9.99841094e-01 -9.99829948e-01 -9.99815166e-01
      -9.99808252e-01 -9.99804914e-01 -9.99841034e-01 -9.99820292e-01
      -9.99827206e-01 -9.99805927e-01 -9.99809802e-01 -9.99841094e-01
      -9.99829829e-01 -9.99815941e-01 -9.99803782e-01 -9.99805868e-01
      -9.99841094e-01 -9.99829352e-01 -9.99812305e-01 -9.99807954e-01
      -9.99803960e-01 -9.99841094e-01 -9.99827504e-01 -9.99816239e-01
      -9.99811888e-01 -9.99803901e-01 -9.99841094e-01 -9.99822795e-01
      -9.99826610e-01 -9.99803007e-01 -9.99810874e-01 -9.99841094e-01
      -9.99826968e-01 -9.99824047e-01 -9.99805868e-01 -9.99808550e-01
      -9.99841094e-01 -9.99828398e-01 -9.99819636e-01 -9.99809384e-01
      -9.99798477e-01 -9.99841094e-01 -9.99825418e-01 -9.99823034e-01
      -9.99812782e-01 -9.99800742e-01 -9.99841094e-01 -9.99822795e-01
      -9.99828041e-01 -9.99799311e-01 -9.99812961e-01 -9.99841094e-01
      -9.99840796e-01 -9.93074834e-01 -9.97064948e-01 -4.98189300e-01
      -9.99477208e-01 -9.99727249e-01 -8.96297812e-01 1. -9.97815788e-01
      -9.96327817e-01 -9.99042988e-01 -1. -9.99477506e-01</_>
    <_>
      -9.81000960e-01 -9.87971246e-01 -9.87743974e-01 -9.88915384e-01
      -9.56652224e-01 -9.85589564e-01 -9.91308153e-01 -9.99844849e-01
      -9.95913506e-01 -9.99852955e-01 -9.51504469e-01 -9.99857247e-01
      -9.81000960e-01 -9.96333420e-01 -9.95684266e-01 -9.99118090e-01
      -9.98538315e-01 -9.98417199e-01 -9.87743974e-01 -9.98815238e-01
      -9.98275578e-01 -9.97487247e-01 -9.98207390e-01 -9.99287069e-01
      -9.99771535e-01 -9.99756694e-01 -9.99681473e-01 -9.99860823e-01
      -9.99843001e-01 -9.99841928e-01 -9.99836266e-01 -9.99836147e-01
      -9.99860942e-01 -9.99845803e-01 -9.99842823e-01 -9.99831736e-01
      -9.99836445e-01 -9.99861002e-01 -9.99846697e-01 -9.99843836e-01
      -9.99834180e-01 -9.99839067e-01 -9.99861002e-01 -9.99838948e-01
      -9.99847174e-01 -9.99830425e-01 -9.99834836e-01 -9.99861002e-01
      -9.99844313e-01 -9.99844968e-01 -9.99838114e-01 -9.99830544e-01
      -9.99861002e-01 -9.99841154e-01 -9.99845088e-01 -9.99828458e-01
      -9.99828577e-01 -9.99861002e-01 -9.99844074e-01 -9.99844432e-01
      -9.99827981e-01 -9.99828339e-01 -9.99861002e-01 -9.99839306e-01
      -9.99848008e-01 -9.99826252e-01 -9.99834418e-01 -9.99861002e-01
      -9.99843419e-01 -9.99845862e-01 -9.99832392e-01 -9.99827623e-01
      -9.99861002e-01 -9.99842167e-01 -9.99846935e-01 -9.99829173e-01
      -9.99829650e-01 -9.99861002e-01 -9.99841273e-01 -9.99848127e-01
      -9.99829650e-01 -9.99831915e-01 -9.99861002e-01 -9.99846220e-01
      -9.99844015e-01 -9.99829888e-01 -9.99837279e-01 -9.99860942e-01
      -9.99841988e-01 -9.99850273e-01 -9.99830961e-01 -9.99826431e-01
      -9.99861002e-01 -9.99841332e-01 -9.99848902e-01 -9.99830306e-01
      -9.99826610e-01 -9.99861002e-01 -9.99839187e-01 -9.99849558e-01
      -9.99830246e-01 -9.99831140e-01 -9.99861002e-01 -9.99844193e-01
      -9.99849200e-01 -9.99826431e-01 -9.99832094e-01 -9.99861002e-01
      -9.99860764e-01 -9.88982618e-01 -9.97290611e-01 -4.97176170e-01
      -9.99535620e-01 -9.99754429e-01 -9.17918384e-01 1. -9.98005211e-01
      -9.93082285e-01 -9.99089241e-01 -1. -9.99534547e-01</_>
    <_>
      -9.80708897e-01 -9.88623738e-01 -9.87909555e-01 -9.88171160e-01
      -9.48746443e-01 -9.86142337e-01 -9.90773916e-01 -9.99826550e-01
      -9.91471827e-01 -9.99837697e-01 -9.50993717e-01 -9.99842346e-01
      -9.80708897e-01 -9.98051107e-01 -9.93984401e-01 -9.99739289e-01
      -9.99177039e-01 -9.98185098e-01 -9.87909555e-01 -9.98296559e-01
      -9.98081744e-01 -9.99475658e-01 -9.99595463e-01 -9.98375297e-01
      -9.99769688e-01 -9.99759197e-01 -9.99695241e-01 -9.99846399e-01
      -9.99834955e-01 -9.99825656e-01 -9.99817848e-01 -9.99816775e-01
      -9.99846578e-01 -9.99836385e-01 -9.99825060e-01 -9.99816597e-01
      -9.99810338e-01 -9.99846578e-01 -9.99833703e-01 -9.99825656e-01
      -9.99817014e-01 -9.99812067e-01 -9.99846578e-01 -9.99832273e-01
      -9.99829173e-01 -9.99819696e-01 -9.99814749e-01 -9.99846578e-01
      -9.99838293e-01 -9.99822259e-01 -9.99816656e-01 -9.99812961e-01
      -9.99846578e-01 -9.99837637e-01 -9.99820709e-01 -9.99819160e-01
      -9.99809802e-01 -9.99846578e-01 -9.99835193e-01 -9.99822855e-01
      -9.99815285e-01 -9.99811471e-01 -9.99846578e-01 -9.99833047e-01
      -9.99831080e-01 -9.99808311e-01 -9.99819100e-01 -9.99846578e-01
      -9.99835730e-01 -9.99821484e-01 -9.99814689e-01 -9.99811292e-01
      -9.99846578e-01 -9.99833763e-01 -9.99821246e-01 -9.99816954e-01
      -9.99809444e-01 -9.99846578e-01 -9.99830842e-01 -9.99826550e-01
      -9.99812722e-01 -9.99814451e-01 -9.99846578e-01 -9.99832153e-01
      -9.99830723e-01 -9.99802172e-01 -9.99825418e-01 -9.99846578e-01
      -9.99834061e-01 -9.99831915e-01 -9.99813676e-01 -9.99814749e-01
      -9.99846578e-01 -9.99830604e-01 -9.99829531e-01 -9.99810457e-01
      -9.99808669e-01 -9.99846578e-01 -9.99825776e-01 -9.99831975e-01
      -9.99812663e-01 -9.99816298e-01 -9.99846578e-01 -9.99828517e-01
      -9.99836981e-01 -9.99792337e-01 -9.99828100e-01 -9.99846578e-01
      -9.99846339e-01 -9.93881822e-01 -9.97194231e-01 -4.98393923e-01
      -9.99499738e-01 -9.99737740e-01 -9.01186883e-01 1. -9.97905850e-01
      -9.96900976e-01 -9.99089241e-01 -1. -9.99500036e-01</_>
    <_>
      -9.86817777e-01 -9.90625024e-01 -9.94259298e-01 -9.95579839e-01
      -9.74273562e-01 -9.89368379e-01 -9.99898016e-01 -9.99885499e-01
      -9.99898016e-01 -9.99887526e-01 -9.51313615e-01 -9.99881566e-01
      -9.86817777e-01 -9.97978151e-01 -9.97312069e-01 -9.99243200e-01
      -9.99184191e-01 -9.99131680e-01 -9.94259298e-01 -9.99326408e-01
      -9.99293745e-01 -9.99646366e-01 -9.98786390e-01 -9.99279857e-01
      -9.99857545e-01 -9.99858916e-01 -9.99828339e-01 -9.99897897e-01
      -9.99890625e-01 -9.99891520e-01 -9.99882281e-01 -9.99889076e-01
      -9.99898016e-01 -9.99885023e-01 -9.99890924e-01 -9.99877810e-01
      -9.99884188e-01 -9.99898016e-01 -9.99884903e-01 -9.99890924e-01
      -9.99880791e-01 -9.99882042e-01 -9.99898016e-01 -9.99884069e-01
      -9.99892056e-01 -9.99885798e-01 -9.99878049e-01 -9.99898016e-01
      -9.99895513e-01 -9.99891996e-01 -9.99895871e-01 -9.99897003e-01
      -9.99898016e-01 -9.99888599e-01 -9.99886155e-01 -9.99882042e-01
      -9.99882579e-01 -9.99898016e-01 -9.99889076e-01 -9.99887168e-01
      -9.99882638e-01 -9.99881864e-01 -9.99898016e-01 -9.99885738e-01
      -9.99890268e-01 -9.99882042e-01 -9.99880075e-01 -9.99898016e-01
      -9.99894023e-01 -9.99888480e-01 -9.99892235e-01 -9.99891102e-01
      -9.99898016e-01 -9.99888539e-01 -9.99887288e-01 -9.99883354e-01
      -9.99882936e-01 -9.99898016e-01 -9.99888778e-01 -9.99888361e-01
      -9.99884844e-01 -9.99882221e-01 -9.99898016e-01 -9.99887824e-01
      -9.99890566e-01 -9.99879837e-01 -9.99885321e-01 -9.99898016e-01
      -9.99889970e-01 -9.99888122e-01 -9.99885857e-01 -9.99880612e-01
      -9.99898016e-01 -9.99889195e-01 -9.99889195e-01 -9.99882281e-01
      -9.99883413e-01 -9.99898016e-01 -9.99888420e-01 -9.99888241e-01
      -9.99880552e-01 -9.99882221e-01 -9.99898016e-01 -9.99889433e-01
      -9.99889255e-01 -9.99880612e-01 -9.99885082e-01 -9.99898016e-01
      -9.99897420e-01 -9.97202873e-01 -9.98544276e-01 -4.99249697e-01
      -9.99707997e-01 -9.99808311e-01 -9.51721430e-01 1. -9.98847485e-01
      -9.97990310e-01 -9.99543428e-01 -1. -9.99707997e-01</_>
    <_>
      -9.82041955e-01 -9.86531734e-01 -9.88286316e-01 -9.90977466e-01
      -9.55342531e-01 -9.85927939e-01 -9.95890200e-01 -9.99854267e-01
      -9.94667292e-01 -9.99858201e-01 -9.21904683e-01 -9.99855995e-01
      -9.82041955e-01 -9.99346733e-01 -9.94309127e-01 -9.99054730e-01
      -9.97705042e-01 -9.99592125e-01 -9.88286316e-01 -9.99624372e-01
      -9.99422789e-01 -9.99282241e-01 -9.99603868e-01 -9.98457849e-01
      -9.99774337e-01 -9.99780178e-01 -9.99705911e-01 -9.99864459e-01
      -9.99847233e-01 -9.99853492e-01 -9.99830484e-01 -9.99850094e-01
      -9.99864638e-01 -9.99848783e-01 -9.99854445e-01 -9.99836147e-01
      -9.99850690e-01 -9.99864638e-01 -9.99846518e-01 -9.99857903e-01
      -9.99838531e-01 -9.99842167e-01 -9.99864638e-01 -9.99845743e-01
      -9.99857426e-01 -9.99839187e-01 -9.99837101e-01 -9.99864638e-01
      -9.99852657e-01 -9.99850690e-01 -9.99850035e-01 -9.99851286e-01
      -9.99864638e-01 -9.99849379e-01 -9.99849498e-01 -9.99839962e-01
      -9.99843895e-01 -9.99864638e-01 -9.99849796e-01 -9.99856353e-01
      -9.99841690e-01 -9.99849617e-01 -9.99864638e-01 -9.99842882e-01
      -9.99858201e-01 -9.99834359e-01 -9.99837518e-01 -9.99864638e-01
      -9.99852002e-01 -9.99852836e-01 -9.99850690e-01 -9.99847353e-01
      -9.99864638e-01 -9.99846101e-01 -9.99854147e-01 -9.99833584e-01
      -9.99841988e-01 -9.99864638e-01 -9.99848545e-01 -9.99854088e-01
      -9.99829829e-01 -9.99844015e-01 -9.99864638e-01 -9.99842584e-01
      -9.99856830e-01 -9.99830008e-01 -9.99845445e-01 -9.99864638e-01
      -9.99848008e-01 -9.99856055e-01 -9.99849439e-01 -9.99843597e-01
      -9.99864638e-01 -9.99844313e-01 -9.99856830e-01 -9.99835432e-01
      -9.99838173e-01 -9.99864578e-01 -9.99845088e-01 -9.99856651e-01
      -9.99829352e-01 -9.99843419e-01 -9.99864638e-01 -9.99845088e-01
      -9.99857545e-01 -9.99827504e-01 -9.99846637e-01 -9.99864638e-01
      -9.99864399e-01 -9.88845706e-01 -9.97474968e-01 -4.97143716e-01
      -9.99562263e-01 -9.99758840e-01 -9.16688979e-01 1. -9.98119414e-01
      -9.92309332e-01 -9.99168515e-01 -1. -9.99560714e-01</_>
    <_>
      -9.64885116e-01 -9.85121846e-01 -9.75397229e-01 -9.87611234e-01
      -9.78963852e-01 -9.82485890e-01 -9.64490712e-01 -9.99769211e-01
      -9.72998798e-01 -9.99777257e-01 -9.92851019e-01 -9.99778271e-01
      -9.64885116e-01 -9.97690082e-01 -9.96719599e-01 -9.98590291e-01
      -9.98631716e-01 -9.98810589e-01 -9.75397229e-01 -9.97300208e-01
      -9.96005535e-01 -9.99005079e-01 -9.99113739e-01 -9.98145938e-01
      -9.99706209e-01 -9.99729753e-01 -9.99667883e-01 -9.99783337e-01
      -9.99781311e-01 -9.99779642e-01 -9.99777913e-01 -9.99778926e-01
      -9.99783516e-01 -9.99781787e-01 -9.99781609e-01 -9.99780893e-01
      -9.99779582e-01 -9.99783516e-01 -9.99778330e-01 -9.99779582e-01
      -9.99775887e-01 -9.99776185e-01 -9.99783516e-01 -9.99783397e-01
      -9.99783278e-01 -9.99783278e-01 -9.99783218e-01 -9.99783516e-01
      -9.99778330e-01 -9.99779344e-01 -9.99769628e-01 -9.99777079e-01
      -9.99783516e-01 -9.99783516e-01 -9.99783516e-01 -9.99783516e-01
      -9.99783516e-01 -9.99783516e-01 -9.99779880e-01 -9.99783039e-01
      -9.99780893e-01 -9.99781966e-01 -9.99783516e-01 -9.99779820e-01
      -9.99782503e-01 -9.99781013e-01 -9.99780059e-01 -9.99783516e-01
      -9.99780893e-01 -9.99771357e-01 -9.99779522e-01 -9.99775887e-01
      -9.99783516e-01 -9.99781668e-01 -9.99780595e-01 -9.99780476e-01
      -9.99779642e-01 -9.99783516e-01 -9.99781907e-01 -9.99779999e-01
      -9.99780595e-01 -9.99779761e-01 -9.99783516e-01 -9.99781251e-01
      -9.99781013e-01 -9.99779999e-01 -9.99780595e-01 -9.99783516e-01
      -9.99781489e-01 -9.99779582e-01 -9.99781668e-01 -9.99779463e-01
      -9.99783516e-01 -9.99780953e-01 -9.99782145e-01 -9.99780178e-01
      -9.99780178e-01 -9.99783516e-01 -9.99783158e-01 -9.99783039e-01
      -9.99781966e-01 -9.99781489e-01 -9.99783516e-01 -9.99783516e-01
      -9.99783516e-01 -9.99783516e-01 -9.99783516e-01 -9.99783516e-01
      -9.99782324e-01 -9.97624516e-01 -9.97831106e-01 -4.99297947e-01
      -9.99469101e-01 -9.99567807e-01 -9.67830777e-01 1. -9.98081446e-01
      -9.97894526e-01 -9.99415696e-01 -1. -9.99468625e-01</_>
    <_>
      -9.73747790e-01 -9.88391519e-01 -9.79244947e-01 -9.84701097e-01
      -9.71777499e-01 -9.82506931e-01 -9.66762662e-01 -9.99795675e-01
      -9.99825835e-01 -9.99818444e-01 -9.76469278e-01 -9.99822021e-01
      -9.73747790e-01 -9.97466445e-01 -9.96235788e-01 -9.98915732e-01
      -9.98161972e-01 -9.99070883e-01 -9.79244888e-01 -9.96688187e-01
      -9.93285358e-01 -9.98007298e-01 -9.98988330e-01 -9.97822821e-01
      -9.99728262e-01 -9.99739289e-01 -9.99652505e-01 -9.99825656e-01
      -9.99819636e-01 -9.99815106e-01 -9.99813735e-01 -9.99816775e-01
      -9.99825835e-01 -9.99820054e-01 -9.99819100e-01 -9.99819934e-01
      -9.99821246e-01 -9.99825835e-01 -9.99824584e-01 -9.99824584e-01
      -9.99822974e-01 -9.99824047e-01 -9.99825835e-01 -9.99819338e-01
      -9.99824941e-01 -9.99821842e-01 -9.99822676e-01 -9.99825835e-01
      -9.99824524e-01 -9.99820054e-01 -9.99822617e-01 -9.99823511e-01
      -9.99825835e-01 -9.99817491e-01 -9.99815762e-01 -9.99808311e-01
      -9.99813795e-01 -9.99825835e-01 -9.99818385e-01 -9.99818325e-01
      -9.99803066e-01 -9.99814391e-01 -9.99825835e-01 -9.99812841e-01
      -9.99820828e-01 -9.99805808e-01 -9.99815166e-01 -9.99825835e-01
      -9.99820769e-01 -9.99819577e-01 -9.99823332e-01 -9.99818623e-01
      -9.99825835e-01 -9.99814987e-01 -9.99813795e-01 -9.99800503e-01
      -9.99804676e-01 -9.99825835e-01 -9.99815106e-01 -9.99816656e-01
      -9.99795675e-01 -9.99809802e-01 -9.99825835e-01 -9.99814630e-01
      -9.99819517e-01 -9.99796689e-01 -9.99812424e-01 -9.99825835e-01
      -9.99817550e-01 -9.99819160e-01 -9.99820828e-01 -9.99816120e-01
      -9.99825835e-01 -9.99814570e-01 -9.99817908e-01 -9.99807835e-01
      -9.99809623e-01 -9.99825835e-01 -9.99812841e-01 -9.99819338e-01
      -9.99798238e-01 -9.99810100e-01 -9.99825835e-01 -9.99812841e-01
      -9.99819636e-01 -9.99794185e-01 -9.99811172e-01 -9.99825835e-01
      -9.99825418e-01 -9.97120559e-01 -9.97673750e-01 -4.99192953e-01
      -9.99523342e-01 -9.99667585e-01 -9.54047859e-01 1. -9.98107910e-01
      -9.97951806e-01 -9.99311984e-01 -1. -9.99522984e-01</_>
    <_>
      -9.82409120e-01 -9.84528303e-01 -9.85886633e-01 -9.87343550e-01
      -9.50169563e-01 -9.85457063e-01 -9.93403137e-01 -9.99814630e-01
      -9.94917095e-01 -9.99826968e-01 -9.40792680e-01 -9.99832690e-01
      -9.82409120e-01 -9.97861862e-01 -9.94341552e-01 -9.99465644e-01
      -9.98211801e-01 -9.97583389e-01 -9.85886633e-01 -9.98294353e-01
      -9.95682776e-01 -9.97913659e-01 -9.98744011e-01 -9.98496234e-01
      -9.99736130e-01 -9.99746323e-01 -9.99660075e-01 -9.99837339e-01
      -9.99820173e-01 -9.99825120e-01 -9.99791145e-01 -9.99813974e-01
      -9.99837518e-01 -9.99812841e-01 -9.99827862e-01 -9.99792516e-01
      -9.99814570e-01 -9.99837518e-01 -9.99811351e-01 -9.99825299e-01
      -9.99804258e-01 -9.99814093e-01 -9.99837518e-01 -9.99806225e-01
      -9.99828458e-01 -9.99803722e-01 -9.99807537e-01 -9.99837518e-01
      -9.99816597e-01 -9.99825835e-01 -9.99791265e-01 -9.99809325e-01
      -9.99837518e-01 -9.99812901e-01 -9.99826849e-01 -9.99791622e-01
      -9.99810338e-01 -9.99837518e-01 -9.99807835e-01 -9.99828696e-01
      -9.99794543e-01 -9.99813795e-01 -9.99837458e-01 -9.99802887e-01
      -9.99830067e-01 -9.99800026e-01 -9.99812782e-01 -9.99837518e-01
      -9.99815345e-01 -9.99825537e-01 -9.99799788e-01 -9.99804556e-01
      -9.99837518e-01 -9.99810755e-01 -9.99827087e-01 -9.99798357e-01
      -9.99807000e-01 -9.99837518e-01 -9.99811590e-01 -9.99826193e-01
      -9.99801159e-01 -9.99808848e-01 -9.99837518e-01 -9.99804139e-01
      -9.99829233e-01 -9.99795973e-01 -9.99817669e-01 -9.99837518e-01
      -9.99818385e-01 -9.99823809e-01 -9.99809206e-01 -9.99804199e-01
      -9.99837518e-01 -9.99820709e-01 -9.99822199e-01 -9.99808848e-01
      -9.99803483e-01 -9.99837518e-01 -9.99817371e-01 -9.99821544e-01
      -9.99802113e-01 -9.99802828e-01 -9.99837518e-01 -9.99814868e-01
      -9.99826431e-01 -9.99796987e-01 -9.99812067e-01 -9.99837518e-01
      -9.99837279e-01 -9.90920067e-01 -9.96902168e-01 -4.97648925e-01
      -9.99462366e-01 -9.99719501e-01 -9.05452192e-01 1. -9.97708142e-01
      -9.94838119e-01 -9.98983145e-01 -1. -9.99461770e-01</_>
    <_>
      -9.84290659e-01 -9.87868190e-01 -9.82032299e-01 -9.87570882e-01
      -9.87313151e-01 -9.87969100e-01 -9.99890387e-01 -9.99879479e-01
      -9.99890387e-01 -9.99882877e-01 -9.44206178e-01 -9.99883175e-01
      -9.84290659e-01 -9.98621881e-01 -9.95314658e-01 -9.99179780e-01
      -9.98947024e-01 -9.99012589e-01 -9.82032299e-01 -9.98646498e-01
      -9.97593820e-01 -9.98310983e-01 -9.98617887e-01 -9.99625623e-01
      -9.99856949e-01 -9.99824464e-01 -9.99801159e-01 -9.99890268e-01
      -9.99884486e-01 -9.99884427e-01 -9.99874175e-01 -9.99881566e-01
      -9.99890387e-01 -9.99882698e-01 -9.99885917e-01 -9.99876142e-01
      -9.99879479e-01 -9.99890387e-01 -9.99881148e-01 -9.99885857e-01
      -9.99877572e-01 -9.99876142e-01 -9.99890387e-01 -9.99882758e-01
      -9.99885619e-01 -9.99880254e-01 -9.99875486e-01 -9.99890387e-01
      -9.99884009e-01 -9.99880612e-01 -9.99866843e-01 -9.99878287e-01
      -9.99890387e-01 -9.99882460e-01 -9.99882042e-01 -9.99871373e-01
      -9.99872506e-01 -9.99890387e-01 -9.99882996e-01 -9.99881804e-01
      -9.99873281e-01 -9.99872983e-01 -9.99890387e-01 -9.99883890e-01
      -9.99882162e-01 -9.99877214e-01 -9.99873161e-01 -9.99890387e-01
      -9.99882221e-01 -9.99881625e-01 -9.99876440e-01 -9.99875009e-01
      -9.99890387e-01 -9.99882877e-01 -9.99878824e-01 -9.99869823e-01
      -9.99871790e-01 -9.99890387e-01 -9.99882460e-01 -9.99879241e-01
      -9.99870658e-01 -9.99870539e-01 -9.99890387e-01 -9.99883294e-01
      -9.99881566e-01 -9.99873340e-01 -9.99875128e-01 -9.99890387e-01
      -9.99876857e-01 -9.99885738e-01 -9.99880970e-01 -9.99880493e-01
      -9.99890387e-01 -9.99880373e-01 -9.99881446e-01 -9.99875963e-01
      -9.99876499e-01 -9.99890387e-01 -9.99883473e-01 -9.99883294e-01
      -9.99876499e-01 -9.99876797e-01 -9.99890387e-01 -9.99882221e-01
      -9.99882102e-01 -9.99868333e-01 -9.99874175e-01 -9.99890387e-01
      -9.99889851e-01 -9.93081331e-01 -9.98414934e-01 -4.98215586e-01
      -9.99673545e-01 -9.99788284e-01 -9.79130745e-01 1. -9.98757184e-01
      -9.94177282e-01 -9.99487042e-01 -1. -9.99673188e-01</_>
    <_>
      -9.84171331e-01 -9.91165459e-01 -9.91011143e-01 -9.93476331e-01
      -9.77209330e-01 -9.87543166e-01 -9.77714360e-01 -9.99858439e-01
      -9.94277418e-01 -9.99865353e-01 -9.45018411e-01 -9.99862552e-01
      -9.84171331e-01 -9.97957945e-01 -9.96586502e-01 -9.99610603e-01
      -9.98508930e-01 -9.99564648e-01 -9.91011143e-01 -9.99137640e-01
      -9.98197079e-01 -9.99174953e-01 -9.99068797e-01 -9.98577118e-01
      -9.99820411e-01 -9.99831796e-01 -9.99792278e-01 -9.99870002e-01
      -9.99861717e-01 -9.99858379e-01 -9.99861360e-01 -9.99863088e-01
      -9.99870181e-01 -9.99864459e-01 -9.99863446e-01 -9.99864519e-01
      -9.99864459e-01 -9.99870181e-01 -9.99864399e-01 -9.99862134e-01
      -9.99861658e-01 -9.99860048e-01 -9.99870181e-01 -9.99862492e-01
      -9.99863446e-01 -9.99863029e-01 -9.99857605e-01 -9.99870181e-01
      -9.99861598e-01 -9.99860227e-01 -9.99859929e-01 -9.99860585e-01
      -9.99870181e-01 -9.99862134e-01 -9.99862075e-01 -9.99858677e-01
      -9.99858081e-01 -9.99870181e-01 -9.99864995e-01 -9.99864757e-01
      -9.99862731e-01 -9.99862432e-01 -9.99870181e-01 -9.99861956e-01
      -9.99864221e-01 -9.99858856e-01 -9.99853432e-01 -9.99870181e-01
      -9.99864578e-01 -9.99862254e-01 -9.99865294e-01 -9.99863267e-01
      -9.99870181e-01 -9.99867201e-01 -9.99866247e-01 -9.99864995e-01
      -9.99865711e-01 -9.99870181e-01 -9.99866784e-01 -9.99866307e-01
      -9.99865532e-01 -9.99864757e-01 -9.99870181e-01 -9.99864340e-01
      -9.99865532e-01 -9.99859750e-01 -9.99862671e-01 -9.99870181e-01
      -9.99862075e-01 -9.99862015e-01 -9.99857843e-01 -9.99852598e-01
      -9.99870181e-01 -9.99864519e-01 -9.99864817e-01 -9.99858677e-01
      -9.99859869e-01 -9.99870181e-01 -9.99863446e-01 -9.99862909e-01
      -9.99857664e-01 -9.99857664e-01 -9.99870181e-01 -9.99866128e-01
      -9.99864221e-01 -9.99859214e-01 -9.99863088e-01 -9.99870181e-01
      -9.99869704e-01 -9.98020947e-01 -9.98396754e-01 -4.99440640e-01
      -9.99655485e-01 -9.99750733e-01 -9.58753586e-01 1. -9.98666406e-01
      -9.98436511e-01 -9.99545991e-01 -1. -9.99655366e-01</_>
    <_>
      -9.86825347e-01 -9.91694272e-01 -9.94222462e-01 -9.95412588e-01
      -9.74536121e-01 -9.89323318e-01 -9.99898076e-01 -9.99887049e-01
      -9.99898076e-01 -9.99888182e-01 -9.51801419e-01 -9.99881744e-01
      -9.86825347e-01 -9.97899294e-01 -9.97662067e-01 -9.99364793e-01
      -9.99172568e-01 -9.99354005e-01 -9.94222462e-01 -9.99119401e-01
      -9.99028265e-01 -9.99704301e-01 -9.98869479e-01 -9.99313414e-01
      -9.99856651e-01 -9.99859393e-01 -9.99827385e-01 -9.99897957e-01
      -9.99889970e-01 -9.99892473e-01 -9.99881864e-01 -9.99890029e-01
      -9.99898076e-01 -9.99885142e-01 -9.99891043e-01 -9.99878526e-01
      -9.99885321e-01 -9.99898076e-01 -9.99886155e-01 -9.99890208e-01
      -9.99880433e-01 -9.99881983e-01 -9.99898076e-01 -9.99884725e-01
      -9.99891162e-01 -9.99885857e-01 -9.99879479e-01 -9.99898076e-01
      -9.99895155e-01 -9.99891758e-01 -9.99895453e-01 -9.99896884e-01
      -9.99898076e-01 -9.99889433e-01 -9.99887049e-01 -9.99883294e-01
      -9.99882758e-01 -9.99898076e-01 -9.99889612e-01 -9.99887645e-01
      -9.99883831e-01 -9.99882638e-01 -9.99898076e-01 -9.99885261e-01
      -9.99890804e-01 -9.99881506e-01 -9.99880016e-01 -9.99898076e-01
      -9.99895215e-01 -9.99889493e-01 -9.99892950e-01 -9.99892831e-01
      -9.99898076e-01 -9.99889553e-01 -9.99888122e-01 -9.99884486e-01
      -9.99883533e-01 -9.99898076e-01 -9.99888659e-01 -9.99887407e-01
      -9.99883175e-01 -9.99882460e-01 -9.99898076e-01 -9.99887526e-01
      -9.99890566e-01 -9.99879718e-01 -9.99885082e-01 -9.99898076e-01
      -9.99890745e-01 -9.99888718e-01 -9.99886334e-01 -9.99882340e-01
      -9.99898076e-01 -9.99888420e-01 -9.99888718e-01 -9.99881148e-01
      -9.99881566e-01 -9.99898076e-01 -9.99887943e-01 -9.99889076e-01
      -9.99881089e-01 -9.99882638e-01 -9.99898076e-01 -9.99891281e-01
      -9.99891996e-01 -9.99884784e-01 -9.99887884e-01 -9.99898076e-01
      -9.99897540e-01 -9.97285903e-01 -9.98559117e-01 -4.99270320e-01
      -9.99709964e-01 -9.99808311e-01 -9.52230692e-01 1. -9.98855472e-01
      -9.98034239e-01 -9.99550939e-01 -1. -9.99709964e-01</_>
    <_>
      -9.81642187e-01 -9.86278117e-01 -9.88064528e-01 -9.90852714e-01
      -9.54829931e-01 -9.85816777e-01 -9.95848358e-01 -9.99853849e-01
      -9.90905821e-01 -9.99857545e-01 -9.21092331e-01 -9.99855459e-01
      -9.81642187e-01 -9.99472678e-01 -9.94277418e-01 -9.98946011e-01
      -9.97733712e-01 -9.99634564e-01 -9.88064528e-01 -9.99644756e-01
      -9.99437630e-01 -9.99282718e-01 -9.99705136e-01 -9.98528838e-01
      -9.99773085e-01 -9.99778032e-01 -9.99703586e-01 -9.99864042e-01
      -9.99842465e-01 -9.99854088e-01 -9.99837697e-01 -9.99842048e-01
      -9.99864221e-01 -9.99843299e-01 -9.99854982e-01 -9.99845505e-01
      -9.99839187e-01 -9.99864221e-01 -9.99838948e-01 -9.99858439e-01
      -9.99846399e-01 -9.99834180e-01 -9.99864221e-01 -9.99841988e-01
      -9.99857843e-01 -9.99844372e-01 -9.99830723e-01 -9.99864221e-01
      -9.99853134e-01 -9.99848008e-01 -9.99850094e-01 -9.99846935e-01
      -9.99864221e-01 -9.99848425e-01 -9.99850154e-01 -9.99841452e-01
      -9.99842525e-01 -9.99864221e-01 -9.99848843e-01 -9.99854803e-01
      -9.99842346e-01 -9.99848127e-01 -9.99864221e-01 -9.99840200e-01
      -9.99857664e-01 -9.99838650e-01 -9.99832809e-01 -9.99864221e-01
      -9.99852419e-01 -9.99854386e-01 -9.99854147e-01 -9.99850333e-01
      -9.99864221e-01 -9.99842584e-01 -9.99854684e-01 -9.99837339e-01
      -9.99839306e-01 -9.99864221e-01 -9.99844790e-01 -9.99854147e-01
      -9.99833107e-01 -9.99841928e-01 -9.99864221e-01 -9.99840558e-01
      -9.99857247e-01 -9.99832153e-01 -9.99841630e-01 -9.99864221e-01
      -9.99845386e-01 -9.99855042e-01 -9.99849081e-01 -9.99842107e-01
      -9.99864221e-01 -9.99840915e-01 -9.99857485e-01 -9.99834776e-01
      -9.99839187e-01 -9.99864221e-01 -9.99843955e-01 -9.99857187e-01
      -9.99830008e-01 -9.99843955e-01 -9.99864221e-01 -9.99843538e-01
      -9.99856472e-01 -9.99827623e-01 -9.99845445e-01 -9.99864221e-01
      -9.99863982e-01 -9.87489343e-01 -9.97448981e-01 -4.96804595e-01
      -9.99559104e-01 -9.99757707e-01 -9.15797055e-01 1. -9.98103738e-01
      -9.91156280e-01 -9.99156237e-01 -1. -9.99557197e-01</_>
    <_>
      -9.93572712e-01 -9.96627986e-01 -9.81192052e-01 -9.87718642e-01
      -9.75626886e-01 -9.91991758e-01 -9.95293140e-01 -9.99887764e-01
      -9.98824835e-01 -9.99891877e-01 -9.63968337e-01 -9.99890149e-01
      -9.93572712e-01 -9.99156237e-01 -9.98578846e-01 -9.99429345e-01
      -9.99801874e-01 -9.99149382e-01 -9.81192052e-01 -9.96269643e-01
      -9.95257497e-01 -9.98211563e-01 -9.98691976e-01 -9.97776568e-01
      -9.99818742e-01 -9.99840558e-01 -9.99805748e-01 -9.99899626e-01
      -9.99895453e-01 -9.99897182e-01 -9.99898016e-01 -9.99898493e-01
      -9.99899745e-01 -9.99896049e-01 -9.99892652e-01 -9.99897063e-01
      -9.99896228e-01 -9.99899745e-01 -9.99894261e-01 -9.99893963e-01
      -9.99896765e-01 -9.99895930e-01 -9.99899745e-01 -9.99897957e-01
      -9.99895811e-01 -9.99898016e-01 -9.99896407e-01 -9.99899745e-01
      -9.99899209e-01 -9.99898612e-01 -9.99899447e-01 -9.99899089e-01
      -9.99899745e-01 -9.99898076e-01 -9.99898553e-01 -9.99899387e-01
      -9.99899566e-01 -9.99899745e-01 -9.99899626e-01 -9.99898612e-01
      -9.99899268e-01 -9.99899626e-01 -9.99899745e-01 -9.99899745e-01
      -9.99898791e-01 -9.99899685e-01 -9.99899685e-01 -9.99899745e-01
      -9.99898970e-01 -9.99895096e-01 -9.99898493e-01 -9.99898076e-01
      -9.99899745e-01 -9.99895751e-01 -9.99895275e-01 -9.99896169e-01
      -9.99891400e-01 -9.99899745e-01 -9.99894559e-01 -9.99897242e-01
      -9.99896705e-01 -9.99894023e-01 -9.99899745e-01 -9.99894321e-01
      -9.99898493e-01 -9.99897718e-01 -9.99897838e-01 -9.99899745e-01
      -9.99898612e-01 -9.99893010e-01 -9.99898732e-01 -9.99898314e-01
      -9.99899745e-01 -9.99897540e-01 -9.99897063e-01 -9.99897778e-01
      -9.99896348e-01 -9.99899745e-01 -9.99899209e-01 -9.99897897e-01
      -9.99898076e-01 -9.99898791e-01 -9.99899745e-01 -9.99899447e-01
      -9.99896944e-01 -9.99898851e-01 -9.99899268e-01 -9.99899745e-01
      -9.99898970e-01 -9.97315466e-01 -9.98857737e-01 -4.99278933e-01
      -9.99746561e-01 -9.99800324e-01 -9.56450522e-01 1. -9.99024987e-01
      -9.97652888e-01 -9.99676704e-01 -1. -9.99746263e-01</_>
    <_>
      -9.92313564e-01 -9.91480112e-01 -9.87446606e-01 -9.92211580e-01
      -9.73634839e-01 -9.89318371e-01 -9.96483386e-01 -9.99855101e-01
      -9.98516142e-01 -9.99867141e-01 -9.80221212e-01 -9.99867380e-01
      -9.92313564e-01 -9.97223079e-01 -9.99216080e-01 -9.97491121e-01
      -9.99267340e-01 -9.99465108e-01 -9.87446606e-01 -9.98226821e-01
      -9.97520089e-01 -9.97802615e-01 -9.98960495e-01 -9.99123871e-01
      -9.99834001e-01 -9.99838293e-01 -9.99813974e-01 -9.99871135e-01
      -9.99861419e-01 -9.99856591e-01 -9.99854624e-01 -9.99854028e-01
      -9.99871254e-01 -9.99861240e-01 -9.99855816e-01 -9.99855101e-01
      -9.99856055e-01 -9.99871314e-01 -9.99861896e-01 -9.99857664e-01
      -9.99856174e-01 -9.99856889e-01 -9.99871314e-01 -9.99859273e-01
      -9.99861836e-01 -9.99850512e-01 -9.99853909e-01 -9.99871314e-01
      -9.99862373e-01 -9.99856293e-01 -9.99858081e-01 -9.99859273e-01
      -9.99871314e-01 -9.99859929e-01 -9.99859869e-01 -9.99855876e-01
      -9.99855220e-01 -9.99871314e-01 -9.99860883e-01 -9.99859810e-01
      -9.99854326e-01 -9.99855399e-01 -9.99871314e-01 -9.99857485e-01
      -9.99863088e-01 -9.99853253e-01 -9.99856889e-01 -9.99871314e-01
      -9.99859929e-01 -9.99859273e-01 -9.99854267e-01 -9.99852836e-01
      -9.99871314e-01 -9.99860108e-01 -9.99860525e-01 -9.99854147e-01
      -9.99851644e-01 -9.99871314e-01 -9.99862373e-01 -9.99861300e-01
      -9.99856055e-01 -9.99852479e-01 -9.99871314e-01 -9.99852777e-01
      -9.99864161e-01 -9.99853492e-01 -9.99855936e-01 -9.99871314e-01
      -9.99861360e-01 -9.99859452e-01 -9.99854326e-01 -9.99852121e-01
      -9.99871254e-01 -9.99862075e-01 -9.99862015e-01 -9.99857008e-01
      -9.99854028e-01 -9.99871314e-01 -9.99861479e-01 -9.99859691e-01
      -9.99854863e-01 -9.99853551e-01 -9.99871314e-01 -9.99859571e-01
      -9.99861002e-01 -9.99853373e-01 -9.99853313e-01 -9.99871314e-01
      -9.99870896e-01 -9.98305976e-01 -9.98307943e-01 -4.99512136e-01
      -9.99645770e-01 -9.99758542e-01 -9.51089740e-01 1. -9.98622239e-01
      -9.98852134e-01 -9.99510050e-01 -1. -9.99645889e-01</_>
    <_>
      -9.92085695e-01 -9.92532015e-01 -9.87246156e-01 -9.92119730e-01
      -9.72900271e-01 -9.89140570e-01 -9.95944142e-01 -9.99853492e-01
      -9.98021960e-01 -9.99864340e-01 -9.79783297e-01 -9.99864995e-01
      -9.92085695e-01 -9.97027755e-01 -9.99301493e-01 -9.97746170e-01
      -9.99525130e-01 -9.99564826e-01 -9.87246156e-01 -9.97983634e-01
      -9.97602999e-01 -9.97965634e-01 -9.98988807e-01 -9.99001563e-01
      -9.99829292e-01 -9.99835432e-01 -9.99808609e-01 -9.99868751e-01
      -9.99859154e-01 -9.99852777e-01 -9.99851644e-01 -9.99851882e-01
      -9.99868870e-01 -9.99858081e-01 -9.99853730e-01 -9.99852955e-01
      -9.99853790e-01 -9.99868870e-01 -9.99859452e-01 -9.99854684e-01
      -9.99853492e-01 -9.99854147e-01 -9.99868870e-01 -9.99858141e-01
      -9.99859095e-01 -9.99848843e-01 -9.99852836e-01 -9.99868870e-01
      -9.99860108e-01 -9.99852955e-01 -9.99855161e-01 -9.99856114e-01
      -9.99868870e-01 -9.99857366e-01 -9.99857903e-01 -9.99853134e-01
      -9.99854267e-01 -9.99868870e-01 -9.99859273e-01 -9.99857783e-01
      -9.99853432e-01 -9.99854445e-01 -9.99868870e-01 -9.99853969e-01
      -9.99860585e-01 -9.99851882e-01 -9.99855995e-01 -9.99868870e-01
      -9.99858499e-01 -9.99858201e-01 -9.99853551e-01 -9.99851823e-01
      -9.99868870e-01 -9.99855757e-01 -9.99858022e-01 -9.99851704e-01
      -9.99848664e-01 -9.99868870e-01 -9.99857962e-01 -9.99855280e-01
      -9.99850631e-01 -9.99846637e-01 -9.99868870e-01 -9.99849975e-01
      -9.99860764e-01 -9.99850154e-01 -9.99852359e-01 -9.99868870e-01
      -9.99858975e-01 -9.99856770e-01 -9.99851823e-01 -9.99849975e-01
      -9.99868870e-01 -9.99858320e-01 -9.99858737e-01 -9.99852717e-01
      -9.99850273e-01 -9.99868870e-01 -9.99859452e-01 -9.99857843e-01
      -9.99855936e-01 -9.99854386e-01 -9.99868870e-01 -9.99856293e-01
      -9.99856412e-01 -9.99849379e-01 -9.99848008e-01 -9.99868870e-01
      -9.99868512e-01 -9.98132527e-01 -9.98272181e-01 -4.99467760e-01
      -9.99638438e-01 -9.99754190e-01 -9.49413896e-01 1. -9.98594582e-01
      -9.98701930e-01 -9.99498308e-01 -1. -9.99638498e-01</_>
    <_>
      -9.76261973e-01 -9.83614445e-01 -9.87667739e-01 -9.89253521e-01
      -9.50208068e-01 -9.84976590e-01 -9.61817324e-01 -9.99816418e-01
      -9.94938552e-01 -9.99821126e-01 -9.49396849e-01 -9.99827027e-01
      -9.76261973e-01 -9.98543382e-01 -9.93802369e-01 -9.98294413e-01
      -9.96341407e-01 -9.98896122e-01 -9.87667739e-01 -9.99469161e-01
      -9.98953819e-01 -9.98484910e-01 -9.99052525e-01 -9.98552084e-01
      -9.99727368e-01 -9.99742925e-01 -9.99658346e-01 -9.99831259e-01
      -9.99810696e-01 -9.99813318e-01 -9.99801517e-01 -9.99804676e-01
      -9.99831498e-01 -9.99813139e-01 -9.99817967e-01 -9.99803901e-01
      -9.99808729e-01 -9.99831498e-01 -9.99809325e-01 -9.99819100e-01
      -9.99802589e-01 -9.99798596e-01 -9.99831498e-01 -9.99812484e-01
      -9.99820173e-01 -9.99800920e-01 -9.99788523e-01 -9.99831498e-01
      -9.99814093e-01 -9.99809861e-01 -9.99799132e-01 -9.99803960e-01
      -9.99831498e-01 -9.99813497e-01 -9.99811769e-01 -9.99801159e-01
      -9.99803364e-01 -9.99831498e-01 -9.99805391e-01 -9.99819398e-01
      -9.99798656e-01 -9.99804437e-01 -9.99831498e-01 -9.99809980e-01
      -9.99820292e-01 -9.99792933e-01 -9.99793291e-01 -9.99831498e-01
      -9.99810040e-01 -9.99816060e-01 -9.99797404e-01 -9.99796093e-01
      -9.99831498e-01 -9.99811292e-01 -9.99816775e-01 -9.99793708e-01
      -9.99799669e-01 -9.99831498e-01 -9.99803007e-01 -9.99820232e-01
      -9.99790907e-01 -9.99807954e-01 -9.99831438e-01 -9.99807298e-01
      -9.99821365e-01 -9.99788463e-01 -9.99801517e-01 -9.99831498e-01
      -9.99810517e-01 -9.99820828e-01 -9.99798834e-01 -9.99795914e-01
      -9.99831498e-01 -9.99809921e-01 -9.99820292e-01 -9.99795794e-01
      -9.99803066e-01 -9.99831498e-01 -9.99812365e-01 -9.99817967e-01
      -9.99794364e-01 -9.99807775e-01 -9.99831498e-01 -9.99805093e-01
      -9.99821782e-01 -9.99788761e-01 -9.99803901e-01 -9.99831498e-01
      -9.99831140e-01 -9.91108060e-01 -9.96960759e-01 -4.97692704e-01
      -9.99458373e-01 -9.99700785e-01 -9.05672789e-01 1. -9.97722626e-01
      -9.94534910e-01 -9.99001741e-01 -1. -9.99457419e-01</_>
    <_>
      -9.89675581e-01 -9.89459693e-01 -9.87436473e-01 -9.91705537e-01
      -9.75735426e-01 -9.88439202e-01 -9.96894300e-01 -9.99840021e-01
      -9.96210456e-01 -9.99853849e-01 -9.82761741e-01 -9.99854386e-01
      -9.89675581e-01 -9.97268796e-01 -9.97659385e-01 -9.97677863e-01
      -9.98767674e-01 -9.98310685e-01 -9.87436473e-01 -9.97693777e-01
      -9.97246087e-01 -9.98584449e-01 -9.98902917e-01 -9.98975813e-01
      -9.99807119e-01 -9.99826729e-01 -9.99786437e-01 -9.99857426e-01
      -9.99849975e-01 -9.99848425e-01 -9.99848306e-01 -9.99846876e-01
      -9.99857545e-01 -9.99855101e-01 -9.99850035e-01 -9.99853253e-01
      -9.99851465e-01 -9.99857545e-01 -9.99853492e-01 -9.99850154e-01
      -9.99851882e-01 -9.99851048e-01 -9.99857545e-01 -9.99851167e-01
      -9.99847114e-01 -9.99847174e-01 -9.99847531e-01 -9.99857545e-01
      -9.99851763e-01 -9.99841273e-01 -9.99848247e-01 -9.99846339e-01
      -9.99857545e-01 -9.99848425e-01 -9.99847472e-01 -9.99847233e-01
      -9.99845862e-01 -9.99857545e-01 -9.99849021e-01 -9.99849617e-01
      -9.99844432e-01 -9.99844015e-01 -9.99857545e-01 -9.99847591e-01
      -9.99848545e-01 -9.99843419e-01 -9.99843240e-01 -9.99857545e-01
      -9.99848366e-01 -9.99849796e-01 -9.99847949e-01 -9.99846816e-01
      -9.99857545e-01 -9.99850810e-01 -9.99850392e-01 -9.99847710e-01
      -9.99845743e-01 -9.99857545e-01 -9.99848485e-01 -9.99849439e-01
      -9.99845326e-01 -9.99843955e-01 -9.99857545e-01 -9.99849081e-01
      -9.99846697e-01 -9.99843121e-01 -9.99841690e-01 -9.99857545e-01
      -9.99849796e-01 -9.99850214e-01 -9.99846995e-01 -9.99849439e-01
      -9.99857545e-01 -9.99853730e-01 -9.99852717e-01 -9.99851704e-01
      -9.99849916e-01 -9.99857545e-01 -9.99849498e-01 -9.99850929e-01
      -9.99846399e-01 -9.99847174e-01 -9.99857545e-01 -9.99850512e-01
      -9.99852419e-01 -9.99849260e-01 -9.99849856e-01 -9.99857545e-01
      -9.99857128e-01 -9.97747600e-01 -9.98291910e-01 -4.99365479e-01
      -9.99630094e-01 -9.99729037e-01 -9.55618083e-01 1. -9.98561680e-01
      -9.98154223e-01 -9.99529243e-01 -1. -9.99629855e-01</_>
    <_>
      -9.84314799e-01 -9.91289556e-01 -9.91418302e-01 -9.93782878e-01
      -9.76897359e-01 -9.87777412e-01 -9.78042901e-01 -9.99866009e-01
      -9.96061623e-01 -9.99872625e-01 -9.45821166e-01 -9.99869227e-01
      -9.84314799e-01 -9.97966945e-01 -9.96705949e-01 -9.99494791e-01
      -9.98381734e-01 -9.99421239e-01 -9.91418302e-01 -9.99113441e-01
      -9.98364687e-01 -9.99187887e-01 -9.99147415e-01 -9.98621941e-01
      -9.99828517e-01 -9.99838710e-01 -9.99800265e-01 -9.99877214e-01
      -9.99869704e-01 -9.99865353e-01 -9.99868333e-01 -9.99869287e-01
      -9.99877334e-01 -9.99872804e-01 -9.99871075e-01 -9.99872565e-01
      -9.99873579e-01 -9.99877334e-01 -9.99870777e-01 -9.99868572e-01
      -9.99866426e-01 -9.99865294e-01 -9.99877334e-01 -9.99866784e-01
      -9.99870062e-01 -9.99867141e-01 -9.99862909e-01 -9.99877334e-01
      -9.99870539e-01 -9.99868929e-01 -9.99868989e-01 -9.99870121e-01
      -9.99877334e-01 -9.99870896e-01 -9.99868214e-01 -9.99866486e-01
      -9.99866843e-01 -9.99877334e-01 -9.99869347e-01 -9.99870420e-01
      -9.99866366e-01 -9.99866724e-01 -9.99877334e-01 -9.99864101e-01
      -9.99871731e-01 -9.99861717e-01 -9.99859631e-01 -9.99877334e-01
      -9.99872148e-01 -9.99868393e-01 -9.99871850e-01 -9.99869585e-01
      -9.99877334e-01 -9.99872804e-01 -9.99870121e-01 -9.99868631e-01
      -9.99869168e-01 -9.99877334e-01 -9.99872327e-01 -9.99872267e-01
      -9.99871135e-01 -9.99870121e-01 -9.99877334e-01 -9.99866724e-01
      -9.99872148e-01 -9.99858797e-01 -9.99866664e-01 -9.99877334e-01
      -9.99871612e-01 -9.99870539e-01 -9.99867022e-01 -9.99862134e-01
      -9.99877334e-01 -9.99869347e-01 -9.99869347e-01 -9.99863744e-01
      -9.99864817e-01 -9.99877334e-01 -9.99870181e-01 -9.99871552e-01
      -9.99865711e-01 -9.99866724e-01 -9.99877334e-01 -9.99872029e-01
      -9.99873340e-01 -9.99864757e-01 -9.99870777e-01 -9.99877334e-01
      -9.99876976e-01 -9.97724771e-01 -9.98395562e-01 -4.99369830e-01
      -9.99665856e-01 -9.99765992e-01 -9.57984030e-01 1. -9.98688638e-01
      -9.98256147e-01 -9.99534607e-01 -1. -9.99665737e-01</_>
    <_>
      -9.73408222e-01 -9.84684706e-01 -9.88521278e-01 -9.91934955e-01
      -9.54574108e-01 -9.84378278e-01 -9.62497473e-01 -9.99778211e-01
      -9.94002640e-01 -9.99786854e-01 -9.07454014e-01 -9.99785721e-01
      -9.73408222e-01 -9.96920049e-01 -9.94436145e-01 -9.99385059e-01
      -9.97004688e-01 -9.98874843e-01 -9.88521278e-01 -9.98472869e-01
      -9.98389721e-01 -9.98828769e-01 -9.98597443e-01 -9.98367071e-01
      -9.99696434e-01 -9.99715745e-01 -9.99637544e-01 -9.99796450e-01
      -9.99781787e-01 -9.99779105e-01 -9.99773622e-01 -9.99775410e-01
      -9.99796689e-01 -9.99778211e-01 -9.99777079e-01 -9.99770820e-01
      -9.99772251e-01 -9.99796689e-01 -9.99783635e-01 -9.99777079e-01
      -9.99775529e-01 -9.99772191e-01 -9.99796689e-01 -9.99782205e-01
      -9.99779165e-01 -9.99776185e-01 -9.99760509e-01 -9.99796689e-01
      -9.99783516e-01 -9.99781489e-01 -9.99778628e-01 -9.99779642e-01
      -9.99796689e-01 -9.99777257e-01 -9.99772847e-01 -9.99765635e-01
      -9.99766648e-01 -9.99796689e-01 -9.99780953e-01 -9.99776542e-01
      -9.99769688e-01 -9.99768138e-01 -9.99796689e-01 -9.99783874e-01
      -9.99777734e-01 -9.99771059e-01 -9.99755502e-01 -9.99796689e-01
      -9.99782562e-01 -9.99778748e-01 -9.99775052e-01 -9.99773920e-01
      -9.99796689e-01 -9.99781966e-01 -9.99775946e-01 -9.99771476e-01
      -9.99769330e-01 -9.99796689e-01 -9.99781132e-01 -9.99781311e-01
      -9.99774992e-01 -9.99776125e-01 -9.99796689e-01 -9.99781251e-01
      -9.99779582e-01 -9.99760628e-01 -9.99768555e-01 -9.99796689e-01
      -9.99784470e-01 -9.99779344e-01 -9.99770045e-01 -9.99771714e-01
      -9.99796689e-01 -9.99782622e-01 -9.99775708e-01 -9.99767780e-01
      -9.99770999e-01 -9.99796689e-01 -9.99783397e-01 -9.99779463e-01
      -9.99774337e-01 -9.99772429e-01 -9.99796689e-01 -9.99778688e-01
      -9.99780715e-01 -9.99758959e-01 -9.99772847e-01 -9.99796689e-01
      -9.99795914e-01 -9.97786880e-01 -9.97362852e-01 -4.99345243e-01
      -9.99435246e-01 -9.99617457e-01 -9.15118992e-01 1. -9.97855425e-01
      -9.98605072e-01 -9.99223471e-01 -1. -9.99435484e-01</_>
    <_>
      -9.73616481e-01 -9.87906098e-01 -9.79457676e-01 -9.84540224e-01
      -9.72436607e-01 -9.82615650e-01 -9.67414558e-01 -9.99800861e-01
      -9.99835670e-01 -9.99827564e-01 -9.76040363e-01 -9.99831915e-01
      -9.73616481e-01 -9.97406900e-01 -9.96579230e-01 -9.98854101e-01
      -9.98336196e-01 -9.98891175e-01 -9.79457676e-01 -9.96762931e-01
      -9.93271470e-01 -9.97342110e-01 -9.98921096e-01 -9.98086989e-01
      -9.99745131e-01 -9.99749660e-01 -9.99668539e-01 -9.99835491e-01
      -9.99829590e-01 -9.99826670e-01 -9.99823332e-01 -9.99826491e-01
      -9.99835670e-01 -9.99831140e-01 -9.99828041e-01 -9.99830663e-01
      -9.99831378e-01 -9.99835670e-01 -9.99833405e-01 -9.99832988e-01
      -9.99830961e-01 -9.99831378e-01 -9.99835670e-01 -9.99832749e-01
      -9.99835432e-01 -9.99834716e-01 -9.99834895e-01 -9.99835670e-01
      -9.99834180e-01 -9.99829471e-01 -9.99831498e-01 -9.99832630e-01
      -9.99835670e-01 -9.99825120e-01 -9.99826550e-01 -9.99819696e-01
      -9.99821961e-01 -9.99835670e-01 -9.99824047e-01 -9.99826372e-01
      -9.99807715e-01 -9.99816895e-01 -9.99835670e-01 -9.99825537e-01
      -9.99827802e-01 -9.99809504e-01 -9.99819994e-01 -9.99835670e-01
      -9.99829829e-01 -9.99829650e-01 -9.99834359e-01 -9.99829471e-01
      -9.99835670e-01 -9.99821723e-01 -9.99825895e-01 -9.99811471e-01
      -9.99811769e-01 -9.99835670e-01 -9.99820888e-01 -9.99826133e-01
      -9.99807596e-01 -9.99814868e-01 -9.99835670e-01 -9.99824464e-01
      -9.99827743e-01 -9.99807596e-01 -9.99819577e-01 -9.99835670e-01
      -9.99830425e-01 -9.99830365e-01 -9.99831140e-01 -9.99828815e-01
      -9.99835670e-01 -9.99822438e-01 -9.99829531e-01 -9.99821424e-01
      -9.99821544e-01 -9.99835670e-01 -9.99820054e-01 -9.99828517e-01
      -9.99810576e-01 -9.99811351e-01 -9.99835670e-01 -9.99823630e-01
      -9.99828041e-01 -9.99807417e-01 -9.99817252e-01 -9.99835670e-01
      -9.99835312e-01 -9.96440291e-01 -9.97687757e-01 -4.99027938e-01
      -9.99539256e-01 -9.99686420e-01 -9.55460429e-01 1. -9.98147488e-01
      -9.97491002e-01 -9.99299228e-01 -1. -9.99538839e-01</_>
    <_>
      -9.86657441e-01 -9.91618216e-01 -9.94220555e-01 -9.95510936e-01
      -9.74197507e-01 -9.89319205e-01 -9.99898016e-01 -9.99886930e-01
      -9.99898016e-01 -9.99888062e-01 -9.51239467e-01 -9.99881506e-01
      -9.86657441e-01 -9.98004973e-01 -9.97654200e-01 -9.99376595e-01
      -9.99288797e-01 -9.99336123e-01 -9.94220555e-01 -9.99094546e-01
      -9.99067307e-01 -9.99734759e-01 -9.98942971e-01 -9.99316990e-01
      -9.99856532e-01 -9.99859512e-01 -9.99827683e-01 -9.99897897e-01
      -9.99888420e-01 -9.99892414e-01 -9.99882460e-01 -9.99887526e-01
      -9.99898016e-01 -9.99883890e-01 -9.99891698e-01 -9.99877810e-01
      -9.99884665e-01 -9.99898016e-01 -9.99884963e-01 -9.99892056e-01
      -9.99882877e-01 -9.99883235e-01 -9.99898016e-01 -9.99884307e-01
      -9.99891996e-01 -9.99885798e-01 -9.99878883e-01 -9.99898016e-01
      -9.99895692e-01 -9.99891937e-01 -9.99895751e-01 -9.99896944e-01
      -9.99898016e-01 -9.99889314e-01 -9.99887586e-01 -9.99884069e-01
      -9.99884546e-01 -9.99898016e-01 -9.99888957e-01 -9.99887466e-01
      -9.99883115e-01 -9.99882042e-01 -9.99898016e-01 -9.99885321e-01
      -9.99890327e-01 -9.99881685e-01 -9.99879420e-01 -9.99898016e-01
      -9.99894142e-01 -9.99888897e-01 -9.99891818e-01 -9.99890924e-01
      -9.99898016e-01 -9.99890387e-01 -9.99889374e-01 -9.99886453e-01
      -9.99885082e-01 -9.99898016e-01 -9.99890268e-01 -9.99889553e-01
      -9.99885917e-01 -9.99883950e-01 -9.99898016e-01 -9.99888480e-01
      -9.99891400e-01 -9.99880314e-01 -9.99886394e-01 -9.99898016e-01
      -9.99890745e-01 -9.99889255e-01 -9.99886811e-01 -9.99882281e-01
      -9.99898016e-01 -9.99888361e-01 -9.99888480e-01 -9.99881446e-01
      -9.99882042e-01 -9.99898016e-01 -9.99889016e-01 -9.99889553e-01
      -9.99882817e-01 -9.99883592e-01 -9.99898016e-01 -9.99889672e-01
      -9.99889731e-01 -9.99880970e-01 -9.99884963e-01 -9.99898016e-01
      -9.99897420e-01 -9.97061789e-01 -9.98539627e-01 -4.99214411e-01
      -9.99707758e-01 -9.99808073e-01 -9.51512218e-01 1. -9.98844445e-01
      -9.97865677e-01 -9.99541700e-01 -1. -9.99707699e-01</_>
    <_>
      -9.62598503e-01 -9.90149975e-01 -9.73478079e-01 -9.87495124e-01
      -9.77923274e-01 -9.82091129e-01 -9.64151621e-01 -9.99765694e-01
      -9.79780674e-01 -9.99780655e-01 -9.91971314e-01 -9.99781191e-01
      -9.62598503e-01 -9.98305380e-01 -9.97903824e-01 -9.99002099e-01
      -9.99729633e-01 -9.99595881e-01 -9.73478079e-01 -9.95994747e-01
      -9.95589316e-01 -9.98863339e-01 -9.99018788e-01 -9.98202980e-01
      -9.99708951e-01 -9.99729156e-01 -9.99667764e-01 -9.99785721e-01
      -9.99782622e-01 -9.99780953e-01 -9.99778509e-01 -9.99779940e-01
      -9.99785900e-01 -9.99784887e-01 -9.99784052e-01 -9.99784291e-01
      -9.99783278e-01 -9.99785900e-01 -9.99780178e-01 -9.99782085e-01
      -9.99777436e-01 -9.99777615e-01 -9.99785900e-01 -9.99785483e-01
      -9.99784768e-01 -9.99785244e-01 -9.99784946e-01 -9.99785900e-01
      -9.99782026e-01 -9.99783099e-01 -9.99773264e-01 -9.99779999e-01
      -9.99785841e-01 -9.99785900e-01 -9.99785900e-01 -9.99785900e-01
      -9.99785900e-01 -9.99785900e-01 -9.99782383e-01 -9.99784172e-01
      -9.99781847e-01 -9.99783337e-01 -9.99785900e-01 -9.99782562e-01
      -9.99785304e-01 -9.99783516e-01 -9.99782801e-01 -9.99785900e-01
      -9.99783158e-01 -9.99773204e-01 -9.99781549e-01 -9.99778509e-01
      -9.99785900e-01 -9.99784350e-01 -9.99782681e-01 -9.99783099e-01
      -9.99782681e-01 -9.99785900e-01 -9.99783874e-01 -9.99782801e-01
      -9.99782264e-01 -9.99781787e-01 -9.99785900e-01 -9.99784052e-01
      -9.99783635e-01 -9.99783397e-01 -9.99782979e-01 -9.99785900e-01
      -9.99784231e-01 -9.99781907e-01 -9.99784052e-01 -9.99782205e-01
      -9.99785900e-01 -9.99784887e-01 -9.99785066e-01 -9.99784172e-01
      -9.99784231e-01 -9.99785900e-01 -9.99785483e-01 -9.99785304e-01
      -9.99784470e-01 -9.99783993e-01 -9.99785900e-01 -9.99785900e-01
      -9.99785900e-01 -9.99785900e-01 -9.99785900e-01 -9.99785900e-01
      -9.99784708e-01 -9.97684538e-01 -9.97843683e-01 -4.99314129e-01
      -9.99473929e-01 -9.99573290e-01 -9.67617869e-01 1. -9.98095095e-01
      -9.97957230e-01 -9.99419093e-01 -1. -9.99473512e-01</_>
    <_>
      -9.88822401e-01 -9.88599718e-01 -9.86105680e-01 -9.90830243e-01
      -9.75744069e-01 -9.87828553e-01 -9.96655762e-01 -9.99825597e-01
      -9.96165335e-01 -9.99839485e-01 -9.80717301e-01 -9.99839962e-01
      -9.88822401e-01 -9.97000635e-01 -9.97523904e-01 -9.97435451e-01
      -9.98693645e-01 -9.98180449e-01 -9.86105680e-01 -9.97505009e-01
      -9.96946931e-01 -9.98472989e-01 -9.98690188e-01 -9.98954058e-01
      -9.99789357e-01 -9.99811530e-01 -9.99767542e-01 -9.99843240e-01
      -9.99838889e-01 -9.99836922e-01 -9.99838531e-01 -9.99837935e-01
      -9.99843419e-01 -9.99839783e-01 -9.99834895e-01 -9.99837816e-01
      -9.99835730e-01 -9.99843419e-01 -9.99839962e-01 -9.99836683e-01
      -9.99838650e-01 -9.99837577e-01 -9.99843419e-01 -9.99839425e-01
      -9.99834418e-01 -9.99836802e-01 -9.99836326e-01 -9.99843419e-01
      -9.99838352e-01 -9.99828637e-01 -9.99835074e-01 -9.99832988e-01
      -9.99843419e-01 -9.99837697e-01 -9.99835789e-01 -9.99837220e-01
      -9.99837339e-01 -9.99843419e-01 -9.99835193e-01 -9.99835610e-01
      -9.99830425e-01 -9.99830067e-01 -9.99843419e-01 -9.99833107e-01
      -9.99834061e-01 -9.99830902e-01 -9.99829471e-01 -9.99843419e-01
      -9.99835789e-01 -9.99837637e-01 -9.99836683e-01 -9.99837041e-01
      -9.99843419e-01 -9.99839246e-01 -9.99838829e-01 -9.99837875e-01
      -9.99837279e-01 -9.99843419e-01 -9.99836564e-01 -9.99837339e-01
      -9.99833405e-01 -9.99832749e-01 -9.99843419e-01 -9.99837041e-01
      -9.99834955e-01 -9.99832988e-01 -9.99831080e-01 -9.99843419e-01
      -9.99838114e-01 -9.99837458e-01 -9.99835253e-01 -9.99838293e-01
      -9.99843419e-01 -9.99839008e-01 -9.99838114e-01 -9.99836683e-01
      -9.99834776e-01 -9.99843419e-01 -9.99837756e-01 -9.99838948e-01
      -9.99835670e-01 -9.99836624e-01 -9.99843419e-01 -9.99839783e-01
      -9.99840677e-01 -9.99839246e-01 -9.99839902e-01 -9.99843419e-01
      -9.99842942e-01 -9.97938514e-01 -9.98188913e-01 -4.99406397e-01
      -9.99598682e-01 -9.99699235e-01 -9.55840528e-01 1. -9.98458922e-01
      -9.98307049e-01 -9.99506474e-01 -1. -9.99598444e-01</_>
    <_>
      -9.69107687e-01 -9.84753489e-01 -9.83761609e-01 -9.88425732e-01
      -9.39448297e-01 -9.82179105e-01 -9.85622168e-01 -9.99777913e-01
      -9.89874244e-01 -9.99783397e-01 -9.38377440e-01 -9.99788463e-01
      -9.69107687e-01 -9.98260379e-01 -9.93239284e-01 -9.98404801e-01
      -9.96182442e-01 -9.98793781e-01 -9.83761609e-01 -9.99007106e-01
      -9.98609722e-01 -9.97948945e-01 -9.99190986e-01 -9.98133183e-01
      -9.99655128e-01 -9.99681473e-01 -9.99569476e-01 -9.99795377e-01
      -9.99769211e-01 -9.99777198e-01 -9.99753714e-01 -9.99766767e-01
      -9.99795616e-01 -9.99766052e-01 -9.99780357e-01 -9.99761701e-01
      -9.99762297e-01 -9.99795616e-01 -9.99761224e-01 -9.99782681e-01
      -9.99765038e-01 -9.99748290e-01 -9.99795616e-01 -9.99769032e-01
      -9.99783754e-01 -9.99766350e-01 -9.99739170e-01 -9.99795616e-01
      -9.99776185e-01 -9.99774098e-01 -9.99767840e-01 -9.99766588e-01
      -9.99795616e-01 -9.99773026e-01 -9.99774158e-01 -9.99765098e-01
      -9.99764442e-01 -9.99795616e-01 -9.99761641e-01 -9.99779999e-01
      -9.99759912e-01 -9.99762833e-01 -9.99795616e-01 -9.99765754e-01
      -9.99781489e-01 -9.99750257e-01 -9.99744356e-01 -9.99795616e-01
      -9.99771535e-01 -9.99775767e-01 -9.99753892e-01 -9.99757230e-01
      -9.99795616e-01 -9.99773145e-01 -9.99776483e-01 -9.99754727e-01
      -9.99760807e-01 -9.99795616e-01 -9.99760389e-01 -9.99784231e-01
      -9.99753654e-01 -9.99767840e-01 -9.99795616e-01 -9.99762177e-01
      -9.99785066e-01 -9.99747872e-01 -9.99753118e-01 -9.99795616e-01
      -9.99768913e-01 -9.99780416e-01 -9.99752760e-01 -9.99750078e-01
      -9.99795616e-01 -9.99763966e-01 -9.99783814e-01 -9.99754906e-01
      -9.99756396e-01 -9.99795616e-01 -9.99763727e-01 -9.99782443e-01
      -9.99751627e-01 -9.99764860e-01 -9.99795616e-01 -9.99762297e-01
      -9.99783099e-01 -9.99742985e-01 -9.99760211e-01 -9.99795616e-01
      -9.99795139e-01 -9.88823652e-01 -9.96243119e-01 -4.97103512e-01
      -9.99328315e-01 -9.99630749e-01 -8.85237396e-01 1. -9.97203648e-01
      -9.93126452e-01 -9.98752713e-01 -1. -9.99326885e-01</_>
    <_>
      -9.87480938e-01 -9.92090225e-01 -9.94500101e-01 -9.95612502e-01
      -9.75716531e-01 -9.89616930e-01 -9.99897778e-01 -9.99885857e-01
      -9.99897778e-01 -9.99886930e-01 -9.54952419e-01 -9.99881148e-01
      -9.87480938e-01 -9.97926772e-01 -9.98044431e-01 -9.99518156e-01
      -9.99327064e-01 -9.99190986e-01 -9.94500101e-01 -9.99014080e-01
      -9.99010205e-01 -9.99741435e-01 -9.98926401e-01 -9.99331117e-01
      -9.99858320e-01 -9.99861181e-01 -9.99829590e-01 -9.99897659e-01
      -9.99889731e-01 -9.99891341e-01 -9.99884844e-01 -9.99888718e-01
      -9.99897778e-01 -9.99886334e-01 -9.99890685e-01 -9.99880791e-01
      -9.99886751e-01 -9.99897778e-01 -9.99889374e-01 -9.99889433e-01
      -9.99882758e-01 -9.99885976e-01 -9.99897778e-01 -9.99888659e-01
      -9.99889851e-01 -9.99886096e-01 -9.99882579e-01 -9.99897778e-01
      -9.99895632e-01 -9.99891877e-01 -9.99894738e-01 -9.99896169e-01
      -9.99897778e-01 -9.99888837e-01 -9.99887586e-01 -9.99883831e-01
      -9.99884725e-01 -9.99897778e-01 -9.99889553e-01 -9.99887288e-01
      -9.99883592e-01 -9.99883473e-01 -9.99897778e-01 -9.99890029e-01
      -9.99890029e-01 -9.99885023e-01 -9.99882102e-01 -9.99897778e-01
      -9.99895036e-01 -9.99889195e-01 -9.99893308e-01 -9.99892294e-01
      -9.99897778e-01 -9.99890387e-01 -9.99888182e-01 -9.99886513e-01
      -9.99885321e-01 -9.99897778e-01 -9.99889255e-01 -9.99888301e-01
      -9.99884605e-01 -9.99882400e-01 -9.99897778e-01 -9.99889612e-01
      -9.99888957e-01 -9.99882340e-01 -9.99885798e-01 -9.99897778e-01
      -9.99890089e-01 -9.99888003e-01 -9.99886751e-01 -9.99883711e-01
      -9.99897778e-01 -9.99889314e-01 -9.99888837e-01 -9.99882936e-01
      -9.99883294e-01 -9.99897778e-01 -9.99890685e-01 -9.99889016e-01
      -9.99882996e-01 -9.99884844e-01 -9.99897778e-01 -9.99890924e-01
      -9.99889672e-01 -9.99885559e-01 -9.99886930e-01 -9.99897778e-01
      -9.99897122e-01 -9.98133659e-01 -9.98672724e-01 -4.99482363e-01
      -9.99721825e-01 -9.99807715e-01 -9.54634666e-01 1. -9.98918772e-01
      -9.98607755e-01 -9.99603093e-01 -1. -9.99721825e-01</_>
    <_>
      -9.71646309e-01 -9.83567834e-01 -9.73942161e-01 -9.83456433e-01
      -9.73572493e-01 -9.82024133e-01 -9.64212537e-01 -9.99819577e-01
      -9.19447005e-01 -9.99828577e-01 -9.81551290e-01 -9.99831855e-01
      -9.71646309e-01 -9.96517479e-01 -9.95595753e-01 -9.98369515e-01
      -9.96481061e-01 -9.98476923e-01 -9.73942161e-01 -9.98207092e-01
      -9.97954130e-01 -9.97211158e-01 -9.96385872e-01 -9.97885466e-01
      -9.99749899e-01 -9.99752045e-01 -9.99685526e-01 -9.99835610e-01
      -9.99815285e-01 -9.99829650e-01 -9.99814451e-01 -9.99809802e-01
      -9.99835789e-01 -9.99814332e-01 -9.99826431e-01 -9.99820650e-01
      -9.99822199e-01 -9.99835789e-01 -9.99817252e-01 -9.99826729e-01
      -9.99823689e-01 -9.99825776e-01 -9.99835789e-01 -9.99823272e-01
      -9.99829412e-01 -9.99818146e-01 -9.99814630e-01 -9.99835789e-01
      -9.99818146e-01 -9.99828458e-01 -9.99818861e-01 -9.99815404e-01
      -9.99835730e-01 -9.99818385e-01 -9.99827981e-01 -9.99817193e-01
      -9.99817789e-01 -9.99835789e-01 -9.99824524e-01 -9.99828041e-01
      -9.99819338e-01 -9.99823451e-01 -9.99835789e-01 -9.99825060e-01
      -9.99825239e-01 -9.99816358e-01 -9.99816239e-01 -9.99835789e-01
      -9.99833822e-01 -9.99825060e-01 -9.99832213e-01 -9.99832392e-01
      -9.99835789e-01 -9.99831855e-01 -9.99827623e-01 -9.99830246e-01
      -9.99830842e-01 -9.99835789e-01 -9.99832094e-01 -9.99832153e-01
      -9.99830186e-01 -9.99829292e-01 -9.99835789e-01 -9.99831140e-01
      -9.99833822e-01 -9.99830186e-01 -9.99832630e-01 -9.99835789e-01
      -9.99831438e-01 -9.99830246e-01 -9.99830961e-01 -9.99826908e-01
      -9.99835789e-01 -9.99823034e-01 -9.99826491e-01 -9.99813020e-01
      -9.99811590e-01 -9.99835789e-01 -9.99827206e-01 -9.99826670e-01
      -9.99816597e-01 -9.99818206e-01 -9.99835789e-01 -9.99828398e-01
      -9.99829710e-01 -9.99819398e-01 -9.99826610e-01 -9.99835789e-01
      -9.99835372e-01 -9.90935266e-01 -9.97518003e-01 -4.97651666e-01
      -9.99523342e-01 -9.99686003e-01 -9.58389759e-01 1. -9.98051345e-01
      -9.92806435e-01 -9.99227881e-01 -1. -9.99521434e-01</_>
    <_>
      -9.93386507e-01 -9.96310532e-01 -9.82993305e-01 -9.89561319e-01
      -9.78188336e-01 -9.91964102e-01 -9.95598853e-01 -9.99889314e-01
      -9.98898208e-01 -9.99898553e-01 -9.66334760e-01 -9.99896824e-01
      -9.93386507e-01 -9.99204159e-01 -9.98372078e-01 -9.99558747e-01
      -9.99608994e-01 -9.99160528e-01 -9.82993305e-01 -9.97117937e-01
      -9.95780289e-01 -9.98555362e-01 -9.98893619e-01 -9.98199522e-01
      -9.99832153e-01 -9.99857068e-01 -9.99823928e-01 -9.99902248e-01
      -9.99901712e-01 -9.99900579e-01 -9.99901831e-01 -9.99902129e-01
      -9.99902368e-01 -9.99901354e-01 -9.99899089e-01 -9.99902010e-01
      -9.99901772e-01 -9.99902368e-01 -9.99899507e-01 -9.99898374e-01
      -9.99901056e-01 -9.99899983e-01 -9.99902368e-01 -9.99899924e-01
      -9.99900222e-01 -9.99901712e-01 -9.99898851e-01 -9.99902368e-01
      -9.99901593e-01 -9.99900818e-01 -9.99901712e-01 -9.99900997e-01
      -9.99902368e-01 -9.99899745e-01 -9.99900460e-01 -9.99900937e-01
      -9.99900222e-01 -9.99902368e-01 -9.99901354e-01 -9.99901175e-01
      -9.99901772e-01 -9.99900639e-01 -9.99902368e-01 -9.99901533e-01
      -9.99901354e-01 -9.99901712e-01 -9.99901354e-01 -9.99902368e-01
      -9.99901712e-01 -9.99892235e-01 -9.99901474e-01 -9.99900758e-01
      -9.99902368e-01 -9.99899924e-01 -9.99895155e-01 -9.99899030e-01
      -9.99896228e-01 -9.99902368e-01 -9.99898434e-01 -9.99900401e-01
      -9.99899805e-01 -9.99899268e-01 -9.99902368e-01 -9.99897838e-01
      -9.99899745e-01 -9.99900758e-01 -9.99900520e-01 -9.99902368e-01
      -9.99902368e-01 -9.99901175e-01 -9.99902368e-01 -9.99902368e-01
      -9.99902368e-01 -9.99899864e-01 -9.99901831e-01 -9.99901950e-01
      -9.99901414e-01 -9.99902368e-01 -9.99902189e-01 -9.99901831e-01
      -9.99902010e-01 -9.99902010e-01 -9.99902368e-01 -9.99902308e-01
      -9.99902368e-01 -9.99902308e-01 -9.99902308e-01 -9.99902368e-01
      -9.99901950e-01 -9.98724341e-01 -9.98937070e-01 -4.99632329e-01
      -9.99759078e-01 -9.99806464e-01 -9.61024106e-01 1. -9.99074280e-01
      -9.98916686e-01 -9.99713242e-01 -1. -9.99758959e-01</_>
    <_>
      -9.86608088e-01 -9.86960173e-01 -9.81760323e-01 -9.87605333e-01
      -9.76256549e-01 -9.86775875e-01 -9.96397316e-01 -9.99817491e-01
      -9.93754864e-01 -9.99828517e-01 -9.74729478e-01 -9.99828219e-01
      -9.86608088e-01 -9.96780872e-01 -9.96943712e-01 -9.97528374e-01
      -9.98664498e-01 -9.98054683e-01 -9.81760323e-01 -9.96927738e-01
      -9.95686173e-01 -9.98338580e-01 -9.98245001e-01 -9.98623550e-01
      -9.99767125e-01 -9.99791145e-01 -9.99738991e-01 -9.99832273e-01
      -9.99827683e-01 -9.99824882e-01 -9.99826789e-01 -9.99824882e-01
      -9.99832451e-01 -9.99827266e-01 -9.99820650e-01 -9.99823570e-01
      -9.99822319e-01 -9.99832451e-01 -9.99827504e-01 -9.99824345e-01
      -9.99825120e-01 -9.99824226e-01 -9.99832451e-01 -9.99827147e-01
      -9.99822021e-01 -9.99823749e-01 -9.99823332e-01 -9.99832451e-01
      -9.99827147e-01 -9.99815404e-01 -9.99824584e-01 -9.99822497e-01
      -9.99832451e-01 -9.99825120e-01 -9.99824584e-01 -9.99826312e-01
      -9.99825478e-01 -9.99832451e-01 -9.99823928e-01 -9.99823689e-01
      -9.99818385e-01 -9.99817967e-01 -9.99832451e-01 -9.99823451e-01
      -9.99823570e-01 -9.99820888e-01 -9.99820292e-01 -9.99832451e-01
      -9.99826491e-01 -9.99827802e-01 -9.99828815e-01 -9.99828577e-01
      -9.99832451e-01 -9.99827743e-01 -9.99827623e-01 -9.99826670e-01
      -9.99825716e-01 -9.99832451e-01 -9.99822140e-01 -9.99823868e-01
      -9.99818265e-01 -9.99817431e-01 -9.99832451e-01 -9.99828041e-01
      -9.99824703e-01 -9.99825716e-01 -9.99822676e-01 -9.99832451e-01
      -9.99825537e-01 -9.99826670e-01 -9.99823272e-01 -9.99825835e-01
      -9.99832451e-01 -9.99827027e-01 -9.99826014e-01 -9.99824405e-01
      -9.99821782e-01 -9.99832451e-01 -9.99824643e-01 -9.99826372e-01
      -9.99821782e-01 -9.99823272e-01 -9.99832451e-01 -9.99831021e-01
      -9.99831259e-01 -9.99830723e-01 -9.99831319e-01 -9.99832451e-01
      -9.99831855e-01 -9.97525394e-01 -9.98062909e-01 -4.99297440e-01
      -9.99568820e-01 -9.99676764e-01 -9.57764506e-01 1. -9.98354614e-01
      -9.97932374e-01 -9.99467611e-01 -1. -9.99568462e-01</_>
    <_>
      -9.86619890e-01 -9.91621435e-01 -9.94290054e-01 -9.95518744e-01
      -9.74501491e-01 -9.89347041e-01 -9.99898076e-01 -9.99887049e-01
      -9.99898076e-01 -9.99888241e-01 -9.51820612e-01 -9.99881625e-01
      -9.86619890e-01 -9.97946143e-01 -9.97705102e-01 -9.99252737e-01
      -9.99090970e-01 -9.99256968e-01 -9.94290054e-01 -9.99085009e-01
      -9.99030769e-01 -9.99683321e-01 -9.98895645e-01 -9.99292314e-01
      -9.99856710e-01 -9.99859750e-01 -9.99827504e-01 -9.99897897e-01
      -9.99889612e-01 -9.99891698e-01 -9.99881983e-01 -9.99888837e-01
