<?xml version="1.0"?>
<opencv_storage>
<cascade type_id="opencv-haar-classifier">
  <size>
    24 24</size>
  <stages>
    <_>
      <!-- stage 0 -->
      <trees>
        <_>
          <!-- tree 0 -->
          <_>
            <!-- root node -->
            <feature>
              <rects>
                <_>
                  3 0 8 3 -1.</_>
                <_>
                  5 2 4 3 2.</_></rects>
              <tilted>1</tilted></feature>
            <threshold>-0.0268584508448839</threshold>
            <left_val>0.8074197769165039</left_val>
            <right_node>1</right_node></_>
          <_>
            <!-- node 1 -->
            <feature>
              <rects>
                <_>
                  17 0 4 2 -1.</_>
                <_>
                  17 0 2 1 2.</_>
                <_>
                  19 1 2 1 2.</_></rects>
              <tilted>0</tilted></feature>
            <threshold>5.2610258571803570e-03</threshold>
            <left_val>-0.9227294921875000</left_val>
            <right_val>0.8362309932708740</right_val></_></_>
        <_>
          <!-- tree 1 -->
          <_>
            <!-- root node -->
            <feature>
              <rects>
                <_>
                  15 4 8 6 -1.</_>
                <_>
                  17 4 4 6 2.</_></rects>
              <tilted>0</tilted></feature>
            <threshold>-0.0131849702447653</threshold>
            <left_val>0.7133650779724121</left_val>
            <right_node>1</right_node></_>
          <_>
            <!-- node 1 -->
            <feature>
              <rects>
                <_>
                  18 1 6 3 -1.</_>
                <_>
                  20 1 2 3 3.</_></rects>
              <tilted>0</tilted></feature>
            <threshold>0.0151685299351811</threshold>
            <left_val>-0.9377682209014893</left_val>
            <right_val>0.7043604850769043</right_val></_></_></trees>
      <stage_threshold>-0.2183689028024673</stage_threshold>
      <parent>-1</parent>
      <next>-1</next></_>
    <_>
      <!-- stage 1 -->
      <trees>
        <_>
          <!-- tree 0 -->
          <_>
            <!-- root node -->
            <feature>
              <rects>
                <_>
                  4 2 2 21 -1.</_>
                <_>
                  4 9 2 7 3.</_></rects>
              <tilted>0</tilted></feature>
            <threshold>0.0417639799416065</threshold>
            <left_val>-0.8006746172904968</left_val>
            <right_node>1</right_node></_>
          <_>
            <!-- node 1 -->
            <feature>
              <rects>
                <_>
                  2 9 5 14 -1.</_>
                <_>
                  2 16 5 7 2.</_></rects>
              <tilted>0</tilted></feature>
            <threshold>-0.0267307702451944</threshold>
            <left_val>0.9010543823242188</left_val>
            <right_val>-0.9345610737800598</right_val></_></_>
        <_>
          <!-- tree 1 -->
          <_>
            <!-- root node -->
            <feature>
              <rects>
                <_>
                  6 1 6 8 -1.</_>
                <_>
                  9 1 3 8 2.</_></rects>
              <tilted>0</tilted></feature>
            <threshold>9.5388805493712425e-03</threshold>
            <left_val>-0.8314434289932251</left_val>
            <right_node>1</right_node></_>
          <_>
            <!-- node 1 -->
            <feature>
              <rects>
                <_>
                  1 3 20 10 -1.</_>
                <_>
                  1 8 20 5 2.</_></rects>
              <tilted>0</tilted></feature>
            <threshold>0.0130206104367971</threshold>
            <left_val>-0.8642035722732544</left_val>
            <right_val>0.7882446050643921</right_val></_></_>
        <_>
          <!-- tree 2 -->
          <_>
            <!-- root node -->
            <feature>
              <rects>
                <_>
                  20 0 1 4 -1.</_>
                <_>
                  20 1 1 2 2.</_></rects>
              <tilted>0</tilted></feature>
            <threshold>2.2553140297532082e-03</threshold>
            <left_node>1</left_node>
            <right_val>0.8711907267570496</right_val></_>
          <_>
            <!-- node 1 -->
            <feature>
              <rects>
                <_>
                  17 3 2 18 -1.</_>
                <_>
                  17 9 2 6 3.</_></rects>
              <tilted>0</tilted></feature>
            <threshold>0.0428372807800770</threshold>
            <left_val>-0.8307473063468933</left_val>
            <right_val>0.7110028266906738</right_val></_></_></trees>
      <stage_threshold>-0.8431773185729980</stage_threshold>
      <parent>0</parent>
      <next>-1</next></_>
    <_>
      <!-- stage 2 -->
      <trees>
        <_>
          <!-- tree 0 -->
          <_>
            <!-- root node -->
            <feature>
              <rects>
                <_>
                  10 0 2 8 -1.</_>
                <_>
                  8 2 2 4 2.</_></rects>
              <tilted>1</tilted></feature>
            <threshold>-0.0224540606141090</threshold>
            <left_node>1</left_node>
            <right_val>-0.7077543735504150</right_val></_>
          <_>
            <!-- node 1 -->
            <feature>
              <rects>
                <_>
                  10 4 12 14 -1.</_>
                <_>
                  10 4 6 7 2.</_>
                <_>
                  16 11 6 7 2.</_></rects>
              <tilted>0</tilted></feature>
            <threshold>0.0247972793877125</threshold>
            <left_val>-0.4660966992378235</left_val>
            <right_val>0.8979204893112183</right_val></_></_>
        <_>
          <!-- tree 1 -->
          <_>
            <!-- root node -->
            <feature>
              <rects>
                <_>
                  1 10 20 14 -1.</_>
                <_>
                  1 17 20 7 2.</_></rects>
              <tilted>0</tilted></feature>
            <threshold>-0.1499205976724625</threshold>
            <left_val>0.6278390884399414</left_val>
            <right_node>1</right_node></_>
          <_>
            <!-- node 1 -->
            <feature>
              <rects>
                <_>
                  2 5 4 19 -1.</_>
                <_>
                  3 5 2 19 2.</_></rects>
              <tilted>0</tilted></feature>
            <threshold>-9.2773083597421646e-03</threshold>
            <left_val>0.1842686980962753</left_val>
            <right_val>-0.9234877228736877</right_val></_></_></trees>
      <stage_threshold>-0.5234857797622681</stage_threshold>
      <parent>1</parent>
      <next>-1</next></_>
    <_>
      <!-- stage 3 -->
      <trees>
        <_>
          <!-- tree 0 -->
          <_>
            <!-- root node -->
            <feature>
              <rects>
                <_>
                  10 0 1 8 -1.</_>
                <_>
                  8 2 1 4 2.</_></rects>
              <tilted>1</tilted></feature>
            <threshold>-0.0184860192239285</threshold>
            <left_val>0.7519950270652771</left_val>
            <right_node>1</right_node></_>
          <_>
            <!-- node 1 -->
            <feature>
              <rects>
                <_>
                  18 1 3 12 -1.</_>
                <_>
                  18 4 3 6 2.</_></rects>
              <tilted>0</tilted></feature>
            <threshold>-0.0384347699582577</threshold>
            <left_val>0.4722056984901428</left_val>
            <right_val>-0.8386319875717163</right_val></_></_>
        <_>
          <!-- tree 1 -->
          <_>
            <!-- root node -->
            <feature>
              <rects>
                <_>
                  15 4 9 15 -1.</_>
                <_>
                  15 9 9 5 3.</_></rects>
              <tilted>0</tilted></feature>
            <threshold>0.1156044974923134</threshold>
            <left_node>1</left_node>
            <right_val>0.5905780792236328</right_val></_>
          <_>
            <!-- node 1 -->
            <feature>
              <rects>
                <_>
                  17 0 1 3 -1.</_>
                <_>
                  17 1 1 1 3.</_></rects>
              <tilted>0</tilted></feature>
            <threshold>-4.0313261561095715e-03</threshold>
            <left_val>0.8044394850730896</left_val>
            <right_val>-0.8030726909637451</right_val></_></_>
        <_>
          <!-- tree 2 -->
          <_>
            <!-- root node -->
            <feature>
              <rects>
                <_>
                  13 1 6 20 -1.</_>
                <_>
                  13 1 3 10 2.</_>
                <_>
                  16 11 3 10 2.</_></rects>
              <tilted>0</tilted></feature>
            <threshold>0.0301387794315815</threshold>
            <left_node>1</left_node>
            <right_val>0.5357425212860107</right_val></_>
          <_>
            <!-- node 1 -->
            <feature>
              <rects>
                <_>
                  7 0 14 2 -1.</_>
                <_>
                  7 0 7 1 2.</_>
                <_>
                  14 1 7 1 2.</_></rects>
              <tilted>0</tilted></feature>
            <threshold>0.0186070892959833</threshold>
            <left_val>-0.8201727271080017</left_val>
            <right_val>0.8664898872375488</right_val></_></_>
        <_>
          <!-- tree 3 -->
          <_>
            <!-- root node -->
            <feature>
              <rects>
                <_>
                  6 0 6 6 -1.</_>
                <_>
                  8 2 2 6 3.</_></rects>
              <tilted>1</tilted></feature>
            <threshold>-0.0343169495463371</threshold>
            <left_node>1</left_node>
            <right_val>-0.6501814723014832</right_val></_>
          <_>
            <!-- node 1 -->
            <feature>
              <rects>
                <_>
                  20 4 4 12 -1.</_>
                <_>
                  20 4 2 6 2.</_>
                <_>
                  22 10 2 6 2.</_></rects>
              <tilted>0</tilted></feature>
            <threshold>-4.8898467794060707e-03</threshold>
            <left_val>0.7220044732093811</left_val>
            <right_val>-0.4963001012802124</right_val></_></_>
        <_>
          <!-- tree 4 -->
          <_>
            <!-- root node -->
            <feature>
              <rects>
                <_>
                  1 2 23 12 -1.</_>
                <_>
                  1 8 23 6 2.</_></rects>
              <tilted>0</tilted></feature>
            <threshold>0.1384419947862625</threshold>
            <left_val>-0.6919180154800415</left_val>
            <right_node>1</right_node></_>
          <_>
            <!-- node 1 -->
            <feature>
              <rects>
                <_>
                  5 23 8 1 -1.</_>
                <_>
                  9 23 4 1 2.</_></rects>
              <tilted>0</tilted></feature>
            <threshold>1.2833779910579324e-03</threshold>
            <left_val>-0.3126384019851685</left_val>
            <right_val>0.8056555986404419</right_val></_></_></trees>
      <stage_threshold>-0.9955654740333557</stage_threshold>
      <parent>2</parent>
      <next>-1</next></_>
    <_>
      <!-- stage 4 -->
      <trees>
        <_>
          <!-- tree 0 -->
          <_>
            <!-- root node -->
            <feature>
              <rects>
                <_>
                  21 2 3 17 -1.</_>
                <_>
                  22 2 1 17 3.</_></rects>
              <tilted>0</tilted></feature>
            <threshold>8.6279520764946938e-03</threshold>
            <left_node>1</left_node>
            <right_val>0.7158071994781494</right_val></_>
          <_>
            <!-- node 1 -->
            <feature>
              <rects>
                <_>
                  19 0 4 9 -1.</_>
                <_>
                  21 0 2 9 2.</_></rects>
              <tilted>0</tilted></feature>
            <threshold>0.0204744394868612</threshold>
            <left_val>-0.8441858291625977</left_val>
            <right_val>0.4838671982288361</right_val></_></_>
        <_>
          <!-- tree 1 -->
          <_>
            <!-- root node -->
            <feature>
              <rects>
                <_>
                  0 11 2 1 -1.</_>
                <_>
                  1 11 1 1 2.</_></rects>
              <tilted>0</tilted></feature>
            <threshold>2.9327340598683804e-05</threshold>
            <left_val>-0.6761314868927002</left_val>
            <right_node>1</right_node></_>
          <_>
            <!-- node 1 -->
            <feature>
              <rects>
                <_>
                  0 14 6 2 -1.</_>
                <_>
                  0 15 6 1 2.</_></rects>
              <tilted>0</tilted></feature>
            <threshold>-5.2058978326385841e-05</threshold>
            <left_val>0.5580341219902039</left_val>
            <right_val>-0.7156221270561218</right_val></_></_>
        <_>
          <!-- tree 2 -->
          <_>
            <!-- root node -->
            <feature>
              <rects>
                <_>
                  8 5 14 10 -1.</_>
                <_>
                  8 5 7 5 2.</_>
                <_>
                  15 10 7 5 2.</_></rects>
              <tilted>0</tilted></feature>
            <threshold>0.0461215600371361</threshold>
            <left_val>-0.5083739757537842</left_val>
            <right_node>1</right_node></_>
          <_>
            <!-- node 1 -->
            <feature>
              <rects>
                <_>
                  12 0 9 1 -1.</_>
                <_>
                  15 0 3 1 3.</_></rects>
              <tilted>0</tilted></feature>
            <threshold>1.4596739783883095e-03</threshold>
            <left_val>0.6574041247367859</left_val>
            <right_val>-0.9438390731811523</right_val></_></_></trees>
      <stage_threshold>-0.8629133105278015</stage_threshold>
      <parent>3</parent>
      <next>-1</next></_>
    <_>
      <!-- stage 5 -->
      <trees>
        <_>
          <!-- tree 0 -->
          <_>
            <!-- root node -->
            <feature>
              <rects>
                <_>
                  23 20 1 3 -1.</_>
                <_>
                  23 21 1 1 3.</_></rects>
              <tilted>0</tilted></feature>
            <threshold>3.2575810328125954e-03</threshold>
            <left_node>1</left_node>
            <right_val>0.9176480770111084</right_val></_>
          <_>
            <!-- node 1 -->
            <feature>
              <rects>
                <_>
                  8 3 1 6 -1.</_>
                <_>
                  6 5 1 2 3.</_></rects>
              <tilted>1</tilted></feature>
            <threshold>-0.0120753198862076</threshold>
            <left_val>0.4384996891021729</left_val>
            <right_val>-0.7197101116180420</right_val></_></_>
        <_>
          <!-- tree 1 -->
          <_>
            <!-- root node -->
            <feature>
              <rects>
                <_>
                  17 2 4 8 -1.</_>
                <_>
                  18 2 2 8 2.</_></rects>
              <tilted>0</tilted></feature>
            <threshold>-3.8738739676773548e-03</threshold>
            <left_node>1</left_node>
            <right_val>-0.6821835041046143</right_val></_>
          <_>
            <!-- node 1 -->
            <feature>
              <rects>
                <_>
                  3 15 1 2 -1.</_>
                <_>
                  3 16 1 1 2.</_></rects>
              <tilted>0</tilted></feature>
            <threshold>-3.4352560760453343e-05</threshold>
            <left_val>0.6842734217643738</left_val>
            <right_val>-0.5852925181388855</right_val></_></_>
        <_>
          <!-- tree 2 -->
          <_>
            <!-- root node -->
            <feature>
              <rects>
                <_>
                  20 0 2 2 -1.</_>
                <_>
                  20 0 1 1 2.</_>
                <_>
                  21 1 1 1 2.</_></rects>
              <tilted>0</tilted></feature>
            <threshold>-1.4832180459052324e-03</threshold>
            <left_val>0.7588964104652405</left_val>
            <right_node>1</right_node></_>
          <_>
            <!-- node 1 -->
            <feature>
              <rects>
                <_>
                  2 2 20 8 -1.</_>
                <_>
                  2 6 20 4 2.</_></rects>
              <tilted>0</tilted></feature>
            <threshold>0.1781326979398727</threshold>
            <left_val>-0.6463093757629395</left_val>
            <right_val>0.7148076891899109</right_val></_></_></trees>
      <stage_threshold>-0.8899933099746704</stage_threshold>
      <parent>4</parent>
      <next>-1</next></_>
    <_>
      <!-- stage 6 -->
      <trees>
        <_>
          <!-- tree 0 -->
          <_>
            <!-- root node -->
            <feature>
              <rects>
                <_>
                  22 2 2 1 -1.</_>
                <_>
                  23 2 1 1 2.</_></rects>
              <tilted>0</tilted></feature>
            <threshold>-1.6017690068110824e-03</threshold>
            <left_val>0.8246229290962219</left_val>
            <right_node>1</right_node></_>
          <_>
            <!-- node 1 -->
            <feature>
              <rects>
                <_>
                  18 1 6 3 -1.</_>
                <_>
                  20 3 2 3 3.</_></rects>
              <tilted>1</tilted></feature>
            <threshold>-0.0462345816195011</threshold>
            <left_val>0.6019896268844604</left_val>
            <right_val>-0.7015985250473022</right_val></_></_>
        <_>
          <!-- tree 1 -->
          <_>
            <!-- root node -->
            <feature>
              <rects>
                <_>
                  0 2 6 14 -1.</_>
                <_>
                  0 2 3 7 2.</_>
                <_>
                  3 9 3 7 2.</_></rects>
              <tilted>0</tilted></feature>
            <threshold>0.0226886700838804</threshold>
            <left_val>-0.5946723222732544</left_val>
            <right_node>1</right_node></_>
          <_>
            <!-- node 1 -->
            <feature>
              <rects>
                <_>
                  18 13 6 6 -1.</_>
                <_>
                  18 16 6 3 2.</_></rects>
              <tilted>0</tilted></feature>
            <threshold>-6.3091241754591465e-03</threshold>
            <left_val>0.6883047223091125</left_val>
            <right_val>-0.4956811070442200</right_val></_></_>
        <_>
          <!-- tree 2 -->
          <_>
            <!-- root node -->
            <feature>
              <rects>
                <_>
                  7 0 2 2 -1.</_>
                <_>
                  7 1 2 1 2.</_></rects>
              <tilted>0</tilted></feature>
            <threshold>-1.5069199434947222e-04</threshold>
            <left_node>1</left_node>
            <right_val>-0.6643121242523193</right_val></_>
          <_>
            <!-- node 1 -->
            <feature>
              <rects>
                <_>
                  17 0 6 2 -1.</_>
                <_>
                  17 0 3 1 2.</_>
                <_>
                  20 1 3 1 2.</_></rects>
              <tilted>0</tilted></feature>
            <threshold>2.3020200023893267e-04</threshold>
            <left_val>-0.5169283151626587</left_val>
            <right_val>0.5930113196372986</right_val></_></_>
        <_>
          <!-- tree 3 -->
          <_>
            <!-- root node -->
            <feature>
              <rects>
                <_>
                  18 4 6 7 -1.</_>
                <_>
                  21 4 3 7 2.</_></rects>
              <tilted>0</tilted></feature>
            <threshold>0.0164757091552019</threshold>
            <left_val>-0.6153717041015625</left_val>
            <right_node>1</right_node></_>
          <_>
            <!-- node 1 -->
            <feature>
              <rects>
                <_>
                  16 3 8 13 -1.</_>
                <_>
                  18 5 4 13 2.</_></rects>
              <tilted>1</tilted></feature>
            <threshold>-4.3748249299824238e-04</threshold>
            <left_val>0.6736044287681580</left_val>
            <right_val>-0.5301774144172668</right_val></_></_>
        <_>
          <!-- tree 4 -->
          <_>
            <!-- root node -->
            <feature>
              <rects>
                <_>
                  2 5 4 19 -1.</_>
                <_>
                  3 5 2 19 2.</_></rects>
              <tilted>0</tilted></feature>
            <threshold>-1.5489599900320172e-03</threshold>
            <left_node>1</left_node>
            <right_val>-0.5477092862129211</right_val></_>
          <_>
            <!-- node 1 -->
            <feature>
              <rects>
                <_>
                  19 11 3 1 -1.</_>
                <_>
                  20 12 1 1 3.</_></rects>
              <tilted>1</tilted></feature>
            <threshold>1.6500470228493214e-03</threshold>
            <left_val>0.5861757993698120</left_val>
            <right_val>-0.8817195892333984</right_val></_></_></trees>
      <stage_threshold>-0.7324553728103638</stage_threshold>
      <parent>5</parent>
      <next>-1</next></_>
    <_>
      <!-- stage 7 -->
      <trees>
        <_>
          <!-- tree 0 -->
          <_>
            <!-- root node -->
            <feature>
              <rects>
                <_>
                  23 20 1 4 -1.</_>
                <_>
                  23 21 1 2 2.</_></rects>
              <tilted>0</tilted></feature>
            <threshold>3.7228420842438936e-03</threshold>
            <left_node>1</left_node>
            <right_val>0.9021288752555847</right_val></_>
          <_>
            <!-- node 1 -->
            <feature>
              <rects>
                <_>
                  3 4 16 4 -1.</_>
                <_>
                  7 4 8 4 2.</_></rects>
              <tilted>0</tilted></feature>
            <threshold>0.0575299896299839</threshold>
            <left_val>-0.6978291273117065</left_val>
            <right_val>0.4031125009059906</right_val></_></_>
        <_>
          <!-- tree 1 -->
          <_>
            <!-- root node -->
            <feature>
              <rects>
                <_>
                  3 13 2 2 -1.</_>
                <_>
                  3 14 2 1 2.</_></rects>
              <tilted>0</tilted></feature>
            <threshold>-1.7902940453495830e-04</threshold>
            <left_node>1</left_node>
            <right_val>-0.6742209792137146</right_val></_>
          <_>
            <!-- node 1 -->
            <feature>
              <rects>
                <_>
                  16 0 4 8 -1.</_>
                <_>
                  16 0 2 4 2.</_>
                <_>
                  18 4 2 4 2.</_></rects>
              <tilted>0</tilted></feature>
            <threshold>-3.0866889283061028e-03</threshold>
            <left_val>0.6464545726776123</left_val>
            <right_val>-0.5409024953842163</right_val></_></_>
        <_>
          <!-- tree 2 -->
          <_>
            <!-- root node -->
            <feature>
              <rects>
                <_>
                  12 0 4 1 -1.</_>
                <_>
                  13 0 2 1 2.</_></rects>
              <tilted>0</tilted></feature>
            <threshold>5.4420751985162497e-04</threshold>
            <left_node>1</left_node>
            <right_val>-0.9330195188522339</right_val></_>
          <_>
            <!-- node 1 -->
            <feature>
              <rects>
                <_>
                  11 0 3 1 -1.</_>
                <_>
                  12 0 1 1 3.</_></rects>
              <tilted>0</tilted></feature>
            <threshold>5.0842610653489828e-04</threshold>
            <left_val>0.4340867996215820</left_val>
            <right_val>-0.7898179888725281</right_val></_></_>
        <_>
          <!-- tree 3 -->
          <_>
            <!-- root node -->
            <feature>
              <rects>
                <_>
                  20 9 1 14 -1.</_>
                <_>
                  20 9 1 7 2.</_></rects>
              <tilted>1</tilted></feature>
            <threshold>0.0197921209037304</threshold>
            <left_val>-0.5412210822105408</left_val>
            <right_node>1</right_node></_>
          <_>
            <!-- node 1 -->
            <feature>
              <rects>
                <_>
                  11 3 3 1 -1.</_>
                <_>
                  12 3 1 1 3.</_></rects>
              <tilted>0</tilted></feature>
            <threshold>-3.0196728766895831e-04</threshold>
            <left_val>-0.7511692047119141</left_val>
            <right_val>0.5616211295127869</right_val></_></_>
        <_>
          <!-- tree 4 -->
          <_>
            <!-- root node -->
            <feature>
              <rects>
                <_>
                  20 0 1 3 -1.</_>
                <_>
                  20 1 1 1 3.</_></rects>
              <tilted>0</tilted></feature>
            <threshold>1.7188560450449586e-03</threshold>
            <left_node>1</left_node>
            <right_val>0.6330559253692627</right_val></_>
          <_>
            <!-- node 1 -->
            <feature>
              <rects>
                <_>
                  0 20 8 3 -1.</_>
                <_>
                  4 20 4 3 2.</_></rects>
              <tilted>0</tilted></feature>
            <threshold>9.7888689488172531e-03</threshold>
            <left_val>-0.7042667269706726</left_val>
            <right_val>0.3475314974784851</right_val></_></_></trees>
      <stage_threshold>-1.1780840158462524</stage_threshold>
      <parent>6</parent>
      <next>-1</next></_>
    <_>
      <!-- stage 8 -->
      <trees>
        <_>
          <!-- tree 0 -->
          <_>
            <!-- root node -->
            <feature>
              <rects>
                <_>
                  10 0 6 8 -1.</_>
                <_>
                  12 0 2 8 3.</_></rects>
              <tilted>0</tilted></feature>
            <threshold>8.0316653475165367e-03</threshold>
            <left_val>-0.6001530885696411</left_val>
            <right_node>1</right_node></_>
          <_>
            <!-- node 1 -->
            <feature>
              <rects>
                <_>
                  15 7 9 6 -1.</_>
                <_>
                  15 7 9 3 2.</_></rects>
              <tilted>1</tilted></feature>
            <threshold>0.0268980991095304</threshold>
            <left_val>-0.4043165147304535</left_val>
            <right_val>0.7337391972541809</right_val></_></_>
        <_>
          <!-- tree 1 -->
          <_>
            <!-- root node -->
            <feature>
              <rects>
                <_>
                  10 0 8 1 -1.</_>
                <_>
                  14 0 4 1 2.</_></rects>
              <tilted>0</tilted></feature>
            <threshold>-0.0127839604392648</threshold>
            <left_val>0.7793223857879639</left_val>
            <right_node>1</right_node></_>
          <_>
            <!-- node 1 -->
            <feature>
              <rects>
                <_>
                  9 1 4 8 -1.</_>
                <_>
                  9 1 2 8 2.</_></rects>
              <tilted>1</tilted></feature>
            <threshold>-0.0512545891106129</threshold>
            <left_val>0.3974626064300537</left_val>
            <right_val>-0.6246166825294495</right_val></_></_>
        <_>
          <!-- tree 2 -->
          <_>
            <!-- root node -->
            <feature>
              <rects>
                <_>
                  19 7 1 6 -1.</_>
                <_>
                  17 9 1 2 3.</_></rects>
              <tilted>1</tilted></feature>
            <threshold>0.0110925501212478</threshold>
            <left_node>1</left_node>
            <right_val>0.5891237258911133</right_val></_>
          <_>
            <!-- node 1 -->
            <feature>
              <rects>
                <_>
                  2 19 3 2 -1.</_>
                <_>
                  2 19 3 1 2.</_></rects>
              <tilted>1</tilted></feature>
            <threshold>-0.0106997797265649</threshold>
            <left_val>0.8393406271934509</left_val>
            <right_val>-0.4633632004261017</right_val></_></_>
        <_>
          <!-- tree 3 -->
          <_>
            <!-- root node -->
            <feature>
              <rects>
                <_>
                  22 14 2 2 -1.</_>
                <_>
                  22 14 1 2 2.</_></rects>
              <tilted>1</tilted></feature>
            <threshold>2.1238790359348059e-03</threshold>
            <left_node>1</left_node>
            <right_val>-0.6448581814765930</right_val></_>
          <_>
            <!-- node 1 -->
            <feature>
              <rects>
                <_>
                  0 10 1 3 -1.</_>
                <_>
                  0 11 1 1 3.</_></rects>
              <tilted>0</tilted></feature>
            <threshold>7.5884640682488680e-04</threshold>
            <left_val>0.4496509134769440</left_val>
            <right_val>-0.9301236867904663</right_val></_></_>
        <_>
          <!-- tree 4 -->
          <_>
            <!-- root node -->
            <feature>
              <rects>
                <_>
                  0 10 2 1 -1.</_>
                <_>
                  1 10 1 1 2.</_></rects>
              <tilted>0</tilted></feature>
            <threshold>8.6217289208434522e-05</threshold>
            <left_val>-0.5666692852973938</left_val>
            <right_node>1</right_node></_>
          <_>
            <!-- node 1 -->
            <feature>
              <rects>
                <_>
                  17 5 4 7 -1.</_>
                <_>
                  18 5 2 7 2.</_></rects>
              <tilted>0</tilted></feature>
            <threshold>-1.7154619563370943e-03</threshold>
            <left_val>0.6042373180389404</left_val>
            <right_val>-0.5229188799858093</right_val></_></_></trees>
      <stage_threshold>-1.6093150377273560</stage_threshold>
      <parent>7</parent>
      <next>-1</next></_>
    <_>
      <!-- stage 9 -->
      <trees>
        <_>
          <!-- tree 0 -->
          <_>
            <!-- root node -->
            <feature>
              <rects>
                <_>
                  14 23 10 1 -1.</_>
                <_>
                  19 23 5 1 2.</_></rects>
              <tilted>0</tilted></feature>
            <threshold>0.0103446701541543</threshold>
            <left_node>1</left_node>
            <right_val>0.7285121083259583</right_val></_>
          <_>
            <!-- node 1 -->
            <feature>
              <rects>
                <_>
                  22 15 1 2 -1.</_>
                <_>
                  22 16 1 1 2.</_></rects>
              <tilted>0</tilted></feature>
            <threshold>-6.1181279306765646e-05</threshold>
            <left_val>-0.0285491496324539</left_val>
            <right_val>-0.8621912002563477</right_val></_></_>
        <_>
          <!-- tree 1 -->
          <_>
            <!-- root node -->
            <feature>
              <rects>
                <_>
                  21 1 2 2 -1.</_>
                <_>
                  21 1 1 1 2.</_>
                <_>
                  22 2 1 1 2.</_></rects>
              <tilted>0</tilted></feature>
            <threshold>6.3737170421518385e-05</threshold>
            <left_val>-0.5537331104278564</left_val>
            <right_node>1</right_node></_>
          <_>
            <!-- node 1 -->
            <feature>
              <rects>
                <_>
                  2 9 4 4 -1.</_>
                <_>
                  3 9 2 4 2.</_></rects>
              <tilted>0</tilted></feature>
            <threshold>-1.8072379752993584e-03</threshold>
            <left_val>-0.6592326164245605</left_val>
            <right_val>0.5553162097930908</right_val></_></_>
        <_>
          <!-- tree 2 -->
          <_>
            <!-- root node -->
            <feature>
              <rects>
                <_>
                  17 0 4 2 -1.</_>
                <_>
                  17 0 2 1 2.</_>
                <_>
                  19 1 2 1 2.</_></rects>
              <tilted>0</tilted></feature>
            <threshold>6.2495539896190166e-03</threshold>
            <left_node>1</left_node>
            <right_val>0.7859408855438232</right_val></_>
          <_>
            <!-- node 1 -->
            <feature>
              <rects>
                <_>
                  9 0 3 8 -1.</_>
                <_>
                  10 1 1 8 3.</_></rects>
              <tilted>1</tilted></feature>
            <threshold>-0.0128586599603295</threshold>
            <left_val>0.3084051907062531</left_val>
            <right_val>-0.6052364706993103</right_val></_></_>
        <_>
          <!-- tree 3 -->
          <_>
            <!-- root node -->
            <feature>
              <rects>
                <_>
                  20 4 4 5 -1.</_>
                <_>
                  20 4 2 5 2.</_></rects>
              <tilted>1</tilted></feature>
            <threshold>-0.0252432897686958</threshold>
            <left_node>1</left_node>
            <right_val>-0.4936833083629608</right_val></_>
          <_>
            <!-- node 1 -->
            <feature>
              <rects>
                <_>
                  4 2 8 8 -1.</_>
                <_>
                  8 2 4 8 2.</_></rects>
              <tilted>0</tilted></feature>
            <threshold>0.0304442308843136</threshold>
            <left_val>-0.7024251222610474</left_val>
            <right_val>0.6836894750595093</right_val></_></_>
        <_>
          <!-- tree 4 -->
          <_>
            <!-- root node -->
            <feature>
              <rects>
                <_>
                  14 0 3 1 -1.</_>
                <_>
                  15 0 1 1 3.</_></rects>
              <tilted>0</tilted></feature>
            <threshold>-4.4253098894841969e-04</threshold>
            <left_val>-0.8736026287078857</left_val>
            <right_node>1</right_node></_>
          <_>
            <!-- node 1 -->
            <feature>
              <rects>
                <_>
                  8 0 3 1 -1.</_>
                <_>
                  9 0 1 1 3.</_></rects>
              <tilted>0</tilted></feature>
            <threshold>5.0219497643411160e-04</threshold>
            <left_val>0.4356800913810730</left_val>
            <right_val>-0.8804342150688171</right_val></_></_></trees>
      <stage_threshold>-1.2455220222473145</stage_threshold>
      <parent>8</parent>
      <next>-1</next></_>
    <_>
      <!-- stage 10 -->
      <trees>
        <_>
          <!-- tree 0 -->
          <_>
            <!-- root node -->
            <feature>
              <rects>
                <_>
                  23 17 1 6 -1.</_>
                <_>
                  23 20 1 3 2.</_></rects>
              <tilted>0</tilted></feature>
            <threshold>0.0137975402176380</threshold>
            <left_node>1</left_node>
            <right_val>0.9534531235694885</right_val></_>
          <_>
            <!-- node 1 -->
            <feature>
              <rects>
                <_>
                  19 0 2 1 -1.</_>
                <_>
                  20 0 1 1 2.</_></rects>
              <tilted>0</tilted></feature>
            <threshold>-6.3335299491882324e-03</threshold>
            <left_val>1.</left_val>
            <right_val>-0.5090215206146240</right_val></_></_>
        <_>
          <!-- tree 1 -->
          <_>
            <!-- root node -->
            <feature>
              <rects>
                <_>
                  4 14 1 2 -1.</_>
                <_>
                  4 15 1 1 2.</_></rects>
              <tilted>0</tilted></feature>
            <threshold>-7.0869420596864074e-05</threshold>
            <left_node>1</left_node>
            <right_val>-0.6863701939582825</right_val></_>
          <_>
            <!-- node 1 -->
            <feature>
              <rects>
                <_>
                  17 1 6 1 -1.</_>
                <_>
                  20 1 3 1 2.</_></rects>
              <tilted>0</tilted></feature>
            <threshold>1.2937580468133092e-03</threshold>
            <left_val>-0.3300698995590210</left_val>
            <right_val>0.6182246208190918</right_val></_></_>
        <_>
          <!-- tree 2 -->
          <_>
            <!-- root node -->
            <feature>
              <rects>
                <_>
                  1 1 7 9 -1.</_>
                <_>
                  1 4 7 3 3.</_></rects>
              <tilted>0</tilted></feature>
            <threshold>-0.0635005235671997</threshold>
            <left_val>0.4825303852558136</left_val>
            <right_node>1</right_node></_>
          <_>
            <!-- node 1 -->
            <feature>
              <rects>
                <_>
                  23 16 1 8 -1.</_>
                <_>
                  23 20 1 4 2.</_></rects>
              <tilted>0</tilted></feature>
            <threshold>0.0181321091949940</threshold>
            <left_val>-0.5976107120513916</left_val>
            <right_val>0.8412917256355286</right_val></_></_>
        <_>
          <!-- tree 3 -->
          <_>
            <!-- root node -->
            <feature>
              <rects>
                <_>
                  16 1 6 16 -1.</_>
                <_>
                  16 9 6 8 2.</_></rects>
              <tilted>0</tilted></feature>
            <threshold>0.0989059805870056</threshold>
            <left_val>-0.5234553813934326</left_val>
            <right_node>1</right_node></_>
          <_>
            <!-- node 1 -->
            <feature>
              <rects>
                <_>
                  4 2 18 19 -1.</_>
                <_>
                  13 2 9 19 2.</_></rects>
              <tilted>0</tilted></feature>
            <threshold>0.0512634702026844</threshold>
            <left_val>-0.3225657045841217</left_val>
            <right_val>0.7916492223739624</right_val></_></_></trees>
      <stage_threshold>-1.0354269742965698</stage_threshold>
      <parent>9</parent>
      <next>-1</next></_>
    <_>
      <!-- stage 11 -->
      <trees>
        <_>
          <!-- tree 0 -->
          <_>
            <!-- root node -->
            <feature>
              <rects>
                <_>
                  16 0 2 1 -1.</_>
                <_>
                  17 0 1 1 2.</_></rects>
              <tilted>0</tilted></feature>
            <threshold>5.6064829550450668e-05</threshold>
            <left_val>-0.5921214818954468</left_val>
            <right_node>1</right_node></_>
          <_>
            <!-- node 1 -->
            <feature>
              <rects>
                <_>
                  16 0 3 3 -1.</_>
                <_>
                  17 0 1 3 3.</_></rects>
              <tilted>0</tilted></feature>
            <threshold>-4.9577717436477542e-04</threshold>
            <left_val>0.7634698152542114</left_val>
            <right_val>-0.3466593027114868</right_val></_></_>
        <_>
          <!-- tree 1 -->
          <_>
            <!-- root node -->
            <feature>
              <rects>
                <_>
                  22 0 2 6 -1.</_>
                <_>
                  22 0 1 6 2.</_></rects>
              <tilted>1</tilted></feature>
            <threshold>2.4741448578424752e-04</threshold>
            <left_val>-0.6153457760810852</left_val>
            <right_node>1</right_node></_>
          <_>
            <!-- node 1 -->
            <feature>
              <rects>
                <_>
                  20 11 3 2 -1.</_>
                <_>
                  21 12 1 2 3.</_></rects>
              <tilted>1</tilted></feature>
            <threshold>-9.2497462173923850e-04</threshold>
            <left_val>-0.6802893877029419</left_val>
            <right_val>0.5357065200805664</right_val></_></_>
        <_>
          <!-- tree 2 -->
          <_>
            <!-- root node -->
            <feature>
              <rects>
                <_>
                  7 16 10 2 -1.</_>
                <_>
                  7 17 10 1 2.</_></rects>
              <tilted>0</tilted></feature>
            <threshold>-9.2703951522707939e-03</threshold>
            <left_val>0.7726529836654663</left_val>
            <right_node>1</right_node></_>
          <_>
            <!-- node 1 -->
            <feature>
              <rects>
                <_>
                  1 19 6 4 -1.</_>
                <_>
                  1 21 6 2 2.</_></rects>
              <tilted>0</tilted></feature>
            <threshold>-6.3500301912426949e-03</threshold>
            <left_val>0.2879047989845276</left_val>
            <right_val>-0.6243075728416443</right_val></_></_>
        <_>
          <!-- tree 3 -->
          <_>
            <!-- root node -->
            <feature>
              <rects>
                <_>
                  2 4 18 12 -1.</_>
                <_>
                  2 7 18 6 2.</_></rects>
              <tilted>0</tilted></feature>
            <threshold>0.1082397028803825</threshold>
            <left_val>-0.4462401866912842</left_val>
            <right_node>1</right_node></_>
          <_>
            <!-- node 1 -->
            <feature>
              <rects>
                <_>
                  19 13 1 2 -1.</_>
                <_>
                  19 14 1 1 2.</_></rects>
              <tilted>0</tilted></feature>
            <threshold>-7.5132498750463128e-05</threshold>
            <left_val>0.6828433871269226</left_val>
            <right_val>-0.6534615159034729</right_val></_></_>
        <_>
          <!-- tree 4 -->
          <_>
            <!-- root node -->
            <feature>
              <rects>
                <_>
                  4 4 3 8 -1.</_>
                <_>
                  5 4 1 8 3.</_></rects>
              <tilted>0</tilted></feature>
            <threshold>-1.5124659985303879e-03</threshold>
            <left_val>0.3587186038494110</left_val>
            <right_node>1</right_node></_>
          <_>
            <!-- node 1 -->
            <feature>
              <rects>
                <_>
                  2 21 1 2 -1.</_>
                <_>
                  2 21 1 1 2.</_></rects>
              <tilted>1</tilted></feature>
            <threshold>-3.5281439777463675e-03</threshold>
            <left_val>0.7062206268310547</left_val>
            <right_val>-0.7688956260681152</right_val></_></_></trees>
      <stage_threshold>-1.0705579519271851</stage_threshold>
      <parent>10</parent>
      <next>-1</next></_></stages></cascade>
</opencv_storage>
